{"learner":{"attributes":{"best_iteration":"2137","best_ntree_limit":"2138","best_score":"20.679159183652672"},"feature_names":["period_day","period_week","period_year","period_day_of_week","period_day_of_year","period_month_end","period_month_start","period_quarter_end","period_quarter_start","period_year_end","period_year_start"],"feature_types":["int","int","int","int","int","i","i","i","i","i","i"],"gradient_booster":{"model":{"gbtree_model_param":{"num_parallel_tree":"1","num_trees":"2238","size_leaf_vector":"0"},"tree_info":[0,0,0,0,0,0,0,0,0,0,0,0,0,0,0,0,0,0,0,0,0,0,0,0,0,0,0,0,0,0,0,0,0,0,0,0,0,0,0,0,0,0,0,0,0,0,0,0,0,0,0,0,0,0,0,0,0,0,0,0,0,0,0,0,0,0,0,0,0,0,0,0,0,0,0,0,0,0,0,0,0,0,0,0,0,0,0,0,0,0,0,0,0,0,0,0,0,0,0,0,0,0,0,0,0,0,0,0,0,0,0,0,0,0,0,0,0,0,0,0,0,0,0,0,0,0,0,0,0,0,0,0,0,0,0,0,0,0,0,0,0,0,0,0,0,0,0,0,0,0,0,0,0,0,0,0,0,0,0,0,0,0,0,0,0,0,0,0,0,0,0,0,0,0,0,0,0,0,0,0,0,0,0,0,0,0,0,0,0,0,0,0,0,0,0,0,0,0,0,0,0,0,0,0,0,0,0,0,0,0,0,0,0,0,0,0,0,0,0,0,0,0,0,0,0,0,0,0,0,0,0,0,0,0,0,0,0,0,0,0,0,0,0,0,0,0,0,0,0,0,0,0,0,0,0,0,0,0,0,0,0,0,0,0,0,0,0,0,0,0,0,0,0,0,0,0,0,0,0,0,0,0,0,0,0,0,0,0,0,0,0,0,0,0,0,0,0,0,0,0,0,0,0,0,0,0,0,0,0,0,0,0,0,0,0,0,0,0,0,0,0,0,0,0,0,0,0,0,0,0,0,0,0,0,0,0,0,0,0,0,0,0,0,0,0,0,0,0,0,0,0,0,0,0,0,0,0,0,0,0,0,0,0,0,0,0,0,0,0,0,0,0,0,0,0,0,0,0,0,0,0,0,0,0,0,0,0,0,0,0,0,0,0,0,0,0,0,0,0,0,0,0,0,0,0,0,0,0,0,0,0,0,0,0,0,0,0,0,0,0,0,0,0,0,0,0,0,0,0,0,0,0,0,0,0,0,0,0,0,0,0,0,0,0,0,0,0,0,0,0,0,0,0,0,0,0,0,0,0,0,0,0,0,0,0,0,0,0,0,0,0,0,0,0,0,0,0,0,0,0,0,0,0,0,0,0,0,0,0,0,0,0,0,0,0,0,0,0,0,0,0,0,0,0,0,0,0,0,0,0,0,0,0,0,0,0,0,0,0,0,0,0,0,0,0,0,0,0,0,0,0,0,0,0,0,0,0,0,0,0,0,0,0,0,0,0,0,0,0,0,0,0,0,0,0,0,0,0,0,0,0,0,0,0,0,0,0,0,0,0,0,0,0,0,0,0,0,0,0,0,0,0,0,0,0,0,0,0,0,0,0,0,0,0,0,0,0,0,0,0,0,0,0,0,0,0,0,0,0,0,0,0,0,0,0,0,0,0,0,0,0,0,0,0,0,0,0,0,0,0,0,0,0,0,0,0,0,0,0,0,0,0,0,0,0,0,0,0,0,0,0,0,0,0,0,0,0,0,0,0,0,0,0,0,0,0,0,0,0,0,0,0,0,0,0,0,0,0,0,0,0,0,0,0,0,0,0,0,0,0,0,0,0,0,0,0,0,0,0,0,0,0,0,0,0,0,0,0,0,0,0,0,0,0,0,0,0,0,0,0,0,0,0,0,0,0,0,0,0,0,0,0,0,0,0,0,0,0,0,0,0,0,0,0,0,0,0,0,0,0,0,0,0,0,0,0,0,0,0,0,0,0,0,0,0,0,0,0,0,0,0,0,0,0,0,0,0,0,0,0,0,0,0,0,0,0,0,0,0,0,0,0,0,0,0,0,0,0,0,0,0,0,0,0,0,0,0,0,0,0,0,0,0,0,0,0,0,0,0,0,0,0,0,0,0,0,0,0,0,0,0,0,0,0,0,0,0,0,0,0,0,0,0,0,0,0,0,0,0,0,0,0,0,0,0,0,0,0,0,0,0,0,0,0,0,0,0,0,0,0,0,0,0,0,0,0,0,0,0,0,0,0,0,0,0,0,0,0,0,0,0,0,0,0,0,0,0,0,0,0,0,0,0,0,0,0,0,0,0,0,0,0,0,0,0,0,0,0,0,0,0,0,0,0,0,0,0,0,0,0,0,0,0,0,0,0,0,0,0,0,0,0,0,0,0,0,0,0,0,0,0,0,0,0,0,0,0,0,0,0,0,0,0,0,0,0,0,0,0,0,0,0,0,0,0,0,0,0,0,0,0,0,0,0,0,0,0,0,0,0,0,0,0,0,0,0,0,0,0,0,0,0,0,0,0,0,0,0,0,0,0,0,0,0,0,0,0,0,0,0,0,0,0,0,0,0,0,0,0,0,0,0,0,0,0,0,0,0,0,0,0,0,0,0,0,0,0,0,0,0,0,0,0,0,0,0,0,0,0,0,0,0,0,0,0,0,0,0,0,0,0,0,0,0,0,0,0,0,0,0,0,0,0,0,0,0,0,0,0,0,0,0,0,0,0,0,0,0,0,0,0,0,0,0,0,0,0,0,0,0,0,0,0,0,0,0,0,0,0,0,0,0,0,0,0,0,0,0,0,0,0,0,0,0,0,0,0,0,0,0,0,0,0,0,0,0,0,0,0,0,0,0,0,0,0,0,0,0,0,0,0,0,0,0,0,0,0,0,0,0,0,0,0,0,0,0,0,0,0,0,0,0,0,0,0,0,0,0,0,0,0,0,0,0,0,0,0,0,0,0,0,0,0,0,0,0,0,0,0,0,0,0,0,0,0,0,0,0,0,0,0,0,0,0,0,0,0,0,0,0,0,0,0,0,0,0,0,0,0,0,0,0,0,0,0,0,0,0,0,0,0,0,0,0,0,0,0,0,0,0,0,0,0,0,0,0,0,0,0,0,0,0,0,0,0,0,0,0,0,0,0,0,0,0,0,0,0,0,0,0,0,0,0,0,0,0,0,0,0,0,0,0,0,0,0,0,0,0,0,0,0,0,0,0,0,0,0,0,0,0,0,0,0,0,0,0,0,0,0,0,0,0,0,0,0,0,0,0,0,0,0,0,0,0,0,0,0,0,0,0,0,0,0,0,0,0,0,0,0,0,0,0,0,0,0,0,0,0,0,0,0,0,0,0,0,0,0,0,0,0,0,0,0,0,0,0,0,0,0,0,0,0,0,0,0,0,0,0,0,0,0,0,0,0,0,0,0,0,0,0,0,0,0,0,0,0,0,0,0,0,0,0,0,0,0,0,0,0,0,0,0,0,0,0,0,0,0,0,0,0,0,0,0,0,0,0,0,0,0,0,0,0,0,0,0,0,0,0,0,0,0,0,0,0,0,0,0,0,0,0,0,0,0,0,0,0,0,0,0,0,0,0,0,0,0,0,0,0,0,0,0,0,0,0,0,0,0,0,0,0,0,0,0,0,0,0,0,0,0,0,0,0,0,0,0,0,0,0,0,0,0,0,0,0,0,0,0,0,0,0,0,0,0,0,0,0,0,0,0,0,0,0,0,0,0,0,0,0,0,0,0,0,0,0,0,0,0,0,0,0,0,0,0,0,0,0,0,0,0,0,0,0,0,0,0,0,0,0,0,0,0,0,0,0,0,0,0,0,0,0,0,0,0,0,0,0,0,0,0,0,0,0,0,0,0,0,0,0,0,0,0,0,0,0,0,0,0,0,0,0,0,0,0,0,0,0,0,0,0,0,0,0,0,0,0,0,0,0,0,0,0,0,0,0,0,0,0,0,0,0,0,0,0,0,0,0,0,0,0,0,0,0,0,0,0,0,0,0,0,0,0,0,0,0,0,0,0,0,0,0,0,0,0,0,0,0,0,0,0,0,0,0,0,0,0,0,0,0,0,0,0,0,0,0,0,0,0,0,0,0,0,0,0,0,0,0,0,0,0,0,0,0,0,0,0,0,0,0,0,0,0,0,0,0,0,0,0,0,0,0,0,0,0,0,0,0,0,0,0,0,0,0,0,0,0,0,0,0,0,0,0,0,0,0,0,0,0,0,0,0,0,0,0,0,0,0,0,0,0,0,0,0,0,0,0,0,0,0,0,0,0,0,0,0,0,0,0,0,0,0,0,0,0,0,0,0,0,0,0,0,0,0,0,0,0,0,0,0,0,0,0,0,0,0,0,0,0,0,0,0,0,0,0,0,0,0,0,0,0,0,0,0,0,0,0,0,0,0,0,0,0,0,0,0,0,0,0,0,0,0,0,0,0,0,0,0,0,0,0,0,0,0,0,0,0,0,0,0,0,0,0,0,0,0,0,0,0,0,0,0,0,0,0,0,0,0,0,0,0,0,0,0,0,0,0,0,0,0,0,0,0,0,0,0,0,0,0,0,0,0,0,0,0,0,0,0,0,0,0,0,0,0,0,0,0,0,0,0,0,0,0,0,0,0,0,0,0,0,0,0,0,0,0,0,0,0,0,0,0,0,0,0,0,0,0,0,0,0,0,0,0,0,0,0,0,0,0,0,0,0,0,0,0,0,0,0,0,0,0,0,0,0,0,0,0,0,0,0,0,0,0,0,0,0,0,0,0,0,0,0,0,0,0,0,0,0,0,0,0,0,0,0,0,0,0,0,0,0,0,0,0,0,0,0,0,0,0,0,0,0,0,0,0,0,0,0,0,0,0,0,0,0,0,0,0,0,0,0,0,0,0,0,0,0,0,0,0,0,0,0,0,0,0,0,0,0,0,0,0,0,0,0,0,0,0,0,0,0,0,0,0,0,0,0,0,0,0,0,0,0,0,0,0,0,0,0,0,0,0,0,0,0,0,0,0,0,0,0,0,0,0,0,0,0,0,0,0,0,0,0,0,0,0,0,0,0,0,0,0,0,0,0,0,0,0,0,0,0,0,0,0,0,0,0,0,0,0,0,0,0,0,0,0,0,0,0,0,0,0,0,0,0,0,0,0,0,0,0,0,0,0,0,0,0,0,0,0,0,0,0,0,0,0,0,0,0,0,0,0,0,0,0,0,0,0,0,0,0,0,0,0,0,0,0,0,0,0,0,0,0,0,0,0,0,0,0,0,0,0,0,0,0,0,0,0,0,0,0],"trees":[{"base_weights":[7.24699E1,7.990181E1,6.921655E1,6.909878E1,8.2565216E1,5.965312E1,7.255346E1,6.3684452E1,8.966265E1,7.82486E1,8.760537E1,6.492478E1,5.247601E1,9.021834E1,6.7591225E1],"categories":[],"categories_nodes":[],"categories_segments":[],"categories_sizes":[],"default_left":[1,1,1,1,1,1,1,0,0,0,0,0,0,0,0],"id":0,"left_children":[1,3,5,7,9,11,13,-1,-1,-1,-1,-1,-1,-1,-1],"loss_changes":[1.5714E5,5.3049E4,1.45246E5,3.9939E4,2.8673E4,4.26765E4,2.98072E5,0E0,0E0,0E0,0E0,0E0,0E0,0E0,0E0],"parents":[2147483647,0,0,1,1,2,2,3,3,4,4,5,5,6,6],"right_children":[2,4,6,8,10,12,14,-1,-1,-1,-1,-1,-1,-1,-1],"split_conditions":[6.85E1,2.0225E3,2.45E1,2.25E1,1.45E1,9.75E1,2.525E2,6.368445E-1,8.966265E-1,7.8248596E-1,8.760537E-1,6.492478E-1,5.2476007E-1,9.0218335E-1,6.7591226E-1],"split_indices":[4,2,1,0,0,4,4,0,0,0,0,0,0,0,0],"split_type":[0,0,0,0,0,0,0,0,0,0,0,0,0,0,0],"sum_hessian":[6.727E3,2.041E3,4.686E3,4.09E2,1.632E3,1.217E3,3.469E3,3.27E2,8.2E1,8.88E2,7.44E2,6.97E2,5.2E2,7.57E2,2.712E3],"tree_param":{"num_deleted":"0","num_feature":"11","num_nodes":"15","size_leaf_vector":"0"}},{"base_weights":[7.1746086E1,7.9104355E1,6.852498E1,6.841154E1,8.174058E1,5.9057552E1,7.182838E1,6.304955E1,8.8776825E1,7.746699E1,8.673049E1,6.427647E1,5.1952255E1,8.9317345E1,6.6915565E1],"categories":[],"categories_nodes":[],"categories_segments":[],"categories_sizes":[],"default_left":[1,1,1,1,1,1,1,0,0,0,0,0,0,0,0],"id":1,"left_children":[1,3,5,7,9,11,13,-1,-1,-1,-1,-1,-1,-1,-1],"loss_changes":[1.54044E5,5.1969E4,1.42342E5,3.9173875E4,2.8106E4,4.18265E4,2.92166E5,0E0,0E0,0E0,0E0,0E0,0E0,0E0,0E0],"parents":[2147483647,0,0,1,1,2,2,3,3,4,4,5,5,6,6],"right_children":[2,4,6,8,10,12,14,-1,-1,-1,-1,-1,-1,-1,-1],"split_conditions":[6.85E1,2.0225E3,2.45E1,2.25E1,1.45E1,9.75E1,2.525E2,6.304955E-1,8.877682E-1,7.746699E-1,8.673049E-1,6.427646E-1,5.1952255E-1,8.9317346E-1,6.6915566E-1],"split_indices":[4,2,1,0,0,4,4,0,0,0,0,0,0,0,0],"split_type":[0,0,0,0,0,0,0,0,0,0,0,0,0,0,0],"sum_hessian":[6.727E3,2.041E3,4.686E3,4.09E2,1.632E3,1.217E3,3.469E3,3.27E2,8.2E1,8.88E2,7.44E2,6.97E2,5.2E2,7.57E2,2.712E3],"tree_param":{"num_deleted":"0","num_feature":"11","num_nodes":"15","size_leaf_vector":"0"}},{"base_weights":[7.1029495E1,7.831486E1,6.784031E1,6.773112E1,8.092418E1,5.846793E1,7.111054E1,6.2420975E1,8.789976E1,7.6693184E1,8.586435E1,6.3634624E1,5.143373E1,8.842535E1,6.624665E1],"categories":[],"categories_nodes":[],"categories_segments":[],"categories_sizes":[],"default_left":[1,1,1,1,1,1,1,0,0,0,0,0,0,0,0],"id":2,"left_children":[1,3,5,7,9,11,13,-1,-1,-1,-1,-1,-1,-1,-1],"loss_changes":[1.51008E5,5.0912E4,1.395E5,3.842375E4,2.7548E4,4.09935E4,2.86376E5,0E0,0E0,0E0,0E0,0E0,0E0,0E0,0E0],"parents":[2147483647,0,0,1,1,2,2,3,3,4,4,5,5,6,6],"right_children":[2,4,6,8,10,12,14,-1,-1,-1,-1,-1,-1,-1,-1],"split_conditions":[6.85E1,2.0225E3,2.45E1,2.25E1,1.45E1,9.75E1,2.525E2,6.2420976E-1,8.7899756E-1,7.6693183E-1,8.586435E-1,6.363462E-1,5.143373E-1,8.8425344E-1,6.6246647E-1],"split_indices":[4,2,1,0,0,4,4,0,0,0,0,0,0,0,0],"split_type":[0,0,0,0,0,0,0,0,0,0,0,0,0,0,0],"sum_hessian":[6.727E3,2.041E3,4.686E3,4.09E2,1.632E3,1.217E3,3.469E3,3.27E2,8.2E1,8.88E2,7.44E2,6.97E2,5.2E2,7.57E2,2.712E3],"tree_param":{"num_deleted":"0","num_feature":"11","num_nodes":"15","size_leaf_vector":"0"}},{"base_weights":[7.032007E1,7.753324E1,6.716248E1,6.705748E1,8.011593E1,5.7884197E1,7.039989E1,6.179867E1,8.703135E1,7.592712E1,8.500686E1,6.2999187E1,5.092038E1,8.754226E1,6.5584435E1],"categories":[],"categories_nodes":[],"categories_segments":[],"categories_sizes":[],"default_left":[1,1,1,1,1,1,1,0,0,0,0,0,0,0,0],"id":3,"left_children":[1,3,5,7,9,11,13,-1,-1,-1,-1,-1,-1,-1,-1],"loss_changes":[1.4803E5,4.9875E4,1.3671E5,3.7687375E4,2.7001E4,4.0177E4,2.80702E5,0E0,0E0,0E0,0E0,0E0,0E0,0E0,0E0],"parents":[2147483647,0,0,1,1,2,2,3,3,4,4,5,5,6,6],"right_children":[2,4,6,8,10,12,14,-1,-1,-1,-1,-1,-1,-1,-1],"split_conditions":[6.85E1,2.0225E3,2.45E1,2.25E1,1.45E1,9.75E1,2.525E2,6.179867E-1,8.7031347E-1,7.5927114E-1,8.5006857E-1,6.299919E-1,5.092038E-1,8.754226E-1,6.5584433E-1],"split_indices":[4,2,1,0,0,4,4,0,0,0,0,0,0,0,0],"split_type":[0,0,0,0,0,0,0,0,0,0,0,0,0,0,0],"sum_hessian":[6.727E3,2.041E3,4.686E3,4.09E2,1.632E3,1.217E3,3.469E3,3.27E2,8.2E1,8.88E2,7.44E2,6.97E2,5.2E2,7.57E2,2.712E3],"tree_param":{"num_deleted":"0","num_feature":"11","num_nodes":"15","size_leaf_vector":"0"}},{"base_weights":[6.961773E1,7.675943E1,6.6491425E1,6.639053E1,7.931576E1,5.730629E1,6.969633E1,6.1182564E1,8.617152E1,7.51687E1,8.415793E1,6.2370102E1,5.041215E1,8.6668E1,6.492883E1],"categories":[],"categories_nodes":[],"categories_segments":[],"categories_sizes":[],"default_left":[1,1,1,1,1,1,1,0,0,0,0,0,0,0,0],"id":4,"left_children":[1,3,5,7,9,11,13,-1,-1,-1,-1,-1,-1,-1,-1],"loss_changes":[1.45112E5,4.886E4,1.3398E5,3.69655E4,2.6466E4,3.937675E4,2.75138E5,0E0,0E0,0E0,0E0,0E0,0E0,0E0,0E0],"parents":[2147483647,0,0,1,1,2,2,3,3,4,4,5,5,6,6],"right_children":[2,4,6,8,10,12,14,-1,-1,-1,-1,-1,-1,-1,-1],"split_conditions":[6.85E1,2.0225E3,2.45E1,2.25E1,1.45E1,9.75E1,2.525E2,6.1182564E-1,8.6171514E-1,7.51687E-1,8.4157926E-1,6.23701E-1,5.041215E-1,8.6667997E-1,6.492883E-1],"split_indices":[4,2,1,0,0,4,4,0,0,0,0,0,0,0,0],"split_type":[0,0,0,0,0,0,0,0,0,0,0,0,0,0,0],"sum_hessian":[6.727E3,2.041E3,4.686E3,4.09E2,1.632E3,1.217E3,3.469E3,3.27E2,8.2E1,8.88E2,7.44E2,6.97E2,5.2E2,7.57E2,2.712E3],"tree_param":{"num_deleted":"0","num_feature":"11","num_nodes":"15","size_leaf_vector":"0"}},{"base_weights":[6.89224E1,7.599334E1,6.582707E1,6.573022E1,7.852358E1,5.6734154E1,6.89998E1,6.0572605E1,8.532018E1,7.441786E1,8.331748E1,6.174729E1,4.9909E1,8.580246E1,6.427978E1],"categories":[],"categories_nodes":[],"categories_segments":[],"categories_sizes":[],"default_left":[1,1,1,1,1,1,1,0,0,0,0,0,0,0,0],"id":5,"left_children":[1,3,5,7,9,11,13,-1,-1,-1,-1,-1,-1,-1,-1],"loss_changes":[1.4225E5,4.7866E4,1.31302E5,3.6257375E4,2.5941E4,3.8593E4,2.69686E5,0E0,0E0,0E0,0E0,0E0,0E0,0E0,0E0],"parents":[2147483647,0,0,1,1,2,2,3,3,4,4,5,5,6,6],"right_children":[2,4,6,8,10,12,14,-1,-1,-1,-1,-1,-1,-1,-1],"split_conditions":[6.85E1,2.0225E3,2.45E1,2.25E1,1.45E1,9.75E1,2.525E2,6.0572606E-1,8.532018E-1,7.441786E-1,8.331748E-1,6.174729E-1,4.9909E-1,8.580246E-1,6.4279777E-1],"split_indices":[4,2,1,0,0,4,4,0,0,0,0,0,0,0,0],"split_type":[0,0,0,0,0,0,0,0,0,0,0,0,0,0,0],"sum_hessian":[6.727E3,2.041E3,4.686E3,4.09E2,1.632E3,1.217E3,3.469E3,3.27E2,8.2E1,8.88E2,7.44E2,6.97E2,5.2E2,7.57E2,2.712E3],"tree_param":{"num_deleted":"0","num_feature":"11","num_nodes":"15","size_leaf_vector":"0"}},{"base_weights":[6.823402E1,7.523489E1,6.5169365E1,6.507648E1,7.773931E1,6.2147114E1,7.4638824E1,5.9968727E1,8.4477264E1,7.367452E1,8.248543E1,6.718315E1,5.5100918E1,6.9660706E1,7.889637E1],"categories":[],"categories_nodes":[],"categories_segments":[],"categories_sizes":[],"default_left":[1,1,1,1,1,1,1,0,0,0,0,0,0,0,0],"id":6,"left_children":[1,3,5,7,9,11,13,-1,-1,-1,-1,-1,-1,-1,-1],"loss_changes":[1.39448E5,4.689E4,1.295E5,3.5562875E4,2.5428E4,1.2259E5,1.84325E4,0E0,0E0,0E0,0E0,0E0,0E0,0E0,0E0],"parents":[2147483647,0,0,1,1,2,2,3,3,4,4,5,5,6,6],"right_children":[2,4,6,8,10,12,14,-1,-1,-1,-1,-1,-1,-1,-1],"split_conditions":[6.85E1,2.0225E3,3.185E2,2.25E1,1.45E1,2.565E2,3.405E2,5.996873E-1,8.4477264E-1,7.367452E-1,8.2485425E-1,6.718315E-1,5.510092E-1,6.9660705E-1,7.889637E-1],"split_indices":[4,2,4,0,0,4,4,0,0,0,0,0,0,0,0],"split_type":[0,0,0,0,0,0,0,0,0,0,0,0,0,0,0],"sum_hessian":[6.727E3,2.041E3,4.686E3,4.09E2,1.632E3,3.558E3,1.128E3,3.27E2,8.2E1,8.88E2,7.44E2,2.07E3,1.488E3,5.28E2,6E2],"tree_param":{"num_deleted":"0","num_feature":"11","num_nodes":"15","size_leaf_vector":"0"}},{"base_weights":[6.755253E1,7.448402E1,6.451825E1,6.442924E1,7.6962875E1,5.549645E1,6.766638E1,5.937087E1,8.364267E1,7.29386E1,8.166168E1,6.0459835E1,4.8740326E1,8.427462E1,6.300118E1],"categories":[],"categories_nodes":[],"categories_segments":[],"categories_sizes":[],"default_left":[1,1,1,1,1,1,1,0,0,0,0,0,0,0,0],"id":7,"left_children":[1,3,5,7,9,11,13,-1,-1,-1,-1,-1,-1,-1,-1],"loss_changes":[1.36696E5,4.5937E4,1.29366E5,3.4881625E4,2.4923E4,3.789675E4,2.63549E5,0E0,0E0,0E0,0E0,0E0,0E0,0E0,0E0],"parents":[2147483647,0,0,1,1,2,2,3,3,4,4,5,5,6,6],"right_children":[2,4,6,8,10,12,14,-1,-1,-1,-1,-1,-1,-1,-1],"split_conditions":[6.85E1,2.0225E3,2.45E1,2.25E1,1.45E1,9.75E1,2.525E2,5.937087E-1,8.364267E-1,7.29386E-1,8.166168E-1,6.0459834E-1,4.8740324E-1,8.427462E-1,6.300118E-1],"split_indices":[4,2,1,0,0,4,4,0,0,0,0,0,0,0,0],"split_type":[0,0,0,0,0,0,0,0,0,0,0,0,0,0,0],"sum_hessian":[6.727E3,2.041E3,4.686E3,4.09E2,1.632E3,1.217E3,3.469E3,3.27E2,8.2E1,8.88E2,7.44E2,6.97E2,5.2E2,7.57E2,2.712E3],"tree_param":{"num_deleted":"0","num_feature":"11","num_nodes":"15","size_leaf_vector":"0"}},{"base_weights":[6.687782E1,7.374063E1,6.387361E1,6.378843E1,7.619419E1,6.0876717E1,7.32643E1,5.877897E1,8.2816315E1,7.221004E1,8.084616E1,6.584854E1,5.392069E1,6.83366E1,7.747976E1],"categories":[],"categories_nodes":[],"categories_segments":[],"categories_sizes":[],"default_left":[1,1,1,1,1,1,1,0,0,0,0,0,0,0,0],"id":8,"left_children":[1,3,5,7,9,11,13,-1,-1,-1,-1,-1,-1,-1,-1],"loss_changes":[1.34E5,4.5002E4,1.27446E5,3.4213E4,2.4429E4,1.19535E5,1.81575E4,0E0,0E0,0E0,0E0,0E0,0E0,0E0,0E0],"parents":[2147483647,0,0,1,1,2,2,3,3,4,4,5,5,6,6],"right_children":[2,4,6,8,10,12,14,-1,-1,-1,-1,-1,-1,-1,-1],"split_conditions":[6.85E1,2.0225E3,3.185E2,2.25E1,1.45E1,2.565E2,3.405E2,5.8778965E-1,8.2816315E-1,7.221004E-1,8.084616E-1,6.584854E-1,5.3920686E-1,6.83366E-1,7.7479756E-1],"split_indices":[4,2,4,0,0,4,4,0,0,0,0,0,0,0,0],"split_type":[0,0,0,0,0,0,0,0,0,0,0,0,0,0,0],"sum_hessian":[6.727E3,2.041E3,4.686E3,4.09E2,1.632E3,3.558E3,1.128E3,3.27E2,8.2E1,8.88E2,7.44E2,2.07E3,1.488E3,5.28E2,6E2],"tree_param":{"num_deleted":"0","num_feature":"11","num_nodes":"15","size_leaf_vector":"0"}},{"base_weights":[6.620988E1,7.300467E1,6.3235443E1,6.3154E1,7.543318E1,5.4284435E1,6.63591E1,5.819297E1,8.199813E1,7.148875E1,8.003878E1,5.9198563E1,4.7596634E1,8.277537E1,6.1748013E1],"categories":[],"categories_nodes":[],"categories_segments":[],"categories_sizes":[],"default_left":[1,1,1,1,1,1,1,0,0,0,0,0,0,0,0],"id":9,"left_children":[1,3,5,7,9,11,13,-1,-1,-1,-1,-1,-1,-1,-1],"loss_changes":[1.31362E5,4.4086E4,1.27448E5,3.355775E4,2.3944E4,3.72115E4,2.57556E5,0E0,0E0,0E0,0E0,0E0,0E0,0E0,0E0],"parents":[2147483647,0,0,1,1,2,2,3,3,4,4,5,5,6,6],"right_children":[2,4,6,8,10,12,14,-1,-1,-1,-1,-1,-1,-1,-1],"split_conditions":[6.85E1,2.0225E3,2.45E1,2.25E1,1.45E1,9.75E1,2.525E2,5.819297E-1,8.199813E-1,7.1488744E-1,8.003878E-1,5.919856E-1,4.7596633E-1,8.2775366E-1,6.174801E-1],"split_indices":[4,2,1,0,0,4,4,0,0,0,0,0,0,0,0],"split_type":[0,0,0,0,0,0,0,0,0,0,0,0,0,0,0],"sum_hessian":[6.727E3,2.041E3,4.686E3,4.09E2,1.632E3,1.217E3,3.469E3,3.27E2,8.2E1,8.88E2,7.44E2,6.97E2,5.2E2,7.57E2,2.712E3],"tree_param":{"num_deleted":"0","num_feature":"11","num_nodes":"15","size_leaf_vector":"0"}},{"base_weights":[6.5548584E1,7.227605E1,6.2603626E1,6.967554E1,8.150527E1,5.963192E1,7.1916016E1,5.7612816E1,7.2728874E1,6.454044E1,5.276478E1,6.703821E1,7.60898E1],"categories":[],"categories_nodes":[],"categories_segments":[],"categories_sizes":[],"default_left":[1,1,1,1,0,1,1,0,0,0,0,0,0],"id":10,"left_children":[1,3,5,7,-1,9,11,-1,-1,-1,-1,-1,-1],"loss_changes":[1.28768E5,4.3331E4,1.2542E5,5.474E4,0E0,1.16558E5,1.78845E4,0E0,0E0,0E0,0E0,0E0,0E0],"parents":[2147483647,0,0,1,1,2,2,3,3,5,5,6,6],"right_children":[2,4,6,8,-1,10,12,-1,-1,-1,-1,-1,-1],"split_conditions":[6.85E1,2.25E1,3.185E2,2.0225E3,8.150527E-1,2.565E2,3.405E2,5.761281E-1,7.272887E-1,6.454044E-1,5.276478E-1,6.703821E-1,7.6089793E-1],"split_indices":[4,0,4,2,0,4,4,0,0,0,0,0,0],"split_type":[0,0,0,0,0,0,0,0,0,0,0,0,0],"sum_hessian":[6.727E3,2.041E3,4.686E3,1.599E3,4.42E2,3.558E3,1.128E3,3.27E2,1.272E3,2.07E3,1.488E3,5.28E2,6E2],"tree_param":{"num_deleted":"0","num_feature":"11","num_nodes":"13","size_leaf_vector":"0"}},{"base_weights":[6.48938E1,7.155433E1,6.1978146E1,6.89796E1,8.0692055E1,5.309759E1,6.507743E1,5.7038445E1,7.200216E1,8.60323E1,7.783243E1,5.7962944E1,4.6477417E1,8.098243E1,6.042783E1],"categories":[],"categories_nodes":[],"categories_segments":[],"categories_sizes":[],"default_left":[1,1,1,1,1,1,1,0,0,0,0,0,0,0,0],"id":11,"left_children":[1,3,5,7,9,11,13,-1,-1,-1,-1,-1,-1,-1,-1],"loss_changes":[1.2622E5,4.2476E4,1.25546E5,5.3642E4,6.9E1,3.6537E4,2.51719E5,0E0,0E0,0E0,0E0,0E0,0E0,0E0,0E0],"parents":[2147483647,0,0,1,1,2,2,3,3,4,4,5,5,6,6],"right_children":[2,4,6,8,10,12,14,-1,-1,-1,-1,-1,-1,-1,-1],"split_conditions":[6.85E1,2.25E1,2.45E1,2.0225E3,2.45E1,9.75E1,2.535E2,5.7038444E-1,7.2002155E-1,8.60323E-1,7.7832425E-1,5.796294E-1,4.6477416E-1,8.098243E-1,6.0427827E-1],"split_indices":[4,0,1,2,0,4,4,0,0,0,0,0,0,0,0],"split_type":[0,0,0,0,0,0,0,0,0,0,0,0,0,0,0],"sum_hessian":[6.727E3,2.041E3,4.686E3,1.599E3,4.42E2,1.217E3,3.469E3,3.27E2,1.272E3,1.44E2,2.98E2,6.97E2,5.2E2,7.81E2,2.688E3],"tree_param":{"num_deleted":"0","num_feature":"11","num_nodes":"15","size_leaf_vector":"0"}},{"base_weights":[6.424567E1,7.084022E1,6.1358887E1,6.82906E1,7.988884E1,5.8411926E1,7.059438E1,5.64698E1,7.12827E1,8.517792E1,7.705671E1,6.3257168E1,5.1633614E1,6.576596E1,7.472689E1],"categories":[],"categories_nodes":[],"categories_segments":[],"categories_sizes":[],"default_left":[1,1,1,1,1,1,1,0,0,0,0,0,0,0,0],"id":12,"left_children":[1,3,5,7,9,11,13,-1,-1,-1,-1,-1,-1,-1,-1],"loss_changes":[1.23734E5,4.1654E4,1.2344E5,5.2565E4,7.25E1,1.1362E5,1.76135E4,0E0,0E0,0E0,0E0,0E0,0E0,0E0,0E0],"parents":[2147483647,0,0,1,1,2,2,3,3,4,4,5,5,6,6],"right_children":[2,4,6,8,10,12,14,-1,-1,-1,-1,-1,-1,-1,-1],"split_conditions":[6.85E1,2.25E1,3.185E2,2.0225E3,2.45E1,2.565E2,3.405E2,5.64698E-1,7.1282697E-1,8.5177916E-1,7.7056706E-1,6.3257164E-1,5.1633614E-1,6.576596E-1,7.472689E-1],"split_indices":[4,0,4,2,0,4,4,0,0,0,0,0,0,0,0],"split_type":[0,0,0,0,0,0,0,0,0,0,0,0,0,0,0],"sum_hessian":[6.727E3,2.041E3,4.686E3,1.599E3,4.42E2,3.558E3,1.128E3,3.27E2,1.272E3,1.44E2,2.98E2,2.07E3,1.488E3,5.28E2,6E2],"tree_param":{"num_deleted":"0","num_feature":"11","num_nodes":"15","size_leaf_vector":"0"}},{"base_weights":[6.360402E1,7.013324E1,6.0745842E1,6.76085E1,7.909361E1,5.1935425E1,6.382087E1,5.5906822E1,7.0570435E1,8.433201E1,7.628872E1,5.675248E1,4.538218E1,7.986366E1,5.9315063E1],"categories":[],"categories_nodes":[],"categories_segments":[],"categories_sizes":[],"default_left":[1,1,1,1,1,1,1,0,0,0,0,0,0,0,0],"id":13,"left_children":[1,3,5,7,9,11,13,-1,-1,-1,-1,-1,-1,-1,-1],"loss_changes":[1.21298E5,4.0847E4,1.23666E5,5.15105E4,7.55E1,3.587325E4,2.46095E5,0E0,0E0,0E0,0E0,0E0,0E0,0E0,0E0],"parents":[2147483647,0,0,1,1,2,2,3,3,4,4,5,5,6,6],"right_children":[2,4,6,8,10,12,14,-1,-1,-1,-1,-1,-1,-1,-1],"split_conditions":[6.85E1,2.25E1,2.45E1,2.0225E3,2.45E1,9.75E1,2.525E2,5.590682E-1,7.0570433E-1,8.433201E-1,7.628872E-1,5.675248E-1,4.5382178E-1,7.986366E-1,5.931506E-1],"split_indices":[4,0,1,2,0,4,4,0,0,0,0,0,0,0,0],"split_type":[0,0,0,0,0,0,0,0,0,0,0,0,0,0,0],"sum_hessian":[6.727E3,2.041E3,4.686E3,1.599E3,4.42E2,1.217E3,3.469E3,3.27E2,1.272E3,1.44E2,2.98E2,6.97E2,5.2E2,7.57E2,2.712E3],"tree_param":{"num_deleted":"0","num_feature":"11","num_nodes":"15","size_leaf_vector":"0"}},{"base_weights":[6.2968765E1,6.943331E1,6.01389E1,6.6933205E1,7.83063E1,5.7216816E1,6.929706E1,5.534946E1,6.986528E1,8.349451E1,7.552839E1,6.2000538E1,5.0524876E1,6.451752E1,7.33887E1],"categories":[],"categories_nodes":[],"categories_segments":[],"categories_sizes":[],"default_left":[1,1,1,1,1,1,1,0,0,0,0,0,0,0,0],"id":14,"left_children":[1,3,5,7,9,11,13,-1,-1,-1,-1,-1,-1,-1,-1],"loss_changes":[1.18904E5,4.0058E4,1.21464E5,5.0476E4,7.875E1,1.10799E5,1.7344E4,0E0,0E0,0E0,0E0,0E0,0E0,0E0,0E0],"parents":[2147483647,0,0,1,1,2,2,3,3,4,4,5,5,6,6],"right_children":[2,4,6,8,10,12,14,-1,-1,-1,-1,-1,-1,-1,-1],"split_conditions":[6.85E1,2.25E1,3.185E2,2.0225E3,2.45E1,2.565E2,3.405E2,5.534946E-1,6.986528E-1,8.34945E-1,7.552839E-1,6.2000537E-1,5.052487E-1,6.4517516E-1,7.33887E-1],"split_indices":[4,0,4,2,0,4,4,0,0,0,0,0,0,0,0],"split_type":[0,0,0,0,0,0,0,0,0,0,0,0,0,0,0],"sum_hessian":[6.727E3,2.041E3,4.686E3,1.599E3,4.42E2,3.558E3,1.128E3,3.27E2,1.272E3,1.44E2,2.98E2,2.07E3,1.488E3,5.28E2,6E2],"tree_param":{"num_deleted":"0","num_feature":"11","num_nodes":"15","size_leaf_vector":"0"}},{"base_weights":[6.233987E1,6.874037E1,5.9538048E1,6.6264656E1,7.7526825E1,5.0797413E1,6.258893E1,5.4797653E1,6.916718E1,8.266532E1,7.477563E1,5.556665E1,4.431041E1,7.844689E1,5.8135212E1],"categories":[],"categories_nodes":[],"categories_segments":[],"categories_sizes":[],"default_left":[1,1,1,1,1,1,1,0,0,0,0,0,0,0,0],"id":15,"left_children":[1,3,5,7,9,11,13,-1,-1,-1,-1,-1,-1,-1,-1],"loss_changes":[1.1656E5,3.9282E4,1.21808E5,4.9463E4,8.125E1,3.522025E4,2.40514E5,0E0,0E0,0E0,0E0,0E0,0E0,0E0,0E0],"parents":[2147483647,0,0,1,1,2,2,3,3,4,4,5,5,6,6],"right_children":[2,4,6,8,10,12,14,-1,-1,-1,-1,-1,-1,-1,-1],"split_conditions":[6.85E1,2.25E1,2.45E1,2.0225E3,2.45E1,9.75E1,2.525E2,5.479765E-1,6.916718E-1,8.266532E-1,7.4775624E-1,5.556665E-1,4.431041E-1,7.844689E-1,5.813521E-1],"split_indices":[4,0,1,2,0,4,4,0,0,0,0,0,0,0,0],"split_type":[0,0,0,0,0,0,0,0,0,0,0,0,0,0,0],"sum_hessian":[6.727E3,2.041E3,4.686E3,1.599E3,4.42E2,1.217E3,3.469E3,3.27E2,1.272E3,1.44E2,2.98E2,6.97E2,5.2E2,7.57E2,2.712E3],"tree_param":{"num_deleted":"0","num_feature":"11","num_nodes":"15","size_leaf_vector":"0"}},{"base_weights":[6.1717243E1,6.8054344E1,5.894317E1,6.560278E1,7.675511E1,5.6045803E1,6.802447E1,5.4251347E1,6.847605E1,8.184437E1,7.403037E1,6.076887E1,4.9439003E1,6.3293304E1,7.207565E1],"categories":[],"categories_nodes":[],"categories_segments":[],"categories_sizes":[],"default_left":[1,1,1,1,1,1,1,0,0,0,0,0,0,0,0],"id":16,"left_children":[1,3,5,7,9,11,13,-1,-1,-1,-1,-1,-1,-1,-1],"loss_changes":[1.14266E5,3.8521E4,1.19511E5,4.847E4,8.4E1,1.08052E5,1.7077E4,0E0,0E0,0E0,0E0,0E0,0E0,0E0,0E0],"parents":[2147483647,0,0,1,1,2,2,3,3,4,4,5,5,6,6],"right_children":[2,4,6,8,10,12,14,-1,-1,-1,-1,-1,-1,-1,-1],"split_conditions":[6.85E1,2.25E1,3.185E2,2.0225E3,2.45E1,2.565E2,3.405E2,5.4251343E-1,6.847605E-1,8.1844366E-1,7.403037E-1,6.076887E-1,4.9439E-1,6.32933E-1,7.2075653E-1],"split_indices":[4,0,4,2,0,4,4,0,0,0,0,0,0,0,0],"split_type":[0,0,0,0,0,0,0,0,0,0,0,0,0,0,0],"sum_hessian":[6.727E3,2.041E3,4.686E3,1.599E3,4.42E2,3.558E3,1.128E3,3.27E2,1.272E3,1.44E2,2.98E2,2.07E3,1.488E3,5.28E2,6E2],"tree_param":{"num_deleted":"0","num_feature":"11","num_nodes":"15","size_leaf_vector":"0"}},{"base_weights":[6.110085E1,6.737516E1,5.8354263E1,6.4947525E1,7.599108E1,4.9683067E1,6.138111E1,5.3710487E1,6.7791824E1,8.103157E1,7.329254E1,5.440496E1,4.3261635E1,7.6747215E1,5.68896E1],"categories":[],"categories_nodes":[],"categories_segments":[],"categories_sizes":[],"default_left":[1,1,1,1,1,1,1,0,0,0,0,0,0,0,0],"id":17,"left_children":[1,3,5,7,9,11,13,-1,-1,-1,-1,-1,-1,-1,-1],"loss_changes":[1.12012E5,3.7776E4,1.19968E5,4.7497E4,8.675E1,3.457775E4,2.35123E5,0E0,0E0,0E0,0E0,0E0,0E0,0E0,0E0],"parents":[2147483647,0,0,1,1,2,2,3,3,4,4,5,5,6,6],"right_children":[2,4,6,8,10,12,14,-1,-1,-1,-1,-1,-1,-1,-1],"split_conditions":[6.85E1,2.25E1,2.45E1,2.0225E3,2.45E1,9.75E1,2.535E2,5.3710485E-1,6.7791826E-1,8.1031567E-1,7.329254E-1,5.440496E-1,4.3261635E-1,7.6747215E-1,5.68896E-1],"split_indices":[4,0,1,2,0,4,4,0,0,0,0,0,0,0,0],"split_type":[0,0,0,0,0,0,0,0,0,0,0,0,0,0,0],"sum_hessian":[6.727E3,2.041E3,4.686E3,1.599E3,4.42E2,1.217E3,3.469E3,3.27E2,1.272E3,1.44E2,2.98E2,6.97E2,5.2E2,7.81E2,2.688E3],"tree_param":{"num_deleted":"0","num_feature":"11","num_nodes":"15","size_leaf_vector":"0"}},{"base_weights":[6.0490593E1,6.670276E1,5.7771214E1,6.4298805E1,7.523465E1,5.4898117E1,6.677703E1,5.317502E1,6.711444E1,8.022684E1,7.2562065E1,5.956055E1,4.8376427E1,6.2093746E1,7.078815E1],"categories":[],"categories_nodes":[],"categories_segments":[],"categories_sizes":[],"default_left":[1,1,1,1,1,1,1,0,0,0,0,0,0,0,0],"id":18,"left_children":[1,3,5,7,9,11,13,-1,-1,-1,-1,-1,-1,-1,-1],"loss_changes":[1.09804E5,3.7044E4,1.17608E5,4.65445E4,8.9E1,1.05336E5,1.68125E4,0E0,0E0,0E0,0E0,0E0,0E0,0E0,0E0],"parents":[2147483647,0,0,1,1,2,2,3,3,4,4,5,5,6,6],"right_children":[2,4,6,8,10,12,14,-1,-1,-1,-1,-1,-1,-1,-1],"split_conditions":[6.85E1,2.25E1,3.185E2,2.0225E3,2.45E1,2.565E2,3.405E2,5.3175014E-1,6.7114437E-1,8.022683E-1,7.256206E-1,5.956055E-1,4.8376426E-1,6.2093747E-1,7.0788145E-1],"split_indices":[4,0,4,2,0,4,4,0,0,0,0,0,0,0,0],"split_type":[0,0,0,0,0,0,0,0,0,0,0,0,0,0,0],"sum_hessian":[6.727E3,2.041E3,4.686E3,1.599E3,4.42E2,3.558E3,1.128E3,3.27E2,1.272E3,1.44E2,2.98E2,2.07E3,1.488E3,5.28E2,6E2],"tree_param":{"num_deleted":"0","num_feature":"11","num_nodes":"15","size_leaf_vector":"0"}},{"base_weights":[5.988645E1,6.603707E1,5.719401E1,6.3656574E1,7.4485756E1,4.859192E1,6.019694E1,5.2644894E1,6.6443825E1,7.94301E1,7.1838875E1,5.3266937E1,4.2235386E1,7.569529E1,5.584458E1],"categories":[],"categories_nodes":[],"categories_segments":[],"categories_sizes":[],"default_left":[1,1,1,1,1,1,1,0,0,0,0,0,0,0,0],"id":19,"left_children":[1,3,5,7,9,11,13,-1,-1,-1,-1,-1,-1,-1,-1],"loss_changes":[1.0764E5,3.6327E4,1.18147E5,4.561E4,9.15E1,3.39455E4,2.2984E5,0E0,0E0,0E0,0E0,0E0,0E0,0E0,0E0],"parents":[2147483647,0,0,1,1,2,2,3,3,4,4,5,5,6,6],"right_children":[2,4,6,8,10,12,14,-1,-1,-1,-1,-1,-1,-1,-1],"split_conditions":[6.85E1,2.25E1,2.45E1,2.0225E3,2.45E1,9.75E1,2.525E2,5.264489E-1,6.6443825E-1,7.94301E-1,7.1838874E-1,5.3266937E-1,4.2235386E-1,7.569529E-1,5.584458E-1],"split_indices":[4,0,1,2,0,4,4,0,0,0,0,0,0,0,0],"split_type":[0,0,0,0,0,0,0,0,0,0,0,0,0,0,0],"sum_hessian":[6.727E3,2.041E3,4.686E3,1.599E3,4.42E2,1.217E3,3.469E3,3.27E2,1.272E3,1.44E2,2.98E2,6.97E2,5.2E2,7.57E2,2.712E3],"tree_param":{"num_deleted":"0","num_feature":"11","num_nodes":"15","size_leaf_vector":"0"}},{"base_weights":[5.9288326E1,6.537803E1,5.662256E1,6.302075E1,7.374431E1,4.8106785E1,5.959535E1,5.212005E1,6.577991E1,7.864128E1,7.112289E1,5.273503E1,4.1813843E1,7.463599E1,5.5199154E1],"categories":[],"categories_nodes":[],"categories_segments":[],"categories_sizes":[],"default_left":[1,1,1,1,1,1,1,0,0,0,0,0,0,0,0],"id":20,"left_children":[1,3,5,7,9,11,13,-1,-1,-1,-1,-1,-1,-1,-1],"loss_changes":[1.0552E5,3.5623E4,1.15787E5,4.4695E4,9.35E1,3.32695E4,2.25322E5,0E0,0E0,0E0,0E0,0E0,0E0,0E0,0E0],"parents":[2147483647,0,0,1,1,2,2,3,3,4,4,5,5,6,6],"right_children":[2,4,6,8,10,12,14,-1,-1,-1,-1,-1,-1,-1,-1],"split_conditions":[6.85E1,2.25E1,2.45E1,2.0225E3,2.45E1,9.75E1,2.535E2,5.212005E-1,6.5779907E-1,7.864128E-1,7.1122885E-1,5.273503E-1,4.181384E-1,7.463598E-1,5.519915E-1],"split_indices":[4,0,1,2,0,4,4,0,0,0,0,0,0,0,0],"split_type":[0,0,0,0,0,0,0,0,0,0,0,0,0,0,0],"sum_hessian":[6.727E3,2.041E3,4.686E3,1.599E3,4.42E2,1.217E3,3.469E3,3.27E2,1.272E3,1.44E2,2.98E2,6.97E2,5.2E2,7.81E2,2.688E3],"tree_param":{"num_deleted":"0","num_feature":"11","num_nodes":"15","size_leaf_vector":"0"}},{"base_weights":[5.8696175E1,6.4725555E1,5.6056812E1,6.2391277E1,7.301025E1,5.3203754E1,6.5000984E1,5.1600433E1,6.512263E1,7.786029E1,7.041404E1,5.779422E1,4.67833E1,6.0365646E1,6.8972855E1],"categories":[],"categories_nodes":[],"categories_segments":[],"categories_sizes":[],"default_left":[1,1,1,1,1,1,1,0,0,0,0,0,0,0,0],"id":21,"left_children":[1,3,5,7,9,11,13,-1,-1,-1,-1,-1,-1,-1,-1],"loss_changes":[1.0344E5,3.4934E4,1.16146E5,4.3797E4,9.575E1,1.02191E5,1.6622E4,0E0,0E0,0E0,0E0,0E0,0E0,0E0,0E0],"parents":[2147483647,0,0,1,1,2,2,3,3,4,4,5,5,6,6],"right_children":[2,4,6,8,10,12,14,-1,-1,-1,-1,-1,-1,-1,-1],"split_conditions":[6.85E1,2.25E1,3.185E2,2.0225E3,2.45E1,2.565E2,3.405E2,5.160043E-1,6.512263E-1,7.786029E-1,7.0414037E-1,5.779422E-1,4.6783298E-1,6.036565E-1,6.8972856E-1],"split_indices":[4,0,4,2,0,4,4,0,0,0,0,0,0,0,0],"split_type":[0,0,0,0,0,0,0,0,0,0,0,0,0,0,0],"sum_hessian":[6.727E3,2.041E3,4.686E3,1.599E3,4.42E2,3.558E3,1.128E3,3.27E2,1.272E3,1.44E2,2.98E2,2.07E3,1.488E3,5.28E2,6E2],"tree_param":{"num_deleted":"0","num_feature":"11","num_nodes":"15","size_leaf_vector":"0"}},{"base_weights":[5.8109955E1,6.439775E1,5.562758E1,5.541126E1,6.682896E1,5.295255E1,6.435212E1,5.1086002E1,7.183622E1,6.30297E1,7.053851E1,5.739011E1,4.631578E1,5.976313E1,6.828428E1],"categories":[],"categories_nodes":[],"categories_segments":[],"categories_sizes":[],"default_left":[1,1,1,1,1,1,1,0,0,0,0,0,0,0,0],"id":22,"left_children":[1,3,5,7,9,11,13,-1,-1,-1,-1,-1,-1,-1,-1],"loss_changes":[1.01432E5,3.77645E4,1.09341E5,2.54575E4,1.65395E4,1.064E5,1.6291E4,0E0,0E0,0E0,0E0,0E0,0E0,0E0,0E0],"parents":[2147483647,0,0,1,1,2,2,3,3,4,4,5,5,6,6],"right_children":[2,4,6,8,10,12,14,-1,-1,-1,-1,-1,-1,-1,-1],"split_conditions":[6.25E1,2.0225E3,3.185E2,2.25E1,1.45E1,2.565E2,3.405E2,5.1086E-1,7.1836215E-1,6.30297E-1,7.053851E-1,5.739011E-1,4.631578E-1,5.976313E-1,6.828428E-1],"split_indices":[4,2,4,0,0,4,4,0,0,0,0,0,0,0,0],"split_type":[0,0,0,0,0,0,0,0,0,0,0,0,0,0,0],"sum_hessian":[6.727E3,1.897E3,4.83E3,4.09E2,1.488E3,3.702E3,1.128E3,3.27E2,8.2E1,7.44E2,7.44E2,2.214E3,1.488E3,5.28E2,6E2],"tree_param":{"num_deleted":"0","num_feature":"11","num_nodes":"15","size_leaf_vector":"0"}},{"base_weights":[5.752958E1,6.3441822E1,5.49415E1,6.114966E1,7.15773E1,4.6475597E1,5.7897274E1,5.0576702E1,6.382584E1,7.638225E1,6.900775E1,5.1058243E1,4.0246876E1,7.304364E1,5.3644108E1],"categories":[],"categories_nodes":[],"categories_segments":[],"categories_sizes":[],"default_left":[1,1,1,1,1,1,1,0,0,0,0,0,0,0,0],"id":23,"left_children":[1,3,5,7,9,11,13,-1,-1,-1,-1,-1,-1,-1,-1],"loss_changes":[9.946E4,3.3702E4,1.14594E5,4.2044E4,1.9875E2,3.27115E4,2.19619E5,0E0,0E0,0E0,0E0,0E0,0E0,0E0,0E0],"parents":[2147483647,0,0,1,1,2,2,3,3,4,4,5,5,6,6],"right_children":[2,4,6,8,10,12,14,-1,-1,-1,-1,-1,-1,-1,-1],"split_conditions":[6.85E1,2.25E1,2.45E1,2.0225E3,2.45E1,9.75E1,2.525E2,5.05767E-1,6.382584E-1,7.6382244E-1,6.900775E-1,5.105824E-1,4.0246874E-1,7.304364E-1,5.364411E-1],"split_indices":[4,0,1,2,0,4,4,0,0,0,0,0,0,0,0],"split_type":[0,0,0,0,0,0,0,0,0,0,0,0,0,0,0],"sum_hessian":[6.727E3,2.041E3,4.686E3,1.599E3,4.42E2,1.217E3,3.469E3,3.27E2,1.272E3,1.44E2,2.98E2,6.97E2,5.2E2,7.57E2,2.712E3],"tree_param":{"num_deleted":"0","num_feature":"11","num_nodes":"15","size_leaf_vector":"0"}},{"base_weights":[5.6954994E1,6.312237E1,5.4520172E1,5.4310112E1,6.5506454E1,5.186707E1,6.317377E1,5.0072475E1,7.040211E1,6.1762848E1,6.916213E1,5.624694E1,4.531685E1,5.8631203E1,6.706702E1],"categories":[],"categories_nodes":[],"categories_segments":[],"categories_sizes":[],"default_left":[1,1,1,1,1,1,1,0,0,0,0,0,0,0,0],"id":24,"left_children":[1,3,5,7,9,11,13,-1,-1,-1,-1,-1,-1,-1,-1],"loss_changes":[9.759E4,3.63185E4,1.07639E5,2.44335E4,1.6106E4,1.03687E5,1.60345E4,0E0,0E0,0E0,0E0,0E0,0E0,0E0,0E0],"parents":[2147483647,0,0,1,1,2,2,3,3,4,4,5,5,6,6],"right_children":[2,4,6,8,10,12,14,-1,-1,-1,-1,-1,-1,-1,-1],"split_conditions":[6.25E1,2.0225E3,3.185E2,2.25E1,1.45E1,2.565E2,3.405E2,5.0072473E-1,7.0402104E-1,6.1762846E-1,6.916213E-1,5.624694E-1,4.5316848E-1,5.86312E-1,6.7067015E-1],"split_indices":[4,2,4,0,0,4,4,0,0,0,0,0,0,0,0],"split_type":[0,0,0,0,0,0,0,0,0,0,0,0,0,0,0],"sum_hessian":[6.727E3,1.897E3,4.83E3,4.09E2,1.488E3,3.702E3,1.128E3,3.27E2,8.2E1,7.44E2,7.44E2,2.214E3,1.488E3,5.28E2,6E2],"tree_param":{"num_deleted":"0","num_feature":"11","num_nodes":"15","size_leaf_vector":"0"}},{"base_weights":[5.6386158E1,6.249247E1,5.397544E1,5.376995E1,6.4852264E1,5.1348675E1,6.2543144E1,4.9573277E1,6.970656E1,6.114605E1,6.8471436E1,5.5684723E1,4.4863987E1,5.8046E1,6.639747E1],"categories":[],"categories_nodes":[],"categories_segments":[],"categories_sizes":[],"default_left":[1,1,1,1,1,1,1,0,0,0,0,0,0,0,0],"id":25,"left_children":[1,3,5,7,9,11,13,-1,-1,-1,-1,-1,-1,-1,-1],"loss_changes":[9.5666E4,3.558E4,1.05511E5,2.39655E4,1.5786E4,1.01623E5,1.57155E4,0E0,0E0,0E0,0E0,0E0,0E0,0E0,0E0],"parents":[2147483647,0,0,1,1,2,2,3,3,4,4,5,5,6,6],"right_children":[2,4,6,8,10,12,14,-1,-1,-1,-1,-1,-1,-1,-1],"split_conditions":[6.25E1,2.0225E3,3.185E2,2.25E1,1.45E1,2.565E2,3.405E2,4.9573275E-1,6.970656E-1,6.114605E-1,6.847143E-1,5.568472E-1,4.4863987E-1,5.8046E-1,6.6397464E-1],"split_indices":[4,2,4,0,0,4,4,0,0,0,0,0,0,0,0],"split_type":[0,0,0,0,0,0,0,0,0,0,0,0,0,0,0],"sum_hessian":[6.727E3,1.897E3,4.83E3,4.09E2,1.488E3,3.702E3,1.128E3,3.27E2,8.2E1,7.44E2,7.44E2,2.214E3,1.488E3,5.28E2,6E2],"tree_param":{"num_deleted":"0","num_feature":"11","num_nodes":"15","size_leaf_vector":"0"}},{"base_weights":[5.5822998E1,6.1564625E1,5.3309616E1,5.9332638E1,6.9487E1,4.4893192E1,5.6248493E1,4.907906E1,6.192796E1,7.424865E1,6.6945435E1,4.943068E1,3.872801E1,7.119633E1,5.2051403E1],"categories":[],"categories_nodes":[],"categories_segments":[],"categories_sizes":[],"default_left":[1,1,1,1,1,1,1,0,0,0,0,0,0,0,0],"id":26,"left_children":[1,3,5,7,9,11,13,-1,-1,-1,-1,-1,-1,-1,-1],"loss_changes":[9.381E4,3.19845E4,1.13407E5,3.9539E4,3.905E2,3.215825E4,2.13993E5,0E0,0E0,0E0,0E0,0E0,0E0,0E0,0E0],"parents":[2147483647,0,0,1,1,2,2,3,3,4,4,5,5,6,6],"right_children":[2,4,6,8,10,12,14,-1,-1,-1,-1,-1,-1,-1,-1],"split_conditions":[6.85E1,2.25E1,2.45E1,2.0225E3,2.45E1,9.75E1,2.525E2,4.9079058E-1,6.1927956E-1,7.424865E-1,6.6945434E-1,4.9430677E-1,3.8728008E-1,7.1196324E-1,5.20514E-1],"split_indices":[4,0,1,2,0,4,4,0,0,0,0,0,0,0,0],"split_type":[0,0,0,0,0,0,0,0,0,0,0,0,0,0,0],"sum_hessian":[6.727E3,2.041E3,4.686E3,1.599E3,4.42E2,1.217E3,3.469E3,3.27E2,1.272E3,1.44E2,2.98E2,6.97E2,5.2E2,7.57E2,2.712E3],"tree_param":{"num_deleted":"0","num_feature":"11","num_nodes":"15","size_leaf_vector":"0"}},{"base_weights":[5.5265457E1,6.1254814E1,5.2900925E1,5.2701286E1,6.3568913E1,5.029575E1,6.139876E1,4.8589764E1,6.831427E1,5.9916965E1,6.713554E1,5.4575527E1,4.3895485E1,6.418376E1,5.5296093E1],"categories":[],"categories_nodes":[],"categories_segments":[],"categories_sizes":[],"default_left":[1,1,1,1,1,1,1,0,0,0,0,0,0,0,0],"id":27,"left_children":[1,3,5,7,9,11,13,-1,-1,-1,-1,-1,-1,-1,-1],"loss_changes":[9.204E4,3.4218E4,1.03863E5,2.2999875E4,1.5372E4,9.9035E4,1.5639E4,0E0,0E0,0E0,0E0,0E0,0E0,0E0,0E0],"parents":[2147483647,0,0,1,1,2,2,3,3,4,4,5,5,6,6],"right_children":[2,4,6,8,10,12,14,-1,-1,-1,-1,-1,-1,-1,-1],"split_conditions":[6.25E1,2.0225E3,3.185E2,2.25E1,1.45E1,2.565E2,2.35E1,4.8589763E-1,6.8314266E-1,5.991696E-1,6.7135537E-1,5.4575527E-1,4.3895483E-1,6.418376E-1,5.5296093E-1],"split_indices":[4,2,4,0,0,4,0,0,0,0,0,0,0,0,0],"split_type":[0,0,0,0,0,0,0,0,0,0,0,0,0,0,0],"sum_hessian":[6.727E3,1.897E3,4.83E3,4.09E2,1.488E3,3.702E3,1.128E3,3.27E2,8.2E1,7.44E2,7.44E2,2.214E3,1.488E3,7.68E2,3.6E2],"tree_param":{"num_deleted":"0","num_feature":"11","num_nodes":"15","size_leaf_vector":"0"}},{"base_weights":[5.471349E1,6.064355E1,5.2372368E1,5.2177124E1,6.293408E1,4.979306E1,6.078583E1,4.8105347E1,6.763936E1,5.93186E1,6.646508E1,5.4030018E1,4.3456825E1,5.6334705E1,6.460257E1],"categories":[],"categories_nodes":[],"categories_segments":[],"categories_sizes":[],"default_left":[1,1,1,1,1,1,1,0,0,0,0,0,0,0,0],"id":28,"left_children":[1,3,5,7,9,11,13,-1,-1,-1,-1,-1,-1,-1,-1],"loss_changes":[9.023E4,3.3523E4,1.01811E5,2.255925E4,1.50665E4,9.7063E4,1.554075E4,0E0,0E0,0E0,0E0,0E0,0E0,0E0,0E0],"parents":[2147483647,0,0,1,1,2,2,3,3,4,4,5,5,6,6],"right_children":[2,4,6,8,10,12,14,-1,-1,-1,-1,-1,-1,-1,-1],"split_conditions":[6.25E1,2.0225E3,3.185E2,2.25E1,1.45E1,2.565E2,3.405E2,4.8105344E-1,6.7639357E-1,5.9318596E-1,6.646508E-1,5.403002E-1,4.3456826E-1,5.6334704E-1,6.4602566E-1],"split_indices":[4,2,4,0,0,4,4,0,0,0,0,0,0,0,0],"split_type":[0,0,0,0,0,0,0,0,0,0,0,0,0,0,0],"sum_hessian":[6.727E3,1.897E3,4.83E3,4.09E2,1.488E3,3.702E3,1.128E3,3.27E2,8.2E1,7.44E2,7.44E2,2.214E3,1.488E3,5.28E2,6E2],"tree_param":{"num_deleted":"0","num_feature":"11","num_nodes":"15","size_leaf_vector":"0"}},{"base_weights":[5.4167038E1,5.974298E1,5.1726192E1,5.7569553E1,6.745797E1,4.335982E1,5.4647957E1,4.762576E1,6.008644E1,7.2176704E1,6.494401E1,4.7852585E1,3.7257504E1,6.910893E1,5.0422173E1],"categories":[],"categories_nodes":[],"categories_segments":[],"categories_sizes":[],"default_left":[1,1,1,1,1,1,1,0,0,0,0,0,0,0,0],"id":29,"left_children":[1,3,5,7,9,11,13,-1,-1,-1,-1,-1,-1,-1,-1],"loss_changes":[8.8478E4,3.0357E4,1.12201E5,3.7182E4,5.67875E2,3.161E4,2.08564E5,0E0,0E0,0E0,0E0,0E0,0E0,0E0,0E0],"parents":[2147483647,0,0,1,1,2,2,3,3,4,4,5,5,6,6],"right_children":[2,4,6,8,10,12,14,-1,-1,-1,-1,-1,-1,-1,-1],"split_conditions":[6.85E1,2.25E1,2.45E1,2.0225E3,2.45E1,9.75E1,2.535E2,4.762576E-1,6.008644E-1,7.21767E-1,6.4944005E-1,4.7852585E-1,3.72575E-1,6.9108933E-1,5.0422174E-1],"split_indices":[4,0,1,2,0,4,4,0,0,0,0,0,0,0,0],"split_type":[0,0,0,0,0,0,0,0,0,0,0,0,0,0,0],"sum_hessian":[6.727E3,2.041E3,4.686E3,1.599E3,4.42E2,1.217E3,3.469E3,3.27E2,1.272E3,1.44E2,2.98E2,6.97E2,5.2E2,7.81E2,2.688E3],"tree_param":{"num_deleted":"0","num_feature":"11","num_nodes":"15","size_leaf_vector":"0"}},{"base_weights":[5.3626038E1,5.944251E1,5.1329765E1,5.1139973E1,6.1688713E1,4.877146E1,5.967527E1,4.715095E1,6.6287674E1,5.8126152E1,6.516847E1,5.2952785E1,4.2518665E1,6.2432713E1,5.363608E1],"categories":[],"categories_nodes":[],"categories_segments":[],"categories_sizes":[],"default_left":[1,1,1,1,1,1,1,0,0,0,0,0,0,0,0],"id":30,"left_children":[1,3,5,7,9,11,13,-1,-1,-1,-1,-1,-1,-1,-1],"loss_changes":[8.681E4,3.2241E4,1.00233E5,2.16485E4,1.46715E4,9.4563E4,1.545225E4,0E0,0E0,0E0,0E0,0E0,0E0,0E0,0E0],"parents":[2147483647,0,0,1,1,2,2,3,3,4,4,5,5,6,6],"right_children":[2,4,6,8,10,12,14,-1,-1,-1,-1,-1,-1,-1,-1],"split_conditions":[6.25E1,2.0225E3,3.185E2,2.25E1,1.45E1,2.565E2,2.35E1,4.7150952E-1,6.628767E-1,5.812615E-1,6.516847E-1,5.2952784E-1,4.2518663E-1,6.243271E-1,5.363608E-1],"split_indices":[4,2,4,0,0,4,0,0,0,0,0,0,0,0,0],"split_type":[0,0,0,0,0,0,0,0,0,0,0,0,0,0,0],"sum_hessian":[6.727E3,1.897E3,4.83E3,4.09E2,1.488E3,3.702E3,1.128E3,3.27E2,8.2E1,7.44E2,7.44E2,2.214E3,1.488E3,7.68E2,3.6E2],"tree_param":{"num_deleted":"0","num_feature":"11","num_nodes":"15","size_leaf_vector":"0"}},{"base_weights":[5.3090443E1,5.884933E1,5.0816906E1,5.063134E1,6.1072655E1,4.8284004E1,5.9079544E1,4.668088E1,6.563278E1,5.754567E1,6.451766E1,5.2423496E1,4.2093765E1,5.4673946E1,6.285905E1],"categories":[],"categories_nodes":[],"categories_segments":[],"categories_sizes":[],"default_left":[1,1,1,1,1,1,1,0,0,0,0,0,0,0,0],"id":31,"left_children":[1,3,5,7,9,11,13,-1,-1,-1,-1,-1,-1,-1,-1],"loss_changes":[8.51E4,3.15865E4,9.8252E4,2.1233875E4,1.43795E4,9.2681E4,1.53625E4,0E0,0E0,0E0,0E0,0E0,0E0,0E0,0E0],"parents":[2147483647,0,0,1,1,2,2,3,3,4,4,5,5,6,6],"right_children":[2,4,6,8,10,12,14,-1,-1,-1,-1,-1,-1,-1,-1],"split_conditions":[6.25E1,2.0225E3,3.185E2,2.25E1,1.45E1,2.565E2,3.405E2,4.668088E-1,6.563278E-1,5.754567E-1,6.451766E-1,5.2423495E-1,4.2093766E-1,5.4673946E-1,6.2859046E-1],"split_indices":[4,2,4,0,0,4,4,0,0,0,0,0,0,0,0],"split_type":[0,0,0,0,0,0,0,0,0,0,0,0,0,0,0],"sum_hessian":[6.727E3,1.897E3,4.83E3,4.09E2,1.488E3,3.702E3,1.128E3,3.27E2,8.2E1,7.44E2,7.44E2,2.214E3,1.488E3,5.28E2,6E2],"tree_param":{"num_deleted":"0","num_feature":"11","num_nodes":"15","size_leaf_vector":"0"}},{"base_weights":[5.2560204E1,5.797525E1,5.01898E1,5.5858807E1,6.548841E1,4.1874023E1,5.3094242E1,4.6215496E1,5.8299614E1,7.01646E1,6.300167E1,4.632249E1,3.58339E1,6.765813E1,4.900559E1],"categories":[],"categories_nodes":[],"categories_segments":[],"categories_sizes":[],"default_left":[1,1,1,1,1,1,1,0,0,0,0,0,0,0,0],"id":32,"left_children":[1,3,5,7,9,11,13,-1,-1,-1,-1,-1,-1,-1,-1],"loss_changes":[8.3448E4,2.88125E4,1.10981E5,3.4966E4,7.30875E2,3.1067E4,2.03311E5,0E0,0E0,0E0,0E0,0E0,0E0,0E0,0E0],"parents":[2147483647,0,0,1,1,2,2,3,3,4,4,5,5,6,6],"right_children":[2,4,6,8,10,12,14,-1,-1,-1,-1,-1,-1,-1,-1],"split_conditions":[6.85E1,2.25E1,2.45E1,2.0225E3,2.45E1,9.75E1,2.525E2,4.6215495E-1,5.8299613E-1,7.01646E-1,6.300167E-1,4.632249E-1,3.5833898E-1,6.7658126E-1,4.900559E-1],"split_indices":[4,0,1,2,0,4,4,0,0,0,0,0,0,0,0],"split_type":[0,0,0,0,0,0,0,0,0,0,0,0,0,0,0],"sum_hessian":[6.727E3,2.041E3,4.686E3,1.599E3,4.42E2,1.217E3,3.469E3,3.27E2,1.272E3,1.44E2,2.98E2,6.97E2,5.2E2,7.57E2,2.712E3],"tree_param":{"num_deleted":"0","num_feature":"11","num_nodes":"15","size_leaf_vector":"0"}},{"base_weights":[5.2035248E1,5.768382E1,4.980527E1,4.9624783E1,5.986416E1,4.7293297E1,5.800017E1,4.575475E1,6.432051E1,5.638877E1,6.325919E1,5.137924E1,4.1183384E1,6.0730324E1,5.202375E1],"categories":[],"categories_nodes":[],"categories_segments":[],"categories_sizes":[],"default_left":[1,1,1,1,1,1,1,0,0,0,0,0,0,0,0],"id":33,"left_children":[1,3,5,7,9,11,13,-1,-1,-1,-1,-1,-1,-1,-1],"loss_changes":[8.1876E4,3.038E4,9.6705E4,2.0374938E4,1.40015E4,9.03285E4,1.526175E4,0E0,0E0,0E0,0E0,0E0,0E0,0E0,0E0],"parents":[2147483647,0,0,1,1,2,2,3,3,4,4,5,5,6,6],"right_children":[2,4,6,8,10,12,14,-1,-1,-1,-1,-1,-1,-1,-1],"split_conditions":[6.25E1,2.0225E3,3.185E2,2.25E1,1.45E1,2.565E2,2.35E1,4.575475E-1,6.432051E-1,5.638877E-1,6.325919E-1,5.137924E-1,4.1183382E-1,6.073032E-1,5.202375E-1],"split_indices":[4,2,4,0,0,4,0,0,0,0,0,0,0,0,0],"split_type":[0,0,0,0,0,0,0,0,0,0,0,0,0,0,0],"sum_hessian":[6.727E3,1.897E3,4.83E3,4.09E2,1.488E3,3.702E3,1.128E3,3.27E2,8.2E1,7.44E2,7.44E2,2.214E3,1.488E3,7.68E2,3.6E2],"tree_param":{"num_deleted":"0","num_feature":"11","num_nodes":"15","size_leaf_vector":"0"}},{"base_weights":[5.1515545E1,5.7108192E1,4.9307644E1,4.9131218E1,5.926632E1,4.6820614E1,5.742117E1,4.52986E1,6.3685055E1,5.5825638E1,6.2627445E1,5.086568E1,4.0771824E1,5.3060608E1,6.1163788E1],"categories":[],"categories_nodes":[],"categories_segments":[],"categories_sizes":[],"default_left":[1,1,1,1,1,1,1,0,0,0,0,0,0,0,0],"id":34,"left_children":[1,3,5,7,9,11,13,-1,-1,-1,-1,-1,-1,-1,-1],"loss_changes":[8.026E4,2.9763E4,9.4794E4,1.9984688E4,1.37235E4,8.853E4,1.517975E4,0E0,0E0,0E0,0E0,0E0,0E0,0E0,0E0],"parents":[2147483647,0,0,1,1,2,2,3,3,4,4,5,5,6,6],"right_children":[2,4,6,8,10,12,14,-1,-1,-1,-1,-1,-1,-1,-1],"split_conditions":[6.25E1,2.0225E3,3.185E2,2.25E1,1.45E1,2.565E2,3.405E2,4.5298597E-1,6.3685054E-1,5.582564E-1,6.2627447E-1,5.086568E-1,4.0771824E-1,5.306061E-1,6.116379E-1],"split_indices":[4,2,4,0,0,4,4,0,0,0,0,0,0,0,0],"split_type":[0,0,0,0,0,0,0,0,0,0,0,0,0,0,0],"sum_hessian":[6.727E3,1.897E3,4.83E3,4.09E2,1.488E3,3.702E3,1.128E3,3.27E2,8.2E1,7.44E2,7.44E2,2.214E3,1.488E3,5.28E2,6E2],"tree_param":{"num_deleted":"0","num_feature":"11","num_nodes":"15","size_leaf_vector":"0"}},{"base_weights":[5.1001034E1,5.6259827E1,4.8699036E1,5.4198833E1,6.357659E1,4.043435E1,5.1585976E1,4.4846992E1,5.6565845E1,6.8210594E1,6.1116703E1,4.4838947E1,3.445576E1,6.596134E1,4.7550552E1],"categories":[],"categories_nodes":[],"categories_segments":[],"categories_sizes":[],"default_left":[1,1,1,1,1,1,1,0,0,0,0,0,0,0,0],"id":35,"left_children":[1,3,5,7,9,11,13,-1,-1,-1,-1,-1,-1,-1,-1],"loss_changes":[7.8708E4,2.7347E4,1.09745E5,3.28805E4,8.81E2,3.0529E4,1.9816E5,0E0,0E0,0E0,0E0,0E0,0E0,0E0,0E0],"parents":[2147483647,0,0,1,1,2,2,3,3,4,4,5,5,6,6],"right_children":[2,4,6,8,10,12,14,-1,-1,-1,-1,-1,-1,-1,-1],"split_conditions":[6.85E1,2.25E1,2.45E1,2.0225E3,2.45E1,9.75E1,2.525E2,4.484699E-1,5.6565845E-1,6.821059E-1,6.11167E-1,4.4838947E-1,3.445576E-1,6.5961343E-1,4.755055E-1],"split_indices":[4,0,1,2,0,4,4,0,0,0,0,0,0,0,0],"split_type":[0,0,0,0,0,0,0,0,0,0,0,0,0,0,0],"sum_hessian":[6.727E3,2.041E3,4.686E3,1.599E3,4.42E2,1.217E3,3.469E3,3.27E2,1.272E3,1.44E2,2.98E2,6.97E2,5.2E2,7.57E2,2.712E3],"tree_param":{"num_deleted":"0","num_feature":"11","num_nodes":"15","size_leaf_vector":"0"}},{"base_weights":[5.049165E1,5.5929474E1,4.8306923E1,4.8154343E1,5.799945E1,4.0980927E1,5.104821E1,4.439989E1,6.241105E1,5.4623814E1,6.140598E1,4.5436596E1,3.4111866E1,6.451024E1,4.699412E1],"categories":[],"categories_nodes":[],"categories_segments":[],"categories_sizes":[],"default_left":[1,1,1,1,1,1,1,0,0,0,0,0,0,0,0],"id":36,"left_children":[1,3,5,7,9,11,13,-1,-1,-1,-1,-1,-1,-1,-1],"loss_changes":[7.7226E4,2.814E4,9.4445E4,1.9174688E4,1.40445E4,3.86665E4,1.87658E5,0E0,0E0,0E0,0E0,0E0,0E0,0E0,0E0],"parents":[2147483647,0,0,1,1,2,2,3,3,4,4,5,5,6,6],"right_children":[2,4,6,8,10,12,14,-1,-1,-1,-1,-1,-1,-1,-1],"split_conditions":[9.5E0,2.0225E3,2.45E1,2.25E1,1.45E1,9.75E1,2.535E2,4.439989E-1,6.2411046E-1,5.462381E-1,6.140598E-1,4.5436594E-1,3.4111866E-1,6.451024E-1,4.699412E-1],"split_indices":[1,2,1,0,0,4,4,0,0,0,0,0,0,0,0],"split_type":[0,0,0,0,0,0,0,0,0,0,0,0,0,0,0],"sum_hessian":[6.727E3,1.921E3,4.806E3,4.09E2,1.512E3,1.313E3,3.493E3,3.27E2,8.2E1,7.68E2,7.44E2,7.93E2,5.2E2,8.05E2,2.688E3],"tree_param":{"num_deleted":"0","num_feature":"11","num_nodes":"15","size_leaf_vector":"0"}},{"base_weights":[4.998735E1,5.5371338E1,4.7824253E1,4.7675407E1,5.7420223E1,4.5331963E1,5.590336E1,4.3957245E1,6.1794456E1,5.4078285E1,6.0792747E1,4.9329323E1,3.9419567E1,5.8606686E1,4.9989895E1],"categories":[],"categories_nodes":[],"categories_segments":[],"categories_sizes":[],"default_left":[1,1,1,1,1,1,1,0,0,0,0,0,0,0,0],"id":37,"left_children":[1,3,5,7,9,11,13,-1,-1,-1,-1,-1,-1,-1,-1],"loss_changes":[7.5708E4,2.7568E4,9.4256E4,1.8807438E4,1.3765E4,8.5005E4,1.51185E4,0E0,0E0,0E0,0E0,0E0,0E0,0E0,0E0],"parents":[2147483647,0,0,1,1,2,2,3,3,4,4,5,5,6,6],"right_children":[2,4,6,8,10,12,14,-1,-1,-1,-1,-1,-1,-1,-1],"split_conditions":[9.5E0,2.0225E3,3.185E2,2.25E1,1.45E1,2.565E2,2.35E1,4.3957245E-1,6.1794454E-1,5.4078287E-1,6.0792744E-1,4.9329323E-1,3.9419568E-1,5.8606684E-1,4.9989894E-1],"split_indices":[1,2,4,0,0,4,0,0,0,0,0,0,0,0,0],"split_type":[0,0,0,0,0,0,0,0,0,0,0,0,0,0,0],"sum_hessian":[6.727E3,1.921E3,4.806E3,4.09E2,1.512E3,3.678E3,1.128E3,3.27E2,8.2E1,7.68E2,7.44E2,2.19E3,1.488E3,7.68E2,3.6E2],"tree_param":{"num_deleted":"0","num_feature":"11","num_nodes":"15","size_leaf_vector":"0"}},{"base_weights":[4.94881E1,5.4594997E1,4.72526E1,5.2587917E1,6.1720802E1,3.9132126E1,5.008934E1,4.3519016E1,5.4883293E1,6.631299E1,5.9287395E1,4.3444897E1,3.3279057E1,6.41657E1,4.6138004E1],"categories":[],"categories_nodes":[],"categories_segments":[],"categories_sizes":[],"default_left":[1,1,1,1,1,1,1,0,0,0,0,0,0,0,0],"id":38,"left_children":[1,3,5,7,9,11,13,-1,-1,-1,-1,-1,-1,-1,-1],"loss_changes":[7.423E4,2.59585E4,1.06008E5,3.09185E4,1.019E3,2.9300125E4,1.90042E5,0E0,0E0,0E0,0E0,0E0,0E0,0E0,0E0],"parents":[2147483647,0,0,1,1,2,2,3,3,4,4,5,5,6,6],"right_children":[2,4,6,8,10,12,14,-1,-1,-1,-1,-1,-1,-1,-1],"split_conditions":[6.85E1,2.25E1,2.45E1,2.0225E3,2.45E1,9.75E1,2.525E2,4.3519014E-1,5.488329E-1,6.6312987E-1,5.9287393E-1,4.3444896E-1,3.3279055E-1,6.41657E-1,4.6138003E-1],"split_indices":[4,0,1,2,0,4,4,0,0,0,0,0,0,0,0],"split_type":[0,0,0,0,0,0,0,0,0,0,0,0,0,0,0],"sum_hessian":[6.727E3,2.041E3,4.686E3,1.599E3,4.42E2,1.217E3,3.469E3,3.27E2,1.272E3,1.44E2,2.98E2,6.97E2,5.2E2,7.57E2,2.712E3],"tree_param":{"num_deleted":"0","num_feature":"11","num_nodes":"15","size_leaf_vector":"0"}},{"base_weights":[4.8993828E1,5.4320957E1,4.6890766E1,4.672734E1,5.63754E1,4.4406624E1,5.4776516E1,4.3741573E1,6.3748745E1,5.3067924E1,5.9607204E1,4.8371223E1,3.8382053E1,5.0531754E1,5.8591118E1],"categories":[],"categories_nodes":[],"categories_segments":[],"categories_sizes":[],"default_left":[1,1,1,1,1,1,1,0,0,0,0,0,0,0,0],"id":39,"left_children":[1,3,5,7,9,11,13,-1,-1,-1,-1,-1,-1,-1,-1],"loss_changes":[7.283E4,2.69755E4,9.2203E4,1.8048562E4,1.2753E4,8.6016E4,1.5709E4,0E0,0E0,0E0,0E0,0E0,0E0,0E0,0E0],"parents":[2147483647,0,0,1,1,2,2,3,3,4,4,5,5,6,6],"right_children":[2,4,6,8,10,12,14,-1,-1,-1,-1,-1,-1,-1,-1],"split_conditions":[6.25E1,2.0225E3,4.55E1,2.35E1,1.45E1,2.565E2,3.405E2,4.3741572E-1,6.374874E-1,5.306792E-1,5.96072E-1,4.8371223E-1,3.8382053E-1,5.053175E-1,5.8591115E-1],"split_indices":[4,2,1,0,0,4,4,0,0,0,0,0,0,0,0],"split_type":[0,0,0,0,0,0,0,0,0,0,0,0,0,0,0],"sum_hessian":[6.727E3,1.897E3,4.83E3,4.09E2,1.488E3,3.678E3,1.152E3,3.51E2,5.8E1,7.44E2,7.44E2,2.214E3,1.464E3,5.52E2,6E2],"tree_param":{"num_deleted":"0","num_feature":"11","num_nodes":"15","size_leaf_vector":"0"}},{"base_weights":[4.850451E1,5.3733437E1,4.6403717E1,4.6262688E1,5.572238E1,3.919322E1,4.910211E1,4.2649067E1,5.998564E1,5.246303E1,5.9011932E1,4.355929E1,3.2464123E1,6.2256012E1,4.5141106E1],"categories":[],"categories_nodes":[],"categories_segments":[],"categories_sizes":[],"default_left":[1,1,1,1,1,1,1,0,0,0,0,0,0,0,0],"id":40,"left_children":[1,3,5,7,9,11,13,-1,-1,-1,-1,-1,-1,-1,-1],"loss_changes":[7.1412E4,2.59815E4,9.1605E4,1.7773375E4,1.3126E4,3.719075E4,1.79236E5,0E0,0E0,0E0,0E0,0E0,0E0,0E0,0E0],"parents":[2147483647,0,0,1,1,2,2,3,3,4,4,5,5,6,6],"right_children":[2,4,6,8,10,12,14,-1,-1,-1,-1,-1,-1,-1,-1],"split_conditions":[9.5E0,2.0225E3,2.45E1,2.25E1,1.45E1,9.75E1,2.535E2,4.2649066E-1,5.998564E-1,5.246303E-1,5.901193E-1,4.3559292E-1,3.2464123E-1,6.225601E-1,4.5141104E-1],"split_indices":[1,2,1,0,0,4,4,0,0,0,0,0,0,0,0],"split_type":[0,0,0,0,0,0,0,0,0,0,0,0,0,0,0],"sum_hessian":[6.727E3,1.921E3,4.806E3,4.09E2,1.512E3,1.313E3,3.493E3,3.27E2,8.2E1,7.68E2,7.44E2,7.93E2,5.2E2,8.05E2,2.688E3],"tree_param":{"num_deleted":"0","num_feature":"11","num_nodes":"15","size_leaf_vector":"0"}},{"base_weights":[4.8020054E1,5.2979706E1,4.5849022E1,5.102381E1,5.9924286E1,3.787025E1,4.8636425E1,4.2223877E1,5.3251114E1,6.449261E1,5.7508465E1,4.2093082E1,3.2140102E1,6.2420082E1,4.4767406E1],"categories":[],"categories_nodes":[],"categories_segments":[],"categories_sizes":[],"default_left":[1,1,1,1,1,1,1,0,0,0,0,0,0,0,0],"id":41,"left_children":[1,3,5,7,9,11,13,-1,-1,-1,-1,-1,-1,-1,-1],"loss_changes":[7.0015E4,2.46785E4,1.02397E5,2.91115E4,1.18025E3,2.8119625E4,1.822585E5,0E0,0E0,0E0,0E0,0E0,0E0,0E0,0E0],"parents":[2147483647,0,0,1,1,2,2,3,3,4,4,5,5,6,6],"right_children":[2,4,6,8,10,12,14,-1,-1,-1,-1,-1,-1,-1,-1],"split_conditions":[6.85E1,2.25E1,2.45E1,2.0225E3,2.45E1,9.75E1,2.525E2,4.2223877E-1,5.325111E-1,6.449261E-1,5.750846E-1,4.209308E-1,3.2140103E-1,6.242008E-1,4.4767407E-1],"split_indices":[4,0,1,2,0,4,4,0,0,0,0,0,0,0,0],"split_type":[0,0,0,0,0,0,0,0,0,0,0,0,0,0,0],"sum_hessian":[6.727E3,2.041E3,4.686E3,1.599E3,4.42E2,1.217E3,3.469E3,3.27E2,1.272E3,1.44E2,2.98E2,6.97E2,5.2E2,7.57E2,2.712E3],"tree_param":{"num_deleted":"0","num_feature":"11","num_nodes":"15","size_leaf_vector":"0"}},{"base_weights":[4.7540447E1,5.266872E1,4.54801E1,4.534261E1,5.461917E1,4.2990902E1,5.333139E1,4.243208E1,6.193863E1,5.1407265E1,5.7861237E1,4.6910183E1,3.7100025E1,4.912989E1,5.7108593E1],"categories":[],"categories_nodes":[],"categories_segments":[],"categories_sizes":[],"default_left":[1,1,1,1,1,1,1,0,0,0,0,0,0,0,0],"id":42,"left_children":[1,3,5,7,9,11,13,-1,-1,-1,-1,-1,-1,-1,-1],"loss_changes":[6.8692E4,2.49875E4,9.1653E4,1.7176125E4,1.27805E4,8.26465E4,1.54925E4,0E0,0E0,0E0,0E0,0E0,0E0,0E0,0E0],"parents":[2147483647,0,0,1,1,2,2,3,3,4,4,5,5,6,6],"right_children":[2,4,6,8,10,12,14,-1,-1,-1,-1,-1,-1,-1,-1],"split_conditions":[9.5E0,2.0225E3,3.175E2,2.35E1,1.45E1,2.565E2,3.405E2,4.243208E-1,6.1938626E-1,5.1407266E-1,5.786123E-1,4.6910182E-1,3.7100023E-1,4.9129888E-1,5.7108593E-1],"split_indices":[1,2,4,0,0,4,4,0,0,0,0,0,0,0,0],"split_type":[0,0,0,0,0,0,0,0,0,0,0,0,0,0,0],"sum_hessian":[6.727E3,1.921E3,4.806E3,4.09E2,1.512E3,3.654E3,1.152E3,3.51E2,5.8E1,7.68E2,7.44E2,2.19E3,1.464E3,5.52E2,6E2],"tree_param":{"num_deleted":"0","num_feature":"11","num_nodes":"15","size_leaf_vector":"0"}},{"base_weights":[4.7065643E1,5.2143143E1,4.5025696E1,4.4891727E1,5.4073704E1,4.2561222E1,5.2799E1,4.200896E1,6.132974E1,5.0893864E1,5.72834E1,4.6441296E1,3.6729275E1,4.8639477E1,5.653846E1],"categories":[],"categories_nodes":[],"categories_segments":[],"categories_sizes":[],"default_left":[1,1,1,1,1,1,1,0,0,0,0,0,0,0,0],"id":43,"left_children":[1,3,5,7,9,11,13,-1,-1,-1,-1,-1,-1,-1,-1],"loss_changes":[6.7339E4,2.44795E4,8.9842E4,1.6852312E4,1.25265E4,8.1001E4,1.518425E4,0E0,0E0,0E0,0E0,0E0,0E0,0E0,0E0],"parents":[2147483647,0,0,1,1,2,2,3,3,4,4,5,5,6,6],"right_children":[2,4,6,8,10,12,14,-1,-1,-1,-1,-1,-1,-1,-1],"split_conditions":[9.5E0,2.0225E3,3.175E2,2.35E1,1.45E1,2.565E2,3.405E2,4.200896E-1,6.1329734E-1,5.089386E-1,5.72834E-1,4.6441296E-1,3.6729273E-1,4.8639476E-1,5.6538457E-1],"split_indices":[1,2,4,0,0,4,4,0,0,0,0,0,0,0,0],"split_type":[0,0,0,0,0,0,0,0,0,0,0,0,0,0,0],"sum_hessian":[6.727E3,1.921E3,4.806E3,4.09E2,1.512E3,3.654E3,1.152E3,3.51E2,5.8E1,7.68E2,7.44E2,2.19E3,1.464E3,5.52E2,6E2],"tree_param":{"num_deleted":"0","num_feature":"11","num_nodes":"15","size_leaf_vector":"0"}},{"base_weights":[4.659558E1,5.1667793E1,4.4593166E1,4.444533E1,5.362182E1,4.2174522E1,5.2271923E1,4.0961086E1,5.7678905E1,5.0460323E1,5.6711338E1,4.4827477E1,3.379817E1,4.8153965E1,5.5974014E1],"categories":[],"categories_nodes":[],"categories_segments":[],"categories_sizes":[],"default_left":[1,1,1,1,1,1,1,0,0,0,0,0,0,0,0],"id":44,"left_children":[1,3,5,7,9,11,13,-1,-1,-1,-1,-1,-1,-1,-1],"loss_changes":[6.603E4,2.44035E4,8.7518E4,1.6542062E4,1.1682E4,8.024E4,1.4882E4,0E0,0E0,0E0,0E0,0E0,0E0,0E0,0E0],"parents":[2147483647,0,0,1,1,2,2,3,3,4,4,5,5,6,6],"right_children":[2,4,6,8,10,12,14,-1,-1,-1,-1,-1,-1,-1,-1],"split_conditions":[6.25E1,2.0225E3,4.55E1,2.25E1,1.45E1,2.805E2,3.405E2,4.0961087E-1,5.76789E-1,5.046032E-1,5.6711334E-1,4.4827476E-1,3.3798167E-1,4.8153964E-1,5.597401E-1],"split_indices":[4,2,1,0,0,4,4,0,0,0,0,0,0,0,0],"split_type":[0,0,0,0,0,0,0,0,0,0,0,0,0,0,0],"sum_hessian":[6.727E3,1.897E3,4.83E3,4.09E2,1.488E3,3.678E3,1.152E3,3.27E2,8.2E1,7.44E2,7.44E2,2.79E3,8.88E2,5.52E2,6E2],"tree_param":{"num_deleted":"0","num_feature":"11","num_nodes":"15","size_leaf_vector":"0"}},{"base_weights":[4.6130203E1,5.0900826E1,4.4041927E1,4.9009384E1,5.7617325E1,3.6111504E1,4.681288E1,4.0552727E1,5.114982E1,6.2179592E1,5.5212154E1,4.0292946E1,3.0440184E1,6.0146954E1,4.2917732E1],"categories":[],"categories_nodes":[],"categories_segments":[],"categories_sizes":[],"default_left":[1,1,1,1,1,1,1,0,0,0,0,0,0,0,0],"id":45,"left_children":[1,3,5,7,9,11,13,-1,-1,-1,-1,-1,-1,-1,-1],"loss_changes":[6.4786E4,2.3117E4,1.01305E5,2.688725E4,1.428E3,2.7657375E4,1.77644E5,0E0,0E0,0E0,0E0,0E0,0E0,0E0,0E0],"parents":[2147483647,0,0,1,1,2,2,3,3,4,4,5,5,6,6],"right_children":[2,4,6,8,10,12,14,-1,-1,-1,-1,-1,-1,-1,-1],"split_conditions":[6.85E1,2.25E1,2.45E1,2.0225E3,2.45E1,9.75E1,2.535E2,4.0552726E-1,5.1149815E-1,6.217959E-1,5.521215E-1,4.0292946E-1,3.0440181E-1,6.014695E-1,4.291773E-1],"split_indices":[4,0,1,2,0,4,4,0,0,0,0,0,0,0,0],"split_type":[0,0,0,0,0,0,0,0,0,0,0,0,0,0,0],"sum_hessian":[6.727E3,2.041E3,4.686E3,1.599E3,4.42E2,1.217E3,3.469E3,3.27E2,1.272E3,1.44E2,2.98E2,6.97E2,5.2E2,7.81E2,2.688E3],"tree_param":{"num_deleted":"0","num_feature":"11","num_nodes":"15","size_leaf_vector":"0"}},{"base_weights":[4.5669468E1,5.0601E1,4.368818E1,4.356127E1,5.2475216E1,3.666019E1,4.6318714E1,4.07511E1,5.958872E1,4.937432E1,5.5605568E1,4.0894764E1,3.0136366E1,5.903899E1,4.2488716E1],"categories":[],"categories_nodes":[],"categories_segments":[],"categories_sizes":[],"default_left":[1,1,1,1,1,1,1,0,0,0,0,0,0,0,0],"id":46,"left_children":[1,3,5,7,9,11,13,-1,-1,-1,-1,-1,-1,-1,-1],"loss_changes":[6.3527E4,2.3073E4,8.717E4,1.6038E4,1.1941E4,3.5067625E4,1.67714E5,0E0,0E0,0E0,0E0,0E0,0E0,0E0,0E0],"parents":[2147483647,0,0,1,1,2,2,3,3,4,4,5,5,6,6],"right_children":[2,4,6,8,10,12,14,-1,-1,-1,-1,-1,-1,-1,-1],"split_conditions":[9.5E0,2.0225E3,2.45E1,2.35E1,1.45E1,9.75E1,2.535E2,4.0751097E-1,5.958872E-1,4.937432E-1,5.5605567E-1,4.0894762E-1,3.0136365E-1,5.903899E-1,4.2488715E-1],"split_indices":[1,2,1,0,0,4,4,0,0,0,0,0,0,0,0],"split_type":[0,0,0,0,0,0,0,0,0,0,0,0,0,0,0],"sum_hessian":[6.727E3,1.921E3,4.806E3,4.09E2,1.512E3,1.313E3,3.493E3,3.51E2,5.8E1,7.68E2,7.44E2,7.93E2,5.2E2,8.05E2,2.688E3],"tree_param":{"num_deleted":"0","num_feature":"11","num_nodes":"15","size_leaf_vector":"0"}},{"base_weights":[4.5213337E1,4.9891407E1,4.3165577E1,4.8032734E1,5.6491833E1,3.5388287E1,4.5883034E1,3.974217E1,5.013114E1,6.1027855E1,5.410315E1,3.948223E1,2.983558E1,5.9226448E1,4.2138035E1],"categories":[],"categories_nodes":[],"categories_segments":[],"categories_sizes":[],"default_left":[1,1,1,1,1,1,1,0,0,0,0,0,0,0,0],"id":47,"left_children":[1,3,5,7,9,11,13,-1,-1,-1,-1,-1,-1,-1,-1],"loss_changes":[6.2297E4,2.2338E4,9.7434E4,2.584275E4,1.498125E3,2.6510125E4,1.70903E5,0E0,0E0,0E0,0E0,0E0,0E0,0E0,0E0],"parents":[2147483647,0,0,1,1,2,2,3,3,4,4,5,5,6,6],"right_children":[2,4,6,8,10,12,14,-1,-1,-1,-1,-1,-1,-1,-1],"split_conditions":[6.85E1,2.25E1,2.45E1,2.0225E3,2.45E1,9.75E1,2.525E2,3.974217E-1,5.013114E-1,6.1027855E-1,5.410315E-1,3.948223E-1,2.983558E-1,5.922645E-1,4.2138034E-1],"split_indices":[4,0,1,2,0,4,4,0,0,0,0,0,0,0,0],"split_type":[0,0,0,0,0,0,0,0,0,0,0,0,0,0,0],"sum_hessian":[6.727E3,2.041E3,4.686E3,1.599E3,4.42E2,1.217E3,3.469E3,3.27E2,1.272E3,1.44E2,2.98E2,6.97E2,5.2E2,7.57E2,2.712E3],"tree_param":{"num_deleted":"0","num_feature":"11","num_nodes":"15","size_leaf_vector":"0"}},{"base_weights":[4.476176E1,4.959836E1,4.2818615E1,4.2694824E1,5.143633E1,4.0391388E1,5.0475765E1,3.993394E1,5.84429E1,4.8380558E1,5.45215E1,4.3012894E1,3.2186558E1,4.6400154E1,5.4141884E1],"categories":[],"categories_nodes":[],"categories_segments":[],"categories_sizes":[],"default_left":[1,1,1,1,1,1,1,0,0,0,0,0,0,0,0],"id":48,"left_children":[1,3,5,7,9,11,13,-1,-1,-1,-1,-1,-1,-1,-1],"loss_changes":[6.1108E4,2.2191E4,8.7302E4,1.5492375E4,1.1626E4,7.72315E4,1.471575E4,0E0,0E0,0E0,0E0,0E0,0E0,0E0,0E0],"parents":[2147483647,0,0,1,1,2,2,3,3,4,4,5,5,6,6],"right_children":[2,4,6,8,10,12,14,-1,-1,-1,-1,-1,-1,-1,-1],"split_conditions":[9.5E0,2.0225E3,3.175E2,2.35E1,1.45E1,2.805E2,3.405E2,3.993394E-1,5.84429E-1,4.8380557E-1,5.45215E-1,4.3012893E-1,3.2186556E-1,4.6400154E-1,5.4141885E-1],"split_indices":[1,2,4,0,0,4,4,0,0,0,0,0,0,0,0],"split_type":[0,0,0,0,0,0,0,0,0,0,0,0,0,0,0],"sum_hessian":[6.727E3,1.921E3,4.806E3,4.09E2,1.512E3,3.654E3,1.152E3,3.51E2,5.8E1,7.68E2,7.44E2,2.766E3,8.88E2,5.52E2,6E2],"tree_param":{"num_deleted":"0","num_feature":"11","num_nodes":"15","size_leaf_vector":"0"}},{"base_weights":[4.4314705E1,4.914613E1,4.2407364E1,4.2270275E1,5.1006405E1,4.0025116E1,4.997188E1,3.9535736E1,5.7868378E1,4.796733E1,5.3977016E1,4.3765636E1,3.434233E1,5.2522366E1,4.423087E1],"categories":[],"categories_nodes":[],"categories_segments":[],"categories_sizes":[],"default_left":[1,1,1,1,1,1,1,0,0,0,0,0,0,0,0],"id":49,"left_children":[1,3,5,7,9,11,13,-1,-1,-1,-1,-1,-1,-1,-1],"loss_changes":[5.9916E4,2.21215E4,8.5057E4,1.5200125E4,1.085325E4,7.66995E4,1.455975E4,0E0,0E0,0E0,0E0,0E0,0E0,0E0,0E0],"parents":[2147483647,0,0,1,1,2,2,3,3,4,4,5,5,6,6],"right_children":[2,4,6,8,10,12,14,-1,-1,-1,-1,-1,-1,-1,-1],"split_conditions":[6.25E1,2.0225E3,4.55E1,2.35E1,1.45E1,2.565E2,2.35E1,3.9535734E-1,5.786838E-1,4.796733E-1,5.397701E-1,4.3765634E-1,3.434233E-1,5.252237E-1,4.423087E-1],"split_indices":[4,2,1,0,0,4,0,0,0,0,0,0,0,0,0],"split_type":[0,0,0,0,0,0,0,0,0,0,0,0,0,0,0],"sum_hessian":[6.727E3,1.897E3,4.83E3,4.09E2,1.488E3,3.678E3,1.152E3,3.51E2,5.8E1,7.44E2,7.44E2,2.214E3,1.464E3,7.92E2,3.6E2],"tree_param":{"num_deleted":"0","num_feature":"11","num_nodes":"15","size_leaf_vector":"0"}},{"base_weights":[4.3872112E1,4.841568E1,4.1883244E1,4.6603233E1,5.4852474E1,3.4167904E1,4.4579323E1,3.8553684E1,4.864066E1,5.9379402E1,5.2473686E1,3.8221436E1,2.867168E1,5.776833E1,4.0877945E1],"categories":[],"categories_nodes":[],"categories_segments":[],"categories_sizes":[],"default_left":[1,1,1,1,1,1,1,0,0,0,0,0,0,0,0],"id":50,"left_children":[1,3,5,7,9,11,13,-1,-1,-1,-1,-1,-1,-1,-1],"loss_changes":[5.877E4,2.1266E4,9.59725E4,2.436525E4,1.654625E3,2.6040125E4,1.67035E5,0E0,0E0,0E0,0E0,0E0,0E0,0E0,0E0],"parents":[2147483647,0,0,1,1,2,2,3,3,4,4,5,5,6,6],"right_children":[2,4,6,8,10,12,14,-1,-1,-1,-1,-1,-1,-1,-1],"split_conditions":[6.85E1,2.25E1,2.45E1,2.0225E3,2.45E1,9.75E1,2.525E2,3.8553682E-1,4.864066E-1,5.93794E-1,5.247368E-1,3.8221434E-1,2.867168E-1,5.7768327E-1,4.0877944E-1],"split_indices":[4,0,1,2,0,4,4,0,0,0,0,0,0,0,0],"split_type":[0,0,0,0,0,0,0,0,0,0,0,0,0,0,0],"sum_hessian":[6.727E3,2.041E3,4.686E3,1.599E3,4.42E2,1.217E3,3.469E3,3.27E2,1.272E3,1.44E2,2.98E2,6.97E2,5.2E2,7.57E2,2.712E3],"tree_param":{"num_deleted":"0","num_feature":"11","num_nodes":"15","size_leaf_vector":"0"}},{"base_weights":[4.3433933E1,4.817278E1,4.156315E1,4.142943E1,4.9997223E1,3.91353E1,4.886869E1,3.8742863E1,5.6755566E1,4.7002544E1,5.2924793E1,4.1762825E1,3.0368889E1,4.4960667E1,5.2695404E1],"categories":[],"categories_nodes":[],"categories_segments":[],"categories_sizes":[],"default_left":[1,1,1,1,1,1,1,0,0,0,0,0,0,0,0],"id":51,"left_children":[1,3,5,7,9,11,13,-1,-1,-1,-1,-1,-1,-1,-1],"loss_changes":[5.7643E4,2.128E4,8.3774E4,1.46826875E4,1.05665E4,8.2368E4,1.55915E4,0E0,0E0,0E0,0E0,0E0,0E0,0E0,0E0],"parents":[2147483647,0,0,1,1,2,2,3,3,4,4,5,5,6,6],"right_children":[2,4,6,8,10,12,14,-1,-1,-1,-1,-1,-1,-1,-1],"split_conditions":[6.25E1,2.0225E3,3.155E2,2.35E1,1.45E1,2.805E2,3.405E2,3.874286E-1,5.6755567E-1,4.7002542E-1,5.2924794E-1,4.1762823E-1,3.0368888E-1,4.4960666E-1,5.2695405E-1],"split_indices":[4,2,4,0,0,4,4,0,0,0,0,0,0,0,0],"split_type":[0,0,0,0,0,0,0,0,0,0,0,0,0,0,0],"sum_hessian":[6.727E3,1.897E3,4.83E3,4.09E2,1.488E3,3.63E3,1.2E3,3.51E2,5.8E1,7.44E2,7.44E2,2.79E3,8.4E2,6E2,6E2],"tree_param":{"num_deleted":"0","num_feature":"11","num_nodes":"15","size_leaf_vector":"0"}},{"base_weights":[4.3000137E1,4.765196E1,4.1131237E1,4.1017464E1,4.9418312E1,3.870599E1,4.8380817E1,3.8356533E1,5.619763E1,4.646904E1,5.239626E1,4.1318165E1,3.0065561E1,4.4511806E1,5.2169327E1],"categories":[],"categories_nodes":[],"categories_segments":[],"categories_sizes":[],"default_left":[1,1,1,1,1,1,1,0,0,0,0,0,0,0,0],"id":52,"left_children":[1,3,5,7,9,11,13,-1,-1,-1,-1,-1,-1,-1,-1],"loss_changes":[5.6532E4,2.04965E4,8.2644E4,1.44056875E4,1.085375E4,8.0169E4,1.5282E4,0E0,0E0,0E0,0E0,0E0,0E0,0E0,0E0],"parents":[2147483647,0,0,1,1,2,2,3,3,4,4,5,5,6,6],"right_children":[2,4,6,8,10,12,14,-1,-1,-1,-1,-1,-1,-1,-1],"split_conditions":[9.5E0,2.0225E3,3.155E2,2.35E1,1.45E1,2.805E2,3.405E2,3.8356534E-1,5.619763E-1,4.646904E-1,5.2396256E-1,4.1318163E-1,3.006556E-1,4.4511807E-1,5.216932E-1],"split_indices":[1,2,4,0,0,4,4,0,0,0,0,0,0,0,0],"split_type":[0,0,0,0,0,0,0,0,0,0,0,0,0,0,0],"sum_hessian":[6.727E3,1.921E3,4.806E3,4.09E2,1.512E3,3.606E3,1.2E3,3.51E2,5.8E1,7.68E2,7.44E2,2.766E3,8.4E2,6E2,6E2],"tree_param":{"num_deleted":"0","num_feature":"11","num_nodes":"15","size_leaf_vector":"0"}},{"base_weights":[4.2570675E1,4.6984394E1,4.0638653E1,4.5217213E1,5.3260937E1,3.2996647E1,4.330935E1,3.740068E1,4.7195694E1,5.7777832E1,5.0892338E1,3.701015E1,2.7556301E1,5.6361694E1,3.964662E1],"categories":[],"categories_nodes":[],"categories_segments":[],"categories_sizes":[],"default_left":[1,1,1,1,1,1,1,0,0,0,0,0,0,0,0],"id":53,"left_children":[1,3,5,7,9,11,13,-1,-1,-1,-1,-1,-1,-1,-1],"loss_changes":[5.5463E4,2.02415E4,9.42295E4,2.29785E4,1.799E3,2.5575E4,1.636565E5,0E0,0E0,0E0,0E0,0E0,0E0,0E0,0E0],"parents":[2147483647,0,0,1,1,2,2,3,3,4,4,5,5,6,6],"right_children":[2,4,6,8,10,12,14,-1,-1,-1,-1,-1,-1,-1,-1],"split_conditions":[6.85E1,2.25E1,2.45E1,2.0225E3,2.45E1,9.75E1,2.525E2,3.740068E-1,4.7195694E-1,5.777783E-1,5.0892335E-1,3.701015E-1,2.75563E-1,5.6361693E-1,3.964662E-1],"split_indices":[4,0,1,2,0,4,4,0,0,0,0,0,0,0,0],"split_type":[0,0,0,0,0,0,0,0,0,0,0,0,0,0,0],"sum_hessian":[6.727E3,2.041E3,4.686E3,1.599E3,4.42E2,1.217E3,3.469E3,3.27E2,1.272E3,1.44E2,2.98E2,6.97E2,5.2E2,7.57E2,2.712E3],"tree_param":{"num_deleted":"0","num_feature":"11","num_nodes":"15","size_leaf_vector":"0"}},{"base_weights":[4.2145493E1,4.6748417E1,4.0328377E1,4.0201458E1,4.851974E1,3.7944607E1,4.7501682E1,3.758722E1,5.5116875E1,4.559942E1,5.137494E1,4.051498E1,2.9369268E1,4.3818935E1,5.1408463E1],"categories":[],"categories_nodes":[],"categories_segments":[],"categories_sizes":[],"default_left":[1,1,1,1,1,1,1,0,0,0,0,0,0,0,0],"id":54,"left_children":[1,3,5,7,9,11,13,-1,-1,-1,-1,-1,-1,-1,-1],"loss_changes":[5.4388E4,2.006E4,8.0805E4,1.391525E4,1.007275E4,7.8844E4,1.5027E4,0E0,0E0,0E0,0E0,0E0,0E0,0E0,0E0],"parents":[2147483647,0,0,1,1,2,2,3,3,4,4,5,5,6,6],"right_children":[2,4,6,8,10,12,14,-1,-1,-1,-1,-1,-1,-1,-1],"split_conditions":[6.25E1,2.0225E3,3.155E2,2.35E1,1.45E1,2.805E2,3.415E2,3.758722E-1,5.5116874E-1,4.559942E-1,5.1374936E-1,4.051498E-1,2.9369268E-1,4.3818936E-1,5.1408464E-1],"split_indices":[4,2,4,0,0,4,4,0,0,0,0,0,0,0,0],"split_type":[0,0,0,0,0,0,0,0,0,0,0,0,0,0,0],"sum_hessian":[6.727E3,1.897E3,4.83E3,4.09E2,1.488E3,3.63E3,1.2E3,3.51E2,5.8E1,7.44E2,7.44E2,2.79E3,8.4E2,6.24E2,5.76E2],"tree_param":{"num_deleted":"0","num_feature":"11","num_nodes":"15","size_leaf_vector":"0"}},{"base_weights":[4.1724567E1,4.6053337E1,3.9829735E1,4.4316948E1,5.222076E1,3.2262394E1,4.2474457E1,3.6653088E1,4.6256798E1,5.671046E1,4.986883E1,3.623601E1,2.6876894E1,5.513977E1,3.8775406E1],"categories":[],"categories_nodes":[],"categories_segments":[],"categories_sizes":[],"default_left":[1,1,1,1,1,1,1,0,0,0,0,0,0,0,0],"id":55,"left_children":[1,3,5,7,9,11,13,-1,-1,-1,-1,-1,-1,-1,-1],"loss_changes":[5.3351E4,1.9554E4,9.2433E4,2.209125E4,1.84975E3,2.5091125E4,1.6043E5,0E0,0E0,0E0,0E0,0E0,0E0,0E0,0E0],"parents":[2147483647,0,0,1,1,2,2,3,3,4,4,5,5,6,6],"right_children":[2,4,6,8,10,12,14,-1,-1,-1,-1,-1,-1,-1,-1],"split_conditions":[6.85E1,2.25E1,2.45E1,2.0225E3,2.45E1,9.75E1,2.535E2,3.6653087E-1,4.6256796E-1,5.671046E-1,4.986883E-1,3.6236012E-1,2.6876894E-1,5.513977E-1,3.8775405E-1],"split_indices":[4,0,1,2,0,4,4,0,0,0,0,0,0,0,0],"split_type":[0,0,0,0,0,0,0,0,0,0,0,0,0,0,0],"sum_hessian":[6.727E3,2.041E3,4.686E3,1.599E3,4.42E2,1.217E3,3.469E3,3.27E2,1.272E3,1.44E2,2.98E2,6.97E2,5.2E2,7.81E2,2.688E3],"tree_param":{"num_deleted":"0","num_feature":"11","num_nodes":"15","size_leaf_vector":"0"}},{"base_weights":[4.1307835E1,4.041376E1,5.0355392E1,4.3241173E1,3.492637E1,5.6061165E1,4.00002E1,4.0504963E1,5.4589077E1,3.1426104E1,4.2644337E1,4.678139E1,6.0086792E1,3.388783E1,4.2801598E1],"categories":[],"categories_nodes":[],"categories_segments":[],"categories_sizes":[],"default_left":[1,1,1,1,1,1,1,0,0,0,0,0,0,0,0],"id":56,"left_children":[1,3,5,7,9,11,13,-1,-1,-1,-1,-1,-1,-1,-1],"loss_changes":[5.2389E4,9.3566E4,3.326725E4,1.23232E5,5.5094E4,1.15715E4,2.26525E3,0E0,0E0,0E0,0E0,0E0,0E0,0E0,0E0],"parents":[2147483647,0,0,1,1,2,2,3,3,4,4,5,5,6,6],"right_children":[2,4,6,8,10,12,14,-1,-1,-1,-1,-1,-1,-1,-1],"split_conditions":[3.405E2,2.535E2,2.25E1,1.7E2,3.135E2,1.15E1,2.5E0,4.0504962E-1,5.4589075E-1,3.1426102E-1,4.2644337E-1,4.678139E-1,6.008679E-1,3.3887827E-1,4.2801598E-1],"split_indices":[4,4,0,4,4,0,3,0,0,0,0,0,0,0,0],"split_type":[0,0,0,0,0,0,0,0,0,0,0,0,0,0,0],"sum_hessian":[6.727E3,6.127E3,6E2,4.039E3,2.088E3,3.84E2,2.16E2,3.258E3,7.81E2,1.44E3,6.48E2,1.2E2,2.64E2,7.2E1,1.44E2],"tree_param":{"num_deleted":"0","num_feature":"11","num_nodes":"15","size_leaf_vector":"0"}},{"base_weights":[4.0895283E1,4.5378395E1,3.9094273E1,3.8997562E1,4.707751E1,3.239916E1,4.160094E1,3.642935E1,5.36588E1,4.4214893E1,4.996916E1,3.6584354E1,2.642668E1,5.3546616E1,3.8004875E1],"categories":[],"categories_nodes":[],"categories_segments":[],"categories_sizes":[],"default_left":[1,1,1,1,1,1,1,0,0,0,0,0,0,0,0],"id":57,"left_children":[1,3,5,7,9,11,13,-1,-1,-1,-1,-1,-1,-1,-1],"loss_changes":[5.2549E4,1.900175E4,7.9325E4,1.3483E4,1.0315E4,3.1878E4,1.480585E5,0E0,0E0,0E0,0E0,0E0,0E0,0E0,0E0],"parents":[2147483647,0,0,1,1,2,2,3,3,4,4,5,5,6,6],"right_children":[2,4,6,8,10,12,14,-1,-1,-1,-1,-1,-1,-1,-1],"split_conditions":[9.5E0,2.0225E3,2.45E1,2.35E1,1.45E1,9.65E1,2.535E2,3.6429352E-1,5.3658795E-1,4.4214892E-1,4.9969158E-1,3.6584353E-1,2.642668E-1,5.3546613E-1,3.8004875E-1],"split_indices":[1,2,1,0,0,4,4,0,0,0,0,0,0,0,0],"split_type":[0,0,0,0,0,0,0,0,0,0,0,0,0,0,0],"sum_hessian":[6.727E3,1.921E3,4.806E3,4.09E2,1.512E3,1.313E3,3.493E3,3.51E2,5.8E1,7.68E2,7.44E2,7.69E2,5.44E2,8.05E2,2.688E3],"tree_param":{"num_deleted":"0","num_feature":"11","num_nodes":"15","size_leaf_vector":"0"}},{"base_weights":[4.048683E1,3.959867E1,4.9475475E1,4.238165E1,3.4197598E1,5.5124264E1,3.9225433E1,3.9698605E1,5.35091E1,3.0732275E1,4.183909E1,4.5940536E1,5.9109573E1,3.3178753E1,4.19991E1],"categories":[],"categories_nodes":[],"categories_segments":[],"categories_sizes":[],"default_left":[1,1,1,1,1,1,1,0,0,0,0,0,0,0,0],"id":58,"left_children":[1,3,5,7,9,11,13,-1,-1,-1,-1,-1,-1,-1,-1],"loss_changes":[5.1752E4,9.0661E4,3.2635875E4,1.18492E5,5.40315E4,1.1375375E4,2.2459375E3,0E0,0E0,0E0,0E0,0E0,0E0,0E0,0E0],"parents":[2147483647,0,0,1,1,2,2,3,3,4,4,5,5,6,6],"right_children":[2,4,6,8,10,12,14,-1,-1,-1,-1,-1,-1,-1,-1],"split_conditions":[3.405E2,2.535E2,2.25E1,1.7E2,3.135E2,1.15E1,2.5E0,3.9698604E-1,5.35091E-1,3.0732274E-1,4.1839087E-1,4.5940536E-1,5.9109575E-1,3.3178753E-1,4.19991E-1],"split_indices":[4,4,0,4,4,0,3,0,0,0,0,0,0,0,0],"split_type":[0,0,0,0,0,0,0,0,0,0,0,0,0,0,0],"sum_hessian":[6.727E3,6.127E3,6E2,4.039E3,2.088E3,3.84E2,2.16E2,3.258E3,7.81E2,1.44E3,6.48E2,1.2E2,2.64E2,7.2E1,1.44E2],"tree_param":{"num_deleted":"0","num_feature":"11","num_nodes":"15","size_leaf_vector":"0"}},{"base_weights":[4.0082478E1,4.4342384E1,3.8218E1,4.263617E1,5.0404675E1,3.0818735E1,4.080419E1,3.51249E1,4.4538025E1,5.487082E1,4.807024E1,3.4711452E1,2.5544386E1,5.3229214E1,3.7317654E1],"categories":[],"categories_nodes":[],"categories_segments":[],"categories_sizes":[],"default_left":[1,1,1,1,1,1,1,0,0,0,0,0,0,0,0],"id":59,"left_children":[1,3,5,7,9,11,13,-1,-1,-1,-1,-1,-1,-1,-1],"loss_changes":[5.1743E4,1.897225E4,8.84325E4,2.129225E4,1.981125E3,2.412075E4,1.483355E5,0E0,0E0,0E0,0E0,0E0,0E0,0E0,0E0],"parents":[2147483647,0,0,1,1,2,2,3,3,4,4,5,5,6,6],"right_children":[2,4,6,8,10,12,14,-1,-1,-1,-1,-1,-1,-1,-1],"split_conditions":[6.85E1,2.25E1,2.45E1,2.0225E3,2.45E1,9.75E1,2.525E2,3.51249E-1,4.4538024E-1,5.487082E-1,4.807024E-1,3.471145E-1,2.5544384E-1,5.322921E-1,3.7317652E-1],"split_indices":[4,0,1,2,0,4,4,0,0,0,0,0,0,0,0],"split_type":[0,0,0,0,0,0,0,0,0,0,0,0,0,0,0],"sum_hessian":[6.727E3,2.041E3,4.686E3,1.599E3,4.42E2,1.217E3,3.469E3,3.27E2,1.272E3,1.44E2,2.98E2,6.97E2,5.2E2,7.57E2,2.712E3],"tree_param":{"num_deleted":"0","num_feature":"11","num_nodes":"15","size_leaf_vector":"0"}},{"base_weights":[3.9682148E1,3.8799965E1,4.8611164E1,4.153967E1,3.3482967E1,5.4203545E1,3.8465187E1,3.8909466E1,5.2447968E1,3.0052248E1,4.104874E1,4.5114838E1,5.814894E1,3.2483444E1,4.1211403E1],"categories":[],"categories_nodes":[],"categories_segments":[],"categories_sizes":[],"default_left":[1,1,1,1,1,1,1,0,0,0,0,0,0,0,0],"id":60,"left_children":[1,3,5,7,9,11,13,-1,-1,-1,-1,-1,-1,-1,-1],"loss_changes":[5.1111E4,8.7875E4,3.2016E4,1.13871E5,5.298875E4,1.1182125E4,2.226E3,0E0,0E0,0E0,0E0,0E0,0E0,0E0,0E0],"parents":[2147483647,0,0,1,1,2,2,3,3,4,4,5,5,6,6],"right_children":[2,4,6,8,10,12,14,-1,-1,-1,-1,-1,-1,-1,-1],"split_conditions":[3.405E2,2.535E2,2.25E1,1.7E2,3.135E2,1.15E1,2.5E0,3.8909465E-1,5.244797E-1,3.0052248E-1,4.1048738E-1,4.5114836E-1,5.814894E-1,3.2483444E-1,4.1211402E-1],"split_indices":[4,4,0,4,4,0,3,0,0,0,0,0,0,0,0],"split_type":[0,0,0,0,0,0,0,0,0,0,0,0,0,0,0],"sum_hessian":[6.727E3,6.127E3,6E2,4.039E3,2.088E3,3.84E2,2.16E2,3.258E3,7.81E2,1.44E3,6.48E2,1.2E2,2.64E2,7.2E1,1.44E2],"tree_param":{"num_deleted":"0","num_feature":"11","num_nodes":"15","size_leaf_vector":"0"}},{"base_weights":[3.928583E1,4.3697544E1,3.7513706E1,3.7441376E1,4.536399E1,3.516981E1,4.4521965E1,3.491853E1,5.1858326E1,4.2543457E1,4.8214497E1,3.764136E1,2.6996273E1,4.098426E1,4.8276806E1],"categories":[],"categories_nodes":[],"categories_segments":[],"categories_sizes":[],"default_left":[1,1,1,1,1,1,1,0,0,0,0,0,0,0,0],"id":61,"left_children":[1,3,5,7,9,11,13,-1,-1,-1,-1,-1,-1,-1,-1],"loss_changes":[5.0961E4,1.83395E4,7.7397E4,1.31015625E4,1.011325E4,7.185E4,1.3975E4,0E0,0E0,0E0,0E0,0E0,0E0,0E0,0E0],"parents":[2147483647,0,0,1,1,2,2,3,3,4,4,5,5,6,6],"right_children":[2,4,6,8,10,12,14,-1,-1,-1,-1,-1,-1,-1,-1],"split_conditions":[9.5E0,2.0225E3,3.155E2,2.35E1,1.45E1,2.805E2,3.415E2,3.491853E-1,5.1858324E-1,4.2543456E-1,4.8214495E-1,3.764136E-1,2.6996273E-1,4.098426E-1,4.8276806E-1],"split_indices":[1,2,4,0,0,4,4,0,0,0,0,0,0,0,0],"split_type":[0,0,0,0,0,0,0,0,0,0,0,0,0,0,0],"sum_hessian":[6.727E3,1.921E3,4.806E3,4.09E2,1.512E3,3.606E3,1.2E3,3.51E2,5.8E1,7.68E2,7.44E2,2.766E3,8.4E2,6.24E2,5.76E2],"tree_param":{"num_deleted":"0","num_feature":"11","num_nodes":"15","size_leaf_vector":"0"}},{"base_weights":[3.8893467E1,4.30784E1,3.70619E1,4.1401936E1,4.9036114E1,2.9746162E1,3.961911E1,3.4038692E1,4.3266617E1,5.3476643E1,4.671868E1,3.3600426E1,2.4525393E1,5.1797916E1,3.62018E1],"categories":[],"categories_nodes":[],"categories_segments":[],"categories_sizes":[],"default_left":[1,1,1,1,1,1,1,0,0,0,0,0,0,0,0],"id":62,"left_children":[1,3,5,7,9,11,13,-1,-1,-1,-1,-1,-1,-1,-1],"loss_changes":[4.9974E4,1.8365E4,8.65045E4,2.04955E4,2.060375E3,2.3684875E4,1.42542E5,0E0,0E0,0E0,0E0,0E0,0E0,0E0,0E0],"parents":[2147483647,0,0,1,1,2,2,3,3,4,4,5,5,6,6],"right_children":[2,4,6,8,10,12,14,-1,-1,-1,-1,-1,-1,-1,-1],"split_conditions":[6.85E1,2.25E1,2.45E1,2.0225E3,2.45E1,9.75E1,2.525E2,3.4038693E-1,4.3266615E-1,5.3476644E-1,4.671868E-1,3.3600426E-1,2.4525392E-1,5.1797915E-1,3.6201802E-1],"split_indices":[4,0,1,2,0,4,4,0,0,0,0,0,0,0,0],"split_type":[0,0,0,0,0,0,0,0,0,0,0,0,0,0,0],"sum_hessian":[6.727E3,2.041E3,4.686E3,1.599E3,4.42E2,1.217E3,3.469E3,3.27E2,1.272E3,1.44E2,2.98E2,6.97E2,5.2E2,7.57E2,2.712E3],"tree_param":{"num_deleted":"0","num_feature":"11","num_nodes":"15","size_leaf_vector":"0"}},{"base_weights":[3.8505013E1,3.7637386E1,4.728753E1,4.031367E1,3.2443604E1,5.2826145E1,3.7243034E1,3.772854E1,5.1035698E1,2.9072523E1,3.987856E1,4.3844074E1,5.6728046E1,3.1329847E1,3.9963173E1],"categories":[],"categories_nodes":[],"categories_segments":[],"categories_sizes":[],"default_left":[1,1,1,1,1,1,1,0,0,0,0,0,0,0,0],"id":63,"left_children":[1,3,5,7,9,11,13,-1,-1,-1,-1,-1,-1,-1,-1],"loss_changes":[4.9487E4,8.3872E4,3.146775E4,1.100545E5,5.1199E4,1.1006E4,2.2383438E3,0E0,0E0,0E0,0E0,0E0,0E0,0E0,0E0],"parents":[2147483647,0,0,1,1,2,2,3,3,4,4,5,5,6,6],"right_children":[2,4,6,8,10,12,14,-1,-1,-1,-1,-1,-1,-1,-1],"split_conditions":[3.405E2,2.535E2,2.25E1,1.7E2,3.135E2,1.15E1,2.5E0,3.772854E-1,5.1035696E-1,2.9072523E-1,3.987856E-1,4.3844074E-1,5.672805E-1,3.1329846E-1,3.996317E-1],"split_indices":[4,4,0,4,4,0,3,0,0,0,0,0,0,0,0],"split_type":[0,0,0,0,0,0,0,0,0,0,0,0,0,0,0],"sum_hessian":[6.727E3,6.127E3,6E2,4.039E3,2.088E3,3.84E2,2.16E2,3.258E3,7.81E2,1.44E3,6.48E2,1.2E2,2.64E2,7.2E1,1.44E2],"tree_param":{"num_deleted":"0","num_feature":"11","num_nodes":"15","size_leaf_vector":"0"}},{"base_weights":[3.8120453E1,4.2493237E1,3.6394585E1,3.631988E1,4.4164547E1,3.4106678E1,4.328134E1,3.384145E1,5.0490887E1,4.1371063E1,4.6898746E1,3.6516567E1,2.6068497E1,3.253433E1,4.4444252E1],"categories":[],"categories_nodes":[],"categories_segments":[],"categories_sizes":[],"default_left":[1,1,1,1,1,1,1,0,0,0,0,0,0,0,0],"id":64,"left_children":[1,3,5,7,9,11,13,-1,-1,-1,-1,-1,-1,-1,-1],"loss_changes":[4.9229E4,1.797875E4,7.46425E4,1.26913125E4,9.4325E3,6.93845E4,1.3564E4,0E0,0E0,0E0,0E0,0E0,0E0,0E0,0E0],"parents":[2147483647,0,0,1,1,2,2,3,3,4,4,5,5,6,6],"right_children":[2,4,6,8,10,12,14,-1,-1,-1,-1,-1,-1,-1,-1],"split_conditions":[6.25E1,2.0225E3,3.155E2,2.35E1,1.45E1,2.805E2,5.5E0,3.384145E-1,5.0490886E-1,4.1371062E-1,4.6898746E-1,3.6516565E-1,2.6068497E-1,3.2534328E-1,4.444425E-1],"split_indices":[4,2,4,0,0,4,0,0,0,0,0,0,0,0,0],"split_type":[0,0,0,0,0,0,0,0,0,0,0,0,0,0,0],"sum_hessian":[6.727E3,1.897E3,4.83E3,4.09E2,1.488E3,3.63E3,1.2E3,3.51E2,5.8E1,7.44E2,7.44E2,2.79E3,8.4E2,1.2E2,1.08E3],"tree_param":{"num_deleted":"0","num_feature":"11","num_nodes":"15","size_leaf_vector":"0"}},{"base_weights":[3.773971E1,4.1851513E1,3.5940258E1,4.0204388E1,4.7706024E1,2.8707338E1,3.8468716E1,3.2985825E1,4.2032734E1,5.2120792E1,4.5405533E1,3.2523518E1,2.3539583E1,5.0406258E1,3.5119244E1],"categories":[],"categories_nodes":[],"categories_segments":[],"categories_sizes":[],"default_left":[1,1,1,1,1,1,1,0,0,0,0,0,0,0,0],"id":65,"left_children":[1,3,5,7,9,11,13,-1,-1,-1,-1,-1,-1,-1,-1],"loss_changes":[4.8276E4,1.777325E4,8.4612E4,1.973025E4,2.1325625E3,2.325475E4,1.36976E5,0E0,0E0,0E0,0E0,0E0,0E0,0E0,0E0],"parents":[2147483647,0,0,1,1,2,2,3,3,4,4,5,5,6,6],"right_children":[2,4,6,8,10,12,14,-1,-1,-1,-1,-1,-1,-1,-1],"split_conditions":[6.85E1,2.25E1,2.45E1,2.0225E3,2.45E1,9.75E1,2.525E2,3.2985824E-1,4.2032734E-1,5.212079E-1,4.540553E-1,3.2523516E-1,2.3539583E-1,5.040626E-1,3.511924E-1],"split_indices":[4,0,1,2,0,4,4,0,0,0,0,0,0,0,0],"split_type":[0,0,0,0,0,0,0,0,0,0,0,0,0,0,0],"sum_hessian":[6.727E3,2.041E3,4.686E3,1.599E3,4.42E2,1.217E3,3.469E3,3.27E2,1.272E3,1.44E2,2.98E2,6.97E2,5.2E2,7.57E2,2.712E3],"tree_param":{"num_deleted":"0","num_feature":"11","num_nodes":"15","size_leaf_vector":"0"}},{"base_weights":[3.736278E1,3.6507317E1,4.60232E1,3.9123882E1,3.1429567E1,5.1506924E1,3.6081924E1,3.658311E1,4.9662567E1,2.8123562E1,3.8721592E1,4.2620197E1,5.5370274E1,3.0236107E1,3.877615E1],"categories":[],"categories_nodes":[],"categories_segments":[],"categories_sizes":[],"default_left":[1,1,1,1,1,1,1,0,0,0,0,0,0,0,0],"id":66,"left_children":[1,3,5,7,9,11,13,-1,-1,-1,-1,-1,-1,-1,-1],"loss_changes":[4.8166E4,8.0188E4,3.0905125E4,1.0636E5,4.9271375E4,1.0858125E4,2.2453125E3,0E0,0E0,0E0,0E0,0E0,0E0,0E0,0E0],"parents":[2147483647,0,0,1,1,2,2,3,3,4,4,5,5,6,6],"right_children":[2,4,6,8,10,12,14,-1,-1,-1,-1,-1,-1,-1,-1],"split_conditions":[3.405E2,2.535E2,2.25E1,1.7E2,3.135E2,1.15E1,2.5E0,3.658311E-1,4.9662566E-1,2.812356E-1,3.872159E-1,4.2620197E-1,5.537027E-1,3.0236107E-1,3.877615E-1],"split_indices":[4,4,0,4,4,0,3,0,0,0,0,0,0,0,0],"split_type":[0,0,0,0,0,0,0,0,0,0,0,0,0,0,0],"sum_hessian":[6.727E3,6.127E3,6E2,4.039E3,2.088E3,3.84E2,2.16E2,3.258E3,7.81E2,1.44E3,6.48E2,1.2E2,2.64E2,7.2E1,1.44E2],"tree_param":{"num_deleted":"0","num_feature":"11","num_nodes":"15","size_leaf_vector":"0"}},{"base_weights":[3.698963E1,4.1248837E1,3.527896E1,3.5232048E1,4.285203E1,3.3006046E1,4.2075905E1,3.2797234E1,4.916123E1,5.2498848E1,4.198332E1,3.537568E1,2.5170397E1,3.1479368E1,4.3223087E1],"categories":[],"categories_nodes":[],"categories_segments":[],"categories_sizes":[],"default_left":[1,1,1,1,1,1,1,0,0,0,0,0,0,0,0],"id":67,"left_children":[1,3,5,7,9,11,13,-1,-1,-1,-1,-1,-1,-1,-1],"loss_changes":[4.7566E4,1.703E4,7.2874E4,1.2292781E4,1.047525E4,6.60825E4,1.323925E4,0E0,0E0,0E0,0E0,0E0,0E0,0E0,0E0],"parents":[2147483647,0,0,1,1,2,2,3,3,4,4,5,5,6,6],"right_children":[2,4,6,8,10,12,14,-1,-1,-1,-1,-1,-1,-1,-1],"split_conditions":[9.5E0,2.0225E3,3.155E2,2.35E1,2.5E0,2.805E2,5.5E0,3.2797232E-1,4.916123E-1,5.249885E-1,4.1983318E-1,3.537568E-1,2.5170395E-1,3.1479368E-1,4.3223086E-1],"split_indices":[1,2,4,0,0,4,0,0,0,0,0,0,0,0,0],"split_type":[0,0,0,0,0,0,0,0,0,0,0,0,0,0,0],"sum_hessian":[6.727E3,1.921E3,4.806E3,4.09E2,1.512E3,3.606E3,1.2E3,3.51E2,5.8E1,1.2E2,1.392E3,2.766E3,8.4E2,1.2E2,1.08E3],"tree_param":{"num_deleted":"0","num_feature":"11","num_nodes":"15","size_leaf_vector":"0"}},{"base_weights":[3.6620197E1,4.0875477E1,3.4940807E1,3.4881725E1,4.249842E1,3.2798466E1,4.1936504E1,3.2470196E1,4.8677948E1,3.9738728E1,4.5201065E1,3.504607E1,2.5891712E1,4.447512E1,3.6412598E1],"categories":[],"categories_nodes":[],"categories_segments":[],"categories_sizes":[],"default_left":[1,1,1,1,1,1,1,0,0,0,0,0,0,0,0],"id":68,"left_children":[1,3,5,7,9,11,13,-1,-1,-1,-1,-1,-1,-1,-1],"loss_changes":[4.6652E4,1.69805E4,7.10275E4,1.2060094E4,9.30925E3,5.6577E4,1.42125E4,0E0,0E0,0E0,0E0,0E0,0E0,0E0,0E0],"parents":[2147483647,0,0,1,1,2,2,3,3,4,4,5,5,6,6],"right_children":[2,4,6,8,10,12,14,-1,-1,-1,-1,-1,-1,-1,-1],"split_conditions":[6.25E1,2.0225E3,3.185E2,2.35E1,1.45E1,2.805E2,2.35E1,3.2470196E-1,4.8677948E-1,3.9738727E-1,4.5201063E-1,3.5046068E-1,2.5891712E-1,4.447512E-1,3.6412597E-1],"split_indices":[4,2,4,0,0,4,0,0,0,0,0,0,0,0,0],"split_type":[0,0,0,0,0,0,0,0,0,0,0,0,0,0,0],"sum_hessian":[6.727E3,1.897E3,4.83E3,4.09E2,1.488E3,3.702E3,1.128E3,3.51E2,5.8E1,7.44E2,7.44E2,2.79E3,9.12E2,7.68E2,3.6E2],"tree_param":{"num_deleted":"0","num_feature":"11","num_nodes":"15","size_leaf_vector":"0"}},{"base_weights":[3.625445E1,3.541868E1,4.471598E1,3.797416E1,3.0459572E1,5.0119694E1,3.492268E1,3.5445637E1,4.8463264E1,2.7245197E1,3.7549637E1,4.132778E1,5.3944984E1,2.9152441E1,3.7586853E1],"categories":[],"categories_nodes":[],"categories_segments":[],"categories_sizes":[],"default_left":[1,1,1,1,1,1,1,0,0,0,0,0,0,0,0],"id":69,"left_children":[1,3,5,7,9,11,13,-1,-1,-1,-1,-1,-1,-1,-1],"loss_changes":[4.5997E4,7.6503E4,3.005475E4,1.05431E5,4.6585625E4,1.071875E4,2.2401562E3,0E0,0E0,0E0,0E0,0E0,0E0,0E0,0E0],"parents":[2147483647,0,0,1,1,2,2,3,3,4,4,5,5,6,6],"right_children":[2,4,6,8,10,12,14,-1,-1,-1,-1,-1,-1,-1,-1],"split_conditions":[3.405E2,2.535E2,2.25E1,1.7E2,3.135E2,1.15E1,2.5E0,3.5445637E-1,4.8463264E-1,2.7245197E-1,3.7549636E-1,4.132778E-1,5.394498E-1,2.915244E-1,3.7586853E-1],"split_indices":[4,4,0,4,4,0,3,0,0,0,0,0,0,0,0],"split_type":[0,0,0,0,0,0,0,0,0,0,0,0,0,0,0],"sum_hessian":[6.727E3,6.127E3,6E2,4.039E3,2.088E3,3.84E2,2.16E2,3.258E3,7.81E2,1.44E3,6.48E2,1.2E2,2.64E2,7.2E1,1.44E2],"tree_param":{"num_deleted":"0","num_feature":"11","num_nodes":"15","size_leaf_vector":"0"}},{"base_weights":[3.589237E1,3.9901905E1,3.4137863E1,3.828808E1,4.5640553E1,2.6997393E1,3.6634396E1,3.236901E1,4.0449608E1,5.004067E1,4.3354073E1,3.0776287E1,2.1882872E1,4.8219604E1,3.3384033E1],"categories":[],"categories_nodes":[],"categories_segments":[],"categories_sizes":[],"default_left":[1,1,1,1,1,1,1,0,0,0,0,0,0,0,0],"id":70,"left_children":[1,3,5,7,9,11,13,-1,-1,-1,-1,-1,-1,-1,-1],"loss_changes":[4.5968E4,1.716375E4,8.2563E4,1.91615E4,2.2874375E3,2.2867125E4,1.29057E5,0E0,0E0,0E0,0E0,0E0,0E0,0E0,0E0],"parents":[2147483647,0,0,1,1,2,2,3,3,4,4,5,5,6,6],"right_children":[2,4,6,8,10,12,14,-1,-1,-1,-1,-1,-1,-1,-1],"split_conditions":[6.85E1,2.25E1,2.45E1,1.5E0,2.45E1,9.75E1,2.525E2,3.2369012E-1,4.0449607E-1,5.004067E-1,4.335407E-1,3.0776286E-1,2.1882871E-1,4.8219603E-1,3.338403E-1],"split_indices":[4,0,1,3,0,4,4,0,0,0,0,0,0,0,0],"split_type":[0,0,0,0,0,0,0,0,0,0,0,0,0,0,0],"sum_hessian":[6.727E3,2.041E3,4.686E3,1.599E3,4.42E2,1.217E3,3.469E3,4.32E2,1.167E3,1.44E2,2.98E2,6.97E2,5.2E2,7.57E2,2.712E3],"tree_param":{"num_deleted":"0","num_feature":"11","num_nodes":"15","size_leaf_vector":"0"}},{"base_weights":[3.5533894E1,3.4703842E1,4.3938232E1,3.7219757E1,2.9821606E1,4.9288002E1,3.424423E1,3.4741047E1,4.7502224E1,2.6639326E1,3.6841396E1,4.058684E1,5.307499E1,2.8535645E1,3.688204E1],"categories":[],"categories_nodes":[],"categories_segments":[],"categories_sizes":[],"default_left":[1,1,1,1,1,1,1,0,0,0,0,0,0,0,0],"id":71,"left_children":[1,3,5,7,9,11,13,-1,-1,-1,-1,-1,-1,-1,-1],"loss_changes":[4.5411E4,7.41615E4,2.94805E4,1.013185E5,4.5684625E4,1.05320625E4,2.2151719E3,0E0,0E0,0E0,0E0,0E0,0E0,0E0,0E0],"parents":[2147483647,0,0,1,1,2,2,3,3,4,4,5,5,6,6],"right_children":[2,4,6,8,10,12,14,-1,-1,-1,-1,-1,-1,-1,-1],"split_conditions":[3.405E2,2.535E2,2.25E1,1.7E2,3.135E2,1.15E1,2.5E0,3.4741047E-1,4.7502223E-1,2.6639324E-1,3.6841395E-1,4.058684E-1,5.3074986E-1,2.8535643E-1,3.6882037E-1],"split_indices":[4,4,0,4,4,0,3,0,0,0,0,0,0,0,0],"split_type":[0,0,0,0,0,0,0,0,0,0,0,0,0,0,0],"sum_hessian":[6.727E3,6.127E3,6E2,4.039E3,2.088E3,3.84E2,2.16E2,3.258E3,7.81E2,1.44E3,6.48E2,1.2E2,2.64E2,7.2E1,1.44E2],"tree_param":{"num_deleted":"0","num_feature":"11","num_nodes":"15","size_leaf_vector":"0"}},{"base_weights":[3.5179005E1,3.9156456E1,3.3438633E1,3.7558456E1,4.4839626E1,2.6380726E1,3.590638E1,3.169946E1,3.9698345E1,4.9198692E1,4.257573E1,3.0122051E1,2.1317719E1,4.7263653E1,3.2719975E1],"categories":[],"categories_nodes":[],"categories_segments":[],"categories_sizes":[],"default_left":[1,1,1,1,1,1,1,0,0,0,0,0,0,0,0],"id":72,"left_children":[1,3,5,7,9,11,13,-1,-1,-1,-1,-1,-1,-1,-1],"loss_changes":[4.52635E4,1.68605E4,8.06865E4,1.880175E4,2.277E3,2.2429688E4,1.240295E5,0E0,0E0,0E0,0E0,0E0,0E0,0E0,0E0],"parents":[2147483647,0,0,1,1,2,2,3,3,4,4,5,5,6,6],"right_children":[2,4,6,8,10,12,14,-1,-1,-1,-1,-1,-1,-1,-1],"split_conditions":[6.85E1,2.25E1,2.45E1,1.5E0,2.45E1,9.75E1,2.525E2,3.1699458E-1,3.9698344E-1,4.919869E-1,4.257573E-1,3.012205E-1,2.1317717E-1,4.7263652E-1,3.2719973E-1],"split_indices":[4,0,1,3,0,4,4,0,0,0,0,0,0,0,0],"split_type":[0,0,0,0,0,0,0,0,0,0,0,0,0,0,0],"sum_hessian":[6.727E3,2.041E3,4.686E3,1.599E3,4.42E2,1.217E3,3.469E3,4.32E2,1.167E3,1.44E2,2.98E2,6.97E2,5.2E2,7.57E2,2.712E3],"tree_param":{"num_deleted":"0","num_feature":"11","num_nodes":"15","size_leaf_vector":"0"}},{"base_weights":[3.4827656E1,3.4003326E1,4.3174843E1,3.648119E1,2.9195005E1,4.8471203E1,3.3579113E1,3.4073566E1,4.6099277E1,2.604376E1,3.6146854E1,3.9859833E1,5.222028E1,2.7931482E1,3.619082E1],"categories":[],"categories_nodes":[],"categories_segments":[],"categories_sizes":[],"default_left":[1,1,1,1,1,1,1,0,0,0,0,0,0,0,0],"id":73,"left_children":[1,3,5,7,9,11,13,-1,-1,-1,-1,-1,-1,-1,-1],"loss_changes":[4.4826E4,7.19465E4,2.8916625E4,9.19825E4,4.482225E4,1.0348125E4,2.1898906E3,0E0,0E0,0E0,0E0,0E0,0E0,0E0,0E0],"parents":[2147483647,0,0,1,1,2,2,3,3,4,4,5,5,6,6],"right_children":[2,4,6,8,10,12,14,-1,-1,-1,-1,-1,-1,-1,-1],"split_conditions":[3.405E2,3.65E1,2.25E1,2.45E1,3.135E2,1.15E1,2.5E0,3.4073564E-1,4.6099275E-1,2.604376E-1,3.6146852E-1,3.985983E-1,5.222028E-1,2.7931482E-1,3.6190817E-1],"split_indices":[4,1,0,1,4,0,3,0,0,0,0,0,0,0,0],"split_type":[0,0,0,0,0,0,0,0,0,0,0,0,0,0,0],"sum_hessian":[6.727E3,6.127E3,6E2,4.039E3,2.088E3,3.84E2,2.16E2,3.234E3,8.05E2,1.44E3,6.48E2,1.2E2,2.64E2,7.2E1,1.44E2],"tree_param":{"num_deleted":"0","num_feature":"11","num_nodes":"15","size_leaf_vector":"0"}},{"base_weights":[3.447982E1,3.8426067E1,3.2753193E1,3.6844E1,4.4053333E1,2.5776884E1,3.5192497E1,2.9850168E1,3.861708E1,4.065631E1,4.686065E1,2.9481014E1,2.076487E1,4.6331257E1,3.206741E1],"categories":[],"categories_nodes":[],"categories_segments":[],"categories_sizes":[],"default_left":[1,1,1,1,1,1,1,0,0,0,0,0,0,0,0],"id":74,"left_children":[1,3,5,7,9,11,13,-1,-1,-1,-1,-1,-1,-1,-1],"loss_changes":[4.45845E4,1.655625E4,7.8853E4,1.86885E4,2.3195E3,2.200025E4,1.193035E5,0E0,0E0,0E0,0E0,0E0,0E0,0E0,0E0],"parents":[2147483647,0,0,1,1,2,2,3,3,4,4,5,5,6,6],"right_children":[2,4,6,8,10,12,14,-1,-1,-1,-1,-1,-1,-1,-1],"split_conditions":[6.85E1,2.25E1,2.45E1,2.0225E3,3.05E1,9.75E1,2.525E2,2.9850167E-1,3.861708E-1,4.065631E-1,4.6860647E-1,2.9481015E-1,2.076487E-1,4.6331257E-1,3.206741E-1],"split_indices":[4,0,1,2,4,4,4,0,0,0,0,0,0,0,0],"split_type":[0,0,0,0,0,0,0,0,0,0,0,0,0,0,0],"sum_hessian":[6.727E3,2.041E3,4.686E3,1.599E3,4.42E2,1.217E3,3.469E3,3.27E2,1.272E3,2.07E2,2.35E2,6.97E2,5.2E2,7.57E2,2.712E3],"tree_param":{"num_deleted":"0","num_feature":"11","num_nodes":"15","size_leaf_vector":"0"}},{"base_weights":[3.4135445E1,3.331683E1,4.2425552E1,3.575682E1,2.858208E1,4.7669044E1,3.292708E1,3.3396835E1,4.5184616E1,2.5461962E1,3.546576E1,3.9146503E1,5.1380585E1,2.7339712E1,3.5512943E1],"categories":[],"categories_nodes":[],"categories_segments":[],"categories_sizes":[],"default_left":[1,1,1,1,1,1,1,0,0,0,0,0,0,0,0],"id":75,"left_children":[1,3,5,7,9,11,13,-1,-1,-1,-1,-1,-1,-1,-1],"loss_changes":[4.42455E4,6.97735E4,2.836325E4,8.83785E4,4.3964125E4,1.0166875E4,2.1643438E3,0E0,0E0,0E0,0E0,0E0,0E0,0E0,0E0],"parents":[2147483647,0,0,1,1,2,2,3,3,4,4,5,5,6,6],"right_children":[2,4,6,8,10,12,14,-1,-1,-1,-1,-1,-1,-1,-1],"split_conditions":[3.405E2,3.65E1,2.25E1,2.45E1,3.135E2,1.15E1,2.5E0,3.3396834E-1,4.5184615E-1,2.546196E-1,3.546576E-1,3.9146504E-1,5.138058E-1,2.7339712E-1,3.5512942E-1],"split_indices":[4,1,0,1,4,0,3,0,0,0,0,0,0,0,0],"split_type":[0,0,0,0,0,0,0,0,0,0,0,0,0,0,0],"sum_hessian":[6.727E3,6.127E3,6E2,4.039E3,2.088E3,3.84E2,2.16E2,3.234E3,8.05E2,1.44E3,6.48E2,1.2E2,2.64E2,7.2E1,1.44E2],"tree_param":{"num_deleted":"0","num_feature":"11","num_nodes":"15","size_leaf_vector":"0"}},{"base_weights":[3.379453E1,3.7918385E1,3.2167355E1,3.2043125E1,3.9510685E1,3.000778E1,3.866964E1,2.9696133E1,4.5502415E1,3.6827675E1,4.2140663E1,3.2227974E1,2.2604012E1,2.8304531E1,3.979407E1],"categories":[],"categories_nodes":[],"categories_segments":[],"categories_sizes":[],"default_left":[1,1,1,1,1,1,1,0,0,0,0,0,0,0,0],"id":76,"left_children":[1,3,5,7,9,11,13,-1,-1,-1,-1,-1,-1,-1,-1],"loss_changes":[4.39265E4,1.648975E4,6.66775E4,1.16001875E4,8.95475E3,5.89575E4,1.2871125E4,0E0,0E0,0E0,0E0,0E0,0E0,0E0,0E0],"parents":[2147483647,0,0,1,1,2,2,3,3,4,4,5,5,6,6],"right_children":[2,4,6,8,10,12,14,-1,-1,-1,-1,-1,-1,-1,-1],"split_conditions":[6.25E1,2.0225E3,3.155E2,2.35E1,1.45E1,2.805E2,5.5E0,2.969613E-1,4.5502412E-1,3.6827675E-1,4.2140663E-1,3.2227972E-1,2.2604011E-1,2.830453E-1,3.979407E-1],"split_indices":[4,2,4,0,0,4,0,0,0,0,0,0,0,0,0],"split_type":[0,0,0,0,0,0,0,0,0,0,0,0,0,0,0],"sum_hessian":[6.727E3,1.897E3,4.83E3,4.09E2,1.488E3,3.63E3,1.2E3,3.51E2,5.8E1,7.44E2,7.44E2,2.79E3,8.4E2,1.2E2,1.08E3],"tree_param":{"num_deleted":"0","num_feature":"11","num_nodes":"15","size_leaf_vector":"0"}},{"base_weights":[3.3456993E1,3.733528E1,3.176019E1,3.5781334E1,4.2863445E1,2.4863815E1,3.4171722E1,2.9985914E1,3.7899174E1,4.7191746E1,4.0621082E1,2.8531317E1,1.9902628E1,4.5095448E1,3.1107086E1],"categories":[],"categories_nodes":[],"categories_segments":[],"categories_sizes":[],"default_left":[1,1,1,1,1,1,1,0,0,0,0,0,0,0,0],"id":77,"left_children":[1,3,5,7,9,11,13,-1,-1,-1,-1,-1,-1,-1,-1],"loss_changes":[4.30895E4,1.600825E4,7.7099E4,1.85015E4,2.382625E3,2.1593812E4,1.147635E5,0E0,0E0,0E0,0E0,0E0,0E0,0E0,0E0],"parents":[2147483647,0,0,1,1,2,2,3,3,4,4,5,5,6,6],"right_children":[2,4,6,8,10,12,14,-1,-1,-1,-1,-1,-1,-1,-1],"split_conditions":[6.85E1,2.25E1,2.45E1,1.5E0,2.45E1,9.75E1,2.525E2,2.9985914E-1,3.7899172E-1,4.7191745E-1,4.062108E-1,2.8531316E-1,1.9902627E-1,4.5095447E-1,3.1107086E-1],"split_indices":[4,0,1,3,0,4,4,0,0,0,0,0,0,0,0],"split_type":[0,0,0,0,0,0,0,0,0,0,0,0,0,0,0],"sum_hessian":[6.727E3,2.041E3,4.686E3,1.599E3,4.42E2,1.217E3,3.469E3,4.32E2,1.167E3,1.44E2,2.98E2,6.97E2,5.2E2,7.57E2,2.712E3],"tree_param":{"num_deleted":"0","num_feature":"11","num_nodes":"15","size_leaf_vector":"0"}},{"base_weights":[3.312284E1,3.2315857E1,4.129602E1,3.4702427E1,2.76849E1,4.6487534E1,3.189496E1,3.2359493E1,4.442227E1,2.4624357E1,3.443769E1,3.8055122E1,5.016238E1,2.6370762E1,3.4456142E1],"categories":[],"categories_nodes":[],"categories_segments":[],"categories_sizes":[],"default_left":[1,1,1,1,1,1,1,0,0,0,0,0,0,0,0],"id":78,"left_children":[1,3,5,7,9,11,13,-1,-1,-1,-1,-1,-1,-1,-1],"loss_changes":[4.3041E4,6.67665E4,2.7849438E4,9.0565E4,4.2325875E4,1.00214375E4,2.1615781E3,0E0,0E0,0E0,0E0,0E0,0E0,0E0,0E0],"parents":[2147483647,0,0,1,1,2,2,3,3,4,4,5,5,6,6],"right_children":[2,4,6,8,10,12,14,-1,-1,-1,-1,-1,-1,-1,-1],"split_conditions":[3.405E2,2.535E2,2.25E1,1.7E2,3.135E2,1.15E1,2.5E0,3.2359493E-1,4.4422272E-1,2.4624357E-1,3.443769E-1,3.8055122E-1,5.016238E-1,2.637076E-1,3.4456143E-1],"split_indices":[4,4,0,4,4,0,3,0,0,0,0,0,0,0,0],"split_type":[0,0,0,0,0,0,0,0,0,0,0,0,0,0,0],"sum_hessian":[6.727E3,6.127E3,6E2,4.039E3,2.088E3,3.84E2,2.16E2,3.258E3,7.81E2,1.44E3,6.48E2,1.2E2,2.64E2,7.2E1,1.44E2],"tree_param":{"num_deleted":"0","num_feature":"11","num_nodes":"15","size_leaf_vector":"0"}},{"base_weights":[3.2792038E1,3.6639256E1,3.110891E1,3.4943214E1,4.160025E1,2.4292248E1,3.3492653E1,2.7779053E1,3.6692574E1,4.0977745E1,5.2162262E1,2.7923283E1,1.938101E1,4.420145E1,3.0488316E1],"categories":[],"categories_nodes":[],"categories_segments":[],"categories_sizes":[],"default_left":[1,1,1,1,1,1,1,0,0,0,0,0,0,0,0],"id":79,"left_children":[1,3,5,7,9,11,13,-1,-1,-1,-1,-1,-1,-1,-1],"loss_changes":[4.24265E4,1.572775E4,7.5346E4,1.813075E4,1.2485625E3,2.117925E4,1.1029225E5,0E0,0E0,0E0,0E0,0E0,0E0,0E0,0E0],"parents":[2147483647,0,0,1,1,2,2,3,3,4,4,5,5,6,6],"right_children":[2,4,6,8,10,12,14,-1,-1,-1,-1,-1,-1,-1,-1],"split_conditions":[6.85E1,2.15E1,2.45E1,2.0225E3,3.05E1,9.75E1,2.525E2,2.7779052E-1,3.6692572E-1,4.0977743E-1,5.216226E-1,2.7923283E-1,1.9381009E-1,4.420145E-1,3.0488315E-1],"split_indices":[4,0,1,2,0,4,4,0,0,0,0,0,0,0,0],"split_type":[0,0,0,0,0,0,0,0,0,0,0,0,0,0,0],"sum_hessian":[6.727E3,2.041E3,4.686E3,1.527E3,5.14E2,1.217E3,3.469E3,3.03E2,1.224E3,4.9E2,2.4E1,6.97E2,5.2E2,7.57E2,2.712E3],"tree_param":{"num_deleted":"0","num_feature":"11","num_nodes":"15","size_leaf_vector":"0"}},{"base_weights":[3.2464535E1,3.1663202E1,4.0581165E1,3.401342E1,2.7102861E1,4.572086E1,3.1275337E1,3.1739408E1,4.309831E1,2.4072542E1,3.3789433E1,3.7375355E1,4.9358917E1,2.5809963E1,3.3811176E1],"categories":[],"categories_nodes":[],"categories_segments":[],"categories_sizes":[],"default_left":[1,1,1,1,1,1,1,0,0,0,0,0,0,0,0],"id":80,"left_children":[1,3,5,7,9,11,13,-1,-1,-1,-1,-1,-1,-1,-1],"loss_changes":[4.24745E4,6.47575E4,2.7315438E4,8.2095E4,4.1514875E4,9.8443125E3,2.1347969E3,0E0,0E0,0E0,0E0,0E0,0E0,0E0,0E0],"parents":[2147483647,0,0,1,1,2,2,3,3,4,4,5,5,6,6],"right_children":[2,4,6,8,10,12,14,-1,-1,-1,-1,-1,-1,-1,-1],"split_conditions":[3.405E2,3.65E1,2.25E1,2.45E1,3.135E2,1.15E1,2.5E0,3.1739408E-1,4.3098307E-1,2.4072541E-1,3.3789432E-1,3.7375355E-1,4.9358916E-1,2.5809962E-1,3.3811176E-1],"split_indices":[4,1,0,1,4,0,3,0,0,0,0,0,0,0,0],"split_type":[0,0,0,0,0,0,0,0,0,0,0,0,0,0,0],"sum_hessian":[6.727E3,6.127E3,6E2,4.039E3,2.088E3,3.84E2,2.16E2,3.234E3,8.05E2,1.44E3,6.48E2,1.2E2,2.64E2,7.2E1,1.44E2],"tree_param":{"num_deleted":"0","num_feature":"11","num_nodes":"15","size_leaf_vector":"0"}},{"base_weights":[3.21403E1,3.6160706E1,3.0554115E1,3.0401194E1,3.7722317E1,2.8440117E1,3.6919952E1,2.810318E1,4.3596092E1,3.1366108E1,3.8776184E1,3.059183E1,2.1265484E1,2.6736332E1,3.802569E1],"categories":[],"categories_nodes":[],"categories_segments":[],"categories_sizes":[],"default_left":[1,1,1,1,1,1,1,0,0,0,0,0,0,0,0],"id":81,"left_children":[1,3,5,7,9,11,13,-1,-1,-1,-1,-1,-1,-1,-1],"loss_changes":[4.18E4,1.5924E4,6.39625E4,1.12068125E4,8.758E3,5.5404E4,1.2507125E4,0E0,0E0,0E0,0E0,0E0,0E0,0E0,0E0],"parents":[2147483647,0,0,1,1,2,2,3,3,4,4,5,5,6,6],"right_children":[2,4,6,8,10,12,14,-1,-1,-1,-1,-1,-1,-1,-1],"split_conditions":[6.25E1,2.0225E3,3.155E2,2.35E1,5E-1,2.805E2,5.5E0,2.810318E-1,4.3596092E-1,3.1366107E-1,3.8776183E-1,3.0591828E-1,2.1265483E-1,2.673633E-1,3.8025686E-1],"split_indices":[4,2,4,0,3,4,0,0,0,0,0,0,0,0,0],"split_type":[0,0,0,0,0,0,0,0,0,0,0,0,0,0,0],"sum_hessian":[6.727E3,1.897E3,4.83E3,4.09E2,1.488E3,3.63E3,1.2E3,3.51E2,5.8E1,2.16E2,1.272E3,2.79E3,8.4E2,1.2E2,1.08E3],"tree_param":{"num_deleted":"0","num_feature":"11","num_nodes":"15","size_leaf_vector":"0"}},{"base_weights":[3.1819283E1,3.1031567E1,3.9798164E1,3.5600315E1,2.8741276E1,4.488664E1,3.0586826E1,3.4081097E1,4.100697E1,2.3426912E1,3.0986626E1,3.662758E1,4.8488373E1,2.5180351E1,3.3097763E1],"categories":[],"categories_nodes":[],"categories_segments":[],"categories_sizes":[],"default_left":[1,1,1,1,1,1,1,0,0,0,0,0,0,0,0],"id":82,"left_children":[1,3,5,7,9,11,13,-1,-1,-1,-1,-1,-1,-1,-1],"loss_changes":[4.10505E4,6.3099E4,2.6796875E4,1.537525E4,4.80425E4,9.6765625E3,2.1124375E3,0E0,0E0,0E0,0E0,0E0,0E0,0E0,0E0],"parents":[2147483647,0,0,1,1,2,2,3,3,4,4,5,5,6,6],"right_children":[2,4,6,8,10,12,14,-1,-1,-1,-1,-1,-1,-1,-1],"split_conditions":[3.405E2,6.85E1,2.25E1,2.25E1,2.45E1,1.15E1,2.5E0,3.4081095E-1,4.1006967E-1,2.3426911E-1,3.0986625E-1,3.662758E-1,4.8488373E-1,2.5180352E-1,3.3097762E-1],"split_indices":[4,4,0,0,1,0,3,0,0,0,0,0,0,0,0],"split_type":[0,0,0,0,0,0,0,0,0,0,0,0,0,0,0],"sum_hessian":[6.727E3,6.127E3,6E2,2.041E3,4.086E3,3.84E2,2.16E2,1.599E3,4.42E2,1.217E3,2.869E3,1.2E2,2.64E2,7.2E1,1.44E2],"tree_param":{"num_deleted":"0","num_feature":"11","num_nodes":"15","size_leaf_vector":"0"}},{"base_weights":[3.1501495E1,3.072146E1,3.940257E1,3.303226E1,2.6237806E1,4.4439983E1,3.0283644E1,3.0751307E1,4.2495945E1,2.3265787E1,3.279627E1,3.6264328E1,4.8005318E1,2.4931997E1,3.276907E1],"categories":[],"categories_nodes":[],"categories_segments":[],"categories_sizes":[],"default_left":[1,1,1,1,1,1,1,0,0,0,0,0,0,0,0],"id":83,"left_children":[1,3,5,7,9,11,13,-1,-1,-1,-1,-1,-1,-1,-1],"loss_changes":[4.0255E4,6.26245E4,2.6261625E4,8.59015E4,3.99555E4,9.4815E3,2.0693594E3,0E0,0E0,0E0,0E0,0E0,0E0,0E0,0E0],"parents":[2147483647,0,0,1,1,2,2,3,3,4,4,5,5,6,6],"right_children":[2,4,6,8,10,12,14,-1,-1,-1,-1,-1,-1,-1,-1],"split_conditions":[3.405E2,2.535E2,2.25E1,1.7E2,3.135E2,1.15E1,2.5E0,3.0751306E-1,4.2495945E-1,2.3265786E-1,3.2796267E-1,3.6264327E-1,4.8005316E-1,2.4931997E-1,3.276907E-1],"split_indices":[4,4,0,4,4,0,3,0,0,0,0,0,0,0,0],"split_type":[0,0,0,0,0,0,0,0,0,0,0,0,0,0,0],"sum_hessian":[6.727E3,6.127E3,6E2,4.039E3,2.088E3,3.84E2,2.16E2,3.258E3,7.81E2,1.44E3,6.48E2,1.2E2,2.64E2,7.2E1,1.44E2],"tree_param":{"num_deleted":"0","num_feature":"11","num_nodes":"15","size_leaf_vector":"0"}},{"base_weights":[3.1186882E1,3.4937313E1,2.9546267E1,3.3278675E1,3.979064E1,2.2885574E1,3.1875711E1,2.7436172E1,3.538252E1,3.9174725E1,5.0295677E1,2.6481024E1,1.8024712E1,4.229023E1,2.8954193E1],"categories":[],"categories_nodes":[],"categories_segments":[],"categories_sizes":[],"default_left":[1,1,1,1,1,1,1,0,0,0,0,0,0,0,0],"id":84,"left_children":[1,3,5,7,9,11,13,-1,-1,-1,-1,-1,-1,-1,-1],"loss_changes":[4.0365E4,1.511375E4,7.199275E4,1.7811E4,1.3618125E3,2.0809625E4,1.043545E5,0E0,0E0,0E0,0E0,0E0,0E0,0E0,0E0],"parents":[2147483647,0,0,1,1,2,2,3,3,4,4,5,5,6,6],"right_children":[2,4,6,8,10,12,14,-1,-1,-1,-1,-1,-1,-1,-1],"split_conditions":[6.85E1,2.15E1,2.45E1,1.5E0,3.05E1,9.75E1,2.525E2,2.7436173E-1,3.5382518E-1,3.9174724E-1,5.0295675E-1,2.6481023E-1,1.8024711E-1,4.229023E-1,2.8954193E-1],"split_indices":[4,0,1,3,0,4,4,0,0,0,0,0,0,0,0],"split_type":[0,0,0,0,0,0,0,0,0,0,0,0,0,0,0],"sum_hessian":[6.727E3,2.041E3,4.686E3,1.527E3,5.14E2,1.217E3,3.469E3,4.08E2,1.119E3,4.9E2,2.4E1,6.97E2,5.2E2,7.57E2,2.712E3],"tree_param":{"num_deleted":"0","num_feature":"11","num_nodes":"15","size_leaf_vector":"0"}},{"base_weights":[3.0875412E1,3.010084E1,3.8721844E1,3.4588688E1,2.7851196E1,4.370898E1,2.9695257E1,3.309813E1,3.989412E1,2.2657085E1,3.0045824E1,3.561753E1,4.7238625E1,2.4400515E1,3.215609E1],"categories":[],"categories_nodes":[],"categories_segments":[],"categories_sizes":[],"default_left":[1,1,1,1,1,1,1,0,0,0,0,0,0,0,0],"id":85,"left_children":[1,3,5,7,9,11,13,-1,-1,-1,-1,-1,-1,-1,-1],"loss_changes":[3.97245E4,6.0905E4,2.5757188E4,1.4828E4,4.59075E4,9.313E3,2.0427656E3,0E0,0E0,0E0,0E0,0E0,0E0,0E0,0E0],"parents":[2147483647,0,0,1,1,2,2,3,3,4,4,5,5,6,6],"right_children":[2,4,6,8,10,12,14,-1,-1,-1,-1,-1,-1,-1,-1],"split_conditions":[3.405E2,6.85E1,2.25E1,2.25E1,2.45E1,1.15E1,2.5E0,3.3098128E-1,3.989412E-1,2.2657084E-1,3.0045822E-1,3.561753E-1,4.7238624E-1,2.4400514E-1,3.215609E-1],"split_indices":[4,4,0,0,1,0,3,0,0,0,0,0,0,0,0],"split_type":[0,0,0,0,0,0,0,0,0,0,0,0,0,0,0],"sum_hessian":[6.727E3,6.127E3,6E2,2.041E3,4.086E3,3.84E2,2.16E2,1.599E3,4.42E2,1.217E3,2.869E3,1.2E2,2.64E2,7.2E1,1.44E2],"tree_param":{"num_deleted":"0","num_feature":"11","num_nodes":"15","size_leaf_vector":"0"}},{"base_weights":[3.0567053E1,3.7051212E1,2.9647028E1,3.265828E1,4.120135E1,2.8655468E1,3.8336945E1,2.4952322E1,3.4230614E1,4.5637302E1,3.6375378E1,3.0738976E1,2.5316595E1,4.3274044E1,2.9400911E1],"categories":[],"categories_nodes":[],"categories_segments":[],"categories_sizes":[],"default_left":[1,1,1,1,1,1,1,0,0,0,0,0,0,0,0],"id":86,