{"learner":{"attributes":{"best_iteration":"2205","best_ntree_limit":"2206","best_score":"457.8990820474745"},"feature_names":["period_day","period_week","period_year","period_day_of_week","period_day_of_year","period_month_end","period_month_start","period_quarter_end","period_quarter_start","period_year_end","period_year_start"],"feature_types":["int","int","int","int","int","i","i","i","i","i","i"],"gradient_booster":{"model":{"gbtree_model_param":{"num_parallel_tree":"1","num_trees":"2306","size_leaf_vector":"0"},"tree_info":[0,0,0,0,0,0,0,0,0,0,0,0,0,0,0,0,0,0,0,0,0,0,0,0,0,0,0,0,0,0,0,0,0,0,0,0,0,0,0,0,0,0,0,0,0,0,0,0,0,0,0,0,0,0,0,0,0,0,0,0,0,0,0,0,0,0,0,0,0,0,0,0,0,0,0,0,0,0,0,0,0,0,0,0,0,0,0,0,0,0,0,0,0,0,0,0,0,0,0,0,0,0,0,0,0,0,0,0,0,0,0,0,0,0,0,0,0,0,0,0,0,0,0,0,0,0,0,0,0,0,0,0,0,0,0,0,0,0,0,0,0,0,0,0,0,0,0,0,0,0,0,0,0,0,0,0,0,0,0,0,0,0,0,0,0,0,0,0,0,0,0,0,0,0,0,0,0,0,0,0,0,0,0,0,0,0,0,0,0,0,0,0,0,0,0,0,0,0,0,0,0,0,0,0,0,0,0,0,0,0,0,0,0,0,0,0,0,0,0,0,0,0,0,0,0,0,0,0,0,0,0,0,0,0,0,0,0,0,0,0,0,0,0,0,0,0,0,0,0,0,0,0,0,0,0,0,0,0,0,0,0,0,0,0,0,0,0,0,0,0,0,0,0,0,0,0,0,0,0,0,0,0,0,0,0,0,0,0,0,0,0,0,0,0,0,0,0,0,0,0,0,0,0,0,0,0,0,0,0,0,0,0,0,0,0,0,0,0,0,0,0,0,0,0,0,0,0,0,0,0,0,0,0,0,0,0,0,0,0,0,0,0,0,0,0,0,0,0,0,0,0,0,0,0,0,0,0,0,0,0,0,0,0,0,0,0,0,0,0,0,0,0,0,0,0,0,0,0,0,0,0,0,0,0,0,0,0,0,0,0,0,0,0,0,0,0,0,0,0,0,0,0,0,0,0,0,0,0,0,0,0,0,0,0,0,0,0,0,0,0,0,0,0,0,0,0,0,0,0,0,0,0,0,0,0,0,0,0,0,0,0,0,0,0,0,0,0,0,0,0,0,0,0,0,0,0,0,0,0,0,0,0,0,0,0,0,0,0,0,0,0,0,0,0,0,0,0,0,0,0,0,0,0,0,0,0,0,0,0,0,0,0,0,0,0,0,0,0,0,0,0,0,0,0,0,0,0,0,0,0,0,0,0,0,0,0,0,0,0,0,0,0,0,0,0,0,0,0,0,0,0,0,0,0,0,0,0,0,0,0,0,0,0,0,0,0,0,0,0,0,0,0,0,0,0,0,0,0,0,0,0,0,0,0,0,0,0,0,0,0,0,0,0,0,0,0,0,0,0,0,0,0,0,0,0,0,0,0,0,0,0,0,0,0,0,0,0,0,0,0,0,0,0,0,0,0,0,0,0,0,0,0,0,0,0,0,0,0,0,0,0,0,0,0,0,0,0,0,0,0,0,0,0,0,0,0,0,0,0,0,0,0,0,0,0,0,0,0,0,0,0,0,0,0,0,0,0,0,0,0,0,0,0,0,0,0,0,0,0,0,0,0,0,0,0,0,0,0,0,0,0,0,0,0,0,0,0,0,0,0,0,0,0,0,0,0,0,0,0,0,0,0,0,0,0,0,0,0,0,0,0,0,0,0,0,0,0,0,0,0,0,0,0,0,0,0,0,0,0,0,0,0,0,0,0,0,0,0,0,0,0,0,0,0,0,0,0,0,0,0,0,0,0,0,0,0,0,0,0,0,0,0,0,0,0,0,0,0,0,0,0,0,0,0,0,0,0,0,0,0,0,0,0,0,0,0,0,0,0,0,0,0,0,0,0,0,0,0,0,0,0,0,0,0,0,0,0,0,0,0,0,0,0,0,0,0,0,0,0,0,0,0,0,0,0,0,0,0,0,0,0,0,0,0,0,0,0,0,0,0,0,0,0,0,0,0,0,0,0,0,0,0,0,0,0,0,0,0,0,0,0,0,0,0,0,0,0,0,0,0,0,0,0,0,0,0,0,0,0,0,0,0,0,0,0,0,0,0,0,0,0,0,0,0,0,0,0,0,0,0,0,0,0,0,0,0,0,0,0,0,0,0,0,0,0,0,0,0,0,0,0,0,0,0,0,0,0,0,0,0,0,0,0,0,0,0,0,0,0,0,0,0,0,0,0,0,0,0,0,0,0,0,0,0,0,0,0,0,0,0,0,0,0,0,0,0,0,0,0,0,0,0,0,0,0,0,0,0,0,0,0,0,0,0,0,0,0,0,0,0,0,0,0,0,0,0,0,0,0,0,0,0,0,0,0,0,0,0,0,0,0,0,0,0,0,0,0,0,0,0,0,0,0,0,0,0,0,0,0,0,0,0,0,0,0,0,0,0,0,0,0,0,0,0,0,0,0,0,0,0,0,0,0,0,0,0,0,0,0,0,0,0,0,0,0,0,0,0,0,0,0,0,0,0,0,0,0,0,0,0,0,0,0,0,0,0,0,0,0,0,0,0,0,0,0,0,0,0,0,0,0,0,0,0,0,0,0,0,0,0,0,0,0,0,0,0,0,0,0,0,0,0,0,0,0,0,0,0,0,0,0,0,0,0,0,0,0,0,0,0,0,0,0,0,0,0,0,0,0,0,0,0,0,0,0,0,0,0,0,0,0,0,0,0,0,0,0,0,0,0,0,0,0,0,0,0,0,0,0,0,0,0,0,0,0,0,0,0,0,0,0,0,0,0,0,0,0,0,0,0,0,0,0,0,0,0,0,0,0,0,0,0,0,0,0,0,0,0,0,0,0,0,0,0,0,0,0,0,0,0,0,0,0,0,0,0,0,0,0,0,0,0,0,0,0,0,0,0,0,0,0,0,0,0,0,0,0,0,0,0,0,0,0,0,0,0,0,0,0,0,0,0,0,0,0,0,0,0,0,0,0,0,0,0,0,0,0,0,0,0,0,0,0,0,0,0,0,0,0,0,0,0,0,0,0,0,0,0,0,0,0,0,0,0,0,0,0,0,0,0,0,0,0,0,0,0,0,0,0,0,0,0,0,0,0,0,0,0,0,0,0,0,0,0,0,0,0,0,0,0,0,0,0,0,0,0,0,0,0,0,0,0,0,0,0,0,0,0,0,0,0,0,0,0,0,0,0,0,0,0,0,0,0,0,0,0,0,0,0,0,0,0,0,0,0,0,0,0,0,0,0,0,0,0,0,0,0,0,0,0,0,0,0,0,0,0,0,0,0,0,0,0,0,0,0,0,0,0,0,0,0,0,0,0,0,0,0,0,0,0,0,0,0,0,0,0,0,0,0,0,0,0,0,0,0,0,0,0,0,0,0,0,0,0,0,0,0,0,0,0,0,0,0,0,0,0,0,0,0,0,0,0,0,0,0,0,0,0,0,0,0,0,0,0,0,0,0,0,0,0,0,0,0,0,0,0,0,0,0,0,0,0,0,0,0,0,0,0,0,0,0,0,0,0,0,0,0,0,0,0,0,0,0,0,0,0,0,0,0,0,0,0,0,0,0,0,0,0,0,0,0,0,0,0,0,0,0,0,0,0,0,0,0,0,0,0,0,0,0,0,0,0,0,0,0,0,0,0,0,0,0,0,0,0,0,0,0,0,0,0,0,0,0,0,0,0,0,0,0,0,0,0,0,0,0,0,0,0,0,0,0,0,0,0,0,0,0,0,0,0,0,0,0,0,0,0,0,0,0,0,0,0,0,0,0,0,0,0,0,0,0,0,0,0,0,0,0,0,0,0,0,0,0,0,0,0,0,0,0,0,0,0,0,0,0,0,0,0,0,0,0,0,0,0,0,0,0,0,0,0,0,0,0,0,0,0,0,0,0,0,0,0,0,0,0,0,0,0,0,0,0,0,0,0,0,0,0,0,0,0,0,0,0,0,0,0,0,0,0,0,0,0,0,0,0,0,0,0,0,0,0,0,0,0,0,0,0,0,0,0,0,0,0,0,0,0,0,0,0,0,0,0,0,0,0,0,0,0,0,0,0,0,0,0,0,0,0,0,0,0,0,0,0,0,0,0,0,0,0,0,0,0,0,0,0,0,0,0,0,0,0,0,0,0,0,0,0,0,0,0,0,0,0,0,0,0,0,0,0,0,0,0,0,0,0,0,0,0,0,0,0,0,0,0,0,0,0,0,0,0,0,0,0,0,0,0,0,0,0,0,0,0,0,0,0,0,0,0,0,0,0,0,0,0,0,0,0,0,0,0,0,0,0,0,0,0,0,0,0,0,0,0,0,0,0,0,0,0,0,0,0,0,0,0,0,0,0,0,0,0,0,0,0,0,0,0,0,0,0,0,0,0,0,0,0,0,0,0,0,0,0,0,0,0,0,0,0,0,0,0,0,0,0,0,0,0,0,0,0,0,0,0,0,0,0,0,0,0,0,0,0,0,0,0,0,0,0,0,0,0,0,0,0,0,0,0,0,0,0,0,0,0,0,0,0,0,0,0,0,0,0,0,0,0,0,0,0,0,0,0,0,0,0,0,0,0,0,0,0,0,0,0,0,0,0,0,0,0,0,0,0,0,0,0,0,0,0,0,0,0,0,0,0,0,0,0,0,0,0,0,0,0,0,0,0,0,0,0,0,0,0,0,0,0,0,0,0,0,0,0,0,0,0,0,0,0,0,0,0,0,0,0,0,0,0,0,0,0,0,0,0,0,0,0,0,0,0,0,0,0,0,0,0,0,0,0,0,0,0,0,0,0,0,0,0,0,0,0,0,0,0,0,0,0,0,0,0,0,0,0,0,0,0,0,0,0,0,0,0,0,0,0,0,0,0,0,0,0,0,0,0,0,0,0,0,0,0,0,0,0,0,0,0,0,0,0,0,0,0,0,0,0,0,0,0,0,0,0,0,0,0,0,0,0,0,0,0,0,0,0,0,0,0,0,0,0,0,0,0,0,0,0,0,0,0,0,0,0,0,0,0,0,0,0,0,0,0,0,0,0,0,0,0,0,0,0,0,0,0,0,0,0,0,0,0,0,0,0,0,0,0,0,0,0,0,0,0,0,0,0,0,0,0,0,0,0,0,0,0,0,0,0,0,0,0,0,0,0,0,0,0,0,0,0,0,0,0,0,0,0,0,0,0,0,0,0,0,0,0,0,0,0,0,0,0,0,0,0,0,0,0,0,0,0,0,0,0,0,0,0,0,0,0,0,0,0,0,0,0,0,0,0,0,0,0,0,0,0,0,0,0,0,0,0,0,0],"trees":[{"base_weights":[2.16895E3,1.9785155E3,2.3472856E3,2.0477681E3,1.7828715E3,2.8795325E3,2.1663647E3,2.1405366E3,1.9973934E3,1.8357168E3,1.6531583E3,3.3542358E3,2.7075962E3,2.341114E3,2.0701648E3],"categories":[],"categories_nodes":[],"categories_segments":[],"categories_sizes":[],"default_left":[1,1,1,1,1,1,1,0,0,0,0,0,0,0,0],"id":0,"left_children":[1,3,5,7,9,11,13,-1,-1,-1,-1,-1,-1,-1,-1],"loss_changes":[2.238464E8,4.0518656E7,3.2780902E8,6.944768E6,2.860544E6,6.249779E7,3.8744064E7,0E0,0E0,0E0,0E0,0E0,0E0,0E0,0E0],"parents":[2147483647,0,0,1,1,2,2,3,3,4,4,5,5,6,6],"right_children":[2,4,6,8,10,12,14,-1,-1,-1,-1,-1,-1,-1,-1],"split_conditions":[1.7E2,8.35E1,2.575E2,3.45E1,4.5E0,9.5E0,2.955E2,2.1405365E1,1.9973934E1,1.8357168E1,1.6531584E1,3.354236E1,2.7075962E1,2.341114E1,2.0701647E1],"split_indices":[4,4,4,4,3,0,4,0,0,0,0,0,0,0,0],"split_type":[0,0,0,0,0,0,0,0,0,0,0,0,0,0,0],"sum_hessian":[6.727E3,3.259E3,3.468E3,2.4E3,8.59E2,8.76E2,2.592E3,8.3E2,1.57E3,6.01E2,2.58E2,2.28E2,6.48E2,9.12E2,1.68E3],"tree_param":{"num_deleted":"0","num_feature":"11","num_nodes":"15","size_leaf_vector":"0"}},{"base_weights":[2.1472874E3,1.9587538E3,2.323843E3,2.0273076E3,1.7650834E3,2.8508064E3,2.1447183E3,2.1191572E3,1.9774323E3,1.8173901E3,1.6366906E3,3.3208398E3,2.680562E3,2.3177285E3,2.0494753E3],"categories":[],"categories_nodes":[],"categories_segments":[],"categories_sizes":[],"default_left":[1,1,1,1,1,1,1,0,0,0,0,0,0,0,0],"id":1,"left_children":[1,3,5,7,9,11,13,-1,-1,-1,-1,-1,-1,-1,-1],"loss_changes":[2.1940224E8,3.9704576E7,3.213312E8,6.808576E6,2.800896E6,6.127667E7,3.797709E7,0E0,0E0,0E0,0E0,0E0,0E0,0E0,0E0],"parents":[2147483647,0,0,1,1,2,2,3,3,4,4,5,5,6,6],"right_children":[2,4,6,8,10,12,14,-1,-1,-1,-1,-1,-1,-1,-1],"split_conditions":[1.7E2,8.35E1,2.575E2,3.45E1,4.5E0,9.5E0,2.955E2,2.1191572E1,1.9774323E1,1.81739E1,1.6366905E1,3.3208397E1,2.680562E1,2.3177284E1,2.0494753E1],"split_indices":[4,4,4,4,3,0,4,0,0,0,0,0,0,0,0],"split_type":[0,0,0,0,0,0,0,0,0,0,0,0,0,0,0],"sum_hessian":[6.727E3,3.259E3,3.468E3,2.4E3,8.59E2,8.76E2,2.592E3,8.3E2,1.57E3,6.01E2,2.58E2,2.28E2,6.48E2,9.12E2,1.68E3],"tree_param":{"num_deleted":"0","num_feature":"11","num_nodes":"15","size_leaf_vector":"0"}},{"base_weights":[2.125841E3,1.9391893E3,2.3006345E3,2.0070515E3,1.7474728E3,2.8223667E3,2.1232878E3,2.097991E3,1.9576704E3,1.7992465E3,1.6203868E3,3.2877766E3,2.6537979E3,2.2945767E3,2.0289929E3],"categories":[],"categories_nodes":[],"categories_segments":[],"categories_sizes":[],"default_left":[1,1,1,1,1,1,1,0,0,0,0,0,0,0,0],"id":2,"left_children":[1,3,5,7,9,11,13,-1,-1,-1,-1,-1,-1,-1,-1],"loss_changes":[2.1504205E8,3.8905856E7,3.149865E8,6.675456E6,2.74304E6,6.007859E7,3.722547E7,0E0,0E0,0E0,0E0,0E0,0E0,0E0,0E0],"parents":[2147483647,0,0,1,1,2,2,3,3,4,4,5,5,6,6],"right_children":[2,4,6,8,10,12,14,-1,-1,-1,-1,-1,-1,-1,-1],"split_conditions":[1.7E2,8.35E1,2.575E2,3.45E1,4.5E0,9.5E0,2.955E2,2.097991E1,1.9576704E1,1.7992464E1,1.6203869E1,3.2877766E1,2.6537977E1,2.2945766E1,2.0289928E1],"split_indices":[4,4,4,4,3,0,4,0,0,0,0,0,0,0,0],"split_type":[0,0,0,0,0,0,0,0,0,0,0,0,0,0,0],"sum_hessian":[6.727E3,3.259E3,3.468E3,2.4E3,8.59E2,8.76E2,2.592E3,8.3E2,1.57E3,6.01E2,2.58E2,2.28E2,6.48E2,9.12E2,1.68E3],"tree_param":{"num_deleted":"0","num_feature":"11","num_nodes":"15","size_leaf_vector":"0"}},{"base_weights":[2.104609E3,1.9198204E3,2.2776577E3,1.9869979E3,1.7300377E3,2.7942107E3,2.1020715E3,2.0770364E3,1.9381062E3,1.7812838E3,1.6042455E3,3.2550425E3,2.6273005E3,2.271656E3,2.0087151E3],"categories":[],"categories_nodes":[],"categories_segments":[],"categories_sizes":[],"default_left":[1,1,1,1,1,1,1,0,0,0,0,0,0,0,0],"id":3,"left_children":[1,3,5,7,9,11,13,-1,-1,-1,-1,-1,-1,-1,-1],"loss_changes":[2.1076992E8,3.8124544E7,3.0876262E8,6.544384E6,2.686464E6,5.8904576E7,3.648819E7,0E0,0E0,0E0,0E0,0E0,0E0,0E0,0E0],"parents":[2147483647,0,0,1,1,2,2,3,3,4,4,5,5,6,6],"right_children":[2,4,6,8,10,12,14,-1,-1,-1,-1,-1,-1,-1,-1],"split_conditions":[1.7E2,8.35E1,2.575E2,3.45E1,4.5E0,9.5E0,2.955E2,2.0770363E1,1.9381062E1,1.7812838E1,1.6042454E1,3.2550423E1,2.6273005E1,2.271656E1,2.008715E1],"split_indices":[4,4,4,4,3,0,4,0,0,0,0,0,0,0,0],"split_type":[0,0,0,0,0,0,0,0,0,0,0,0,0,0,0],"sum_hessian":[6.727E3,3.259E3,3.468E3,2.4E3,8.59E2,8.76E2,2.592E3,8.3E2,1.57E3,6.01E2,2.58E2,2.28E2,6.48E2,9.12E2,1.68E3],"tree_param":{"num_deleted":"0","num_feature":"11","num_nodes":"15","size_leaf_vector":"0"}},{"base_weights":[2.0835889E3,1.9006449E3,2.2549104E3,1.9671447E3,1.7127767E3,2.7663357E3,2.0810674E3,2.056291E3,1.9187374E3,1.7635005E3,1.588265E3,3.222634E3,2.601068E3,2.248964E3,1.9886398E3],"categories":[],"categories_nodes":[],"categories_segments":[],"categories_sizes":[],"default_left":[1,1,1,1,1,1,1,0,0,0,0,0,0,0,0],"id":4,"left_children":[1,3,5,7,9,11,13,-1,-1,-1,-1,-1,-1,-1,-1],"loss_changes":[2.0658586E8,3.735757E7,3.0266573E8,6.416384E6,2.630656E6,5.77536E7,3.576525E7,0E0,0E0,0E0,0E0,0E0,0E0,0E0,0E0],"parents":[2147483647,0,0,1,1,2,2,3,3,4,4,5,5,6,6],"right_children":[2,4,6,8,10,12,14,-1,-1,-1,-1,-1,-1,-1,-1],"split_conditions":[1.7E2,8.35E1,2.575E2,3.45E1,4.5E0,9.5E0,2.955E2,2.056291E1,1.9187374E1,1.7635004E1,1.5882649E1,3.222634E1,2.6010681E1,2.2489641E1,1.9886396E1],"split_indices":[4,4,4,4,3,0,4,0,0,0,0,0,0,0,0],"split_type":[0,0,0,0,0,0,0,0,0,0,0,0,0,0,0],"sum_hessian":[6.727E3,3.259E3,3.468E3,2.4E3,8.59E2,8.76E2,2.592E3,8.3E2,1.57E3,6.01E2,2.58E2,2.28E2,6.48E2,9.12E2,1.68E3],"tree_param":{"num_deleted":"0","num_feature":"11","num_nodes":"15","size_leaf_vector":"0"}},{"base_weights":[2.062779E3,1.8816609E3,2.2323904E3,1.9474897E3,1.695688E3,2.7387388E3,2.0602732E3,2.0357528E3,1.8995623E3,1.7458949E3,1.5724437E3,3.1905483E3,2.5750977E3,2.2264993E3,1.9687653E3],"categories":[],"categories_nodes":[],"categories_segments":[],"categories_sizes":[],"default_left":[1,1,1,1,1,1,1,0,0,0,0,0,0,0,0],"id":5,"left_children":[1,3,5,7,9,11,13,-1,-1,-1,-1,-1,-1,-1,-1],"loss_changes":[2.0248371E8,3.6606976E7,2.9668557E8,6.289408E6,2.575872E6,5.662413E7,3.5057664E7,0E0,0E0,0E0,0E0,0E0,0E0,0E0,0E0],"parents":[2147483647,0,0,1,1,2,2,3,3,4,4,5,5,6,6],"right_children":[2,4,6,8,10,12,14,-1,-1,-1,-1,-1,-1,-1,-1],"split_conditions":[1.7E2,8.35E1,2.575E2,3.45E1,4.5E0,9.5E0,2.955E2,2.0357527E1,1.8995623E1,1.7458948E1,1.5724437E1,3.1905483E1,2.5750977E1,2.2264992E1,1.9687653E1],"split_indices":[4,4,4,4,3,0,4,0,0,0,0,0,0,0,0],"split_type":[0,0,0,0,0,0,0,0,0,0,0,0,0,0,0],"sum_hessian":[6.727E3,3.259E3,3.468E3,2.4E3,8.59E2,8.76E2,2.592E3,8.3E2,1.57E3,6.01E2,2.58E2,2.28E2,6.48E2,9.12E2,1.68E3],"tree_param":{"num_deleted":"0","num_feature":"11","num_nodes":"15","size_leaf_vector":"0"}},{"base_weights":[2.0421768E3,1.8628666E3,2.2100952E3,1.9280312E3,1.6787697E3,2.7114172E3,2.0396865E3,2.0154198E3,1.8805787E3,1.728465E3,1.5567799E3,3.1587822E3,2.5493862E3,2.2042585E3,1.9490894E3],"categories":[],"categories_nodes":[],"categories_segments":[],"categories_sizes":[],"default_left":[1,1,1,1,1,1,1,0,0,0,0,0,0,0,0],"id":6,"left_children":[1,3,5,7,9,11,13,-1,-1,-1,-1,-1,-1,-1,-1],"loss_changes":[1.9846144E8,3.5871744E7,2.908252E8,6.166528E6,2.522624E6,5.5517696E7,3.436544E7,0E0,0E0,0E0,0E0,0E0,0E0,0E0,0E0],"parents":[2147483647,0,0,1,1,2,2,3,3,4,4,5,5,6,6],"right_children":[2,4,6,8,10,12,14,-1,-1,-1,-1,-1,-1,-1,-1],"split_conditions":[1.7E2,8.35E1,2.575E2,3.45E1,4.5E0,9.5E0,2.955E2,2.0154198E1,1.8805786E1,1.7284649E1,1.5567799E1,3.1587822E1,2.5493862E1,2.2042585E1,1.9490892E1],"split_indices":[4,4,4,4,3,0,4,0,0,0,0,0,0,0,0],"split_type":[0,0,0,0,0,0,0,0,0,0,0,0,0,0,0],"sum_hessian":[6.727E3,3.259E3,3.468E3,2.4E3,8.59E2,8.76E2,2.592E3,8.3E2,1.57E3,6.01E2,2.58E2,2.28E2,6.48E2,9.12E2,1.68E3],"tree_param":{"num_deleted":"0","num_feature":"11","num_nodes":"15","size_leaf_vector":"0"}},{"base_weights":[2.0217803E3,1.8442599E3,2.1880227E3,1.9087672E3,1.6620201E3,2.6843682E3,2.0193058E3,1.9952898E3,1.8617849E3,1.711209E3,1.5412722E3,3.1273323E3,2.5239316E3,2.1822402E3,1.92961E3],"categories":[],"categories_nodes":[],"categories_segments":[],"categories_sizes":[],"default_left":[1,1,1,1,1,1,1,0,0,0,0,0,0,0,0],"id":7,"left_children":[1,3,5,7,9,11,13,-1,-1,-1,-1,-1,-1,-1,-1],"loss_changes":[1.94517E8,3.515187E7,2.8508058E8,6.045696E6,2.4704E6,5.443277E7,3.368448E7,0E0,0E0,0E0,0E0,0E0,0E0,0E0,0E0],"parents":[2147483647,0,0,1,1,2,2,3,3,4,4,5,5,6,6],"right_children":[2,4,6,8,10,12,14,-1,-1,-1,-1,-1,-1,-1,-1],"split_conditions":[1.7E2,8.35E1,2.575E2,3.45E1,4.5E0,9.5E0,2.955E2,1.9952898E1,1.861785E1,1.711209E1,1.5412722E1,3.1273321E1,2.5239315E1,2.1822401E1,1.9296099E1],"split_indices":[4,4,4,4,3,0,4,0,0,0,0,0,0,0,0],"split_type":[0,0,0,0,0,0,0,0,0,0,0,0,0,0,0],"sum_hessian":[6.727E3,3.259E3,3.468E3,2.4E3,8.59E2,8.76E2,2.592E3,8.3E2,1.57E3,6.01E2,2.58E2,2.28E2,6.48E2,9.12E2,1.68E3],"tree_param":{"num_deleted":"0","num_feature":"11","num_nodes":"15","size_leaf_vector":"0"}},{"base_weights":[2.0015875E3,1.8258391E3,2.1661704E3,1.8896956E3,1.6454377E3,2.6575886E3,1.9991285E3,1.975361E3,1.843179E3,1.6941254E3,1.5259191E3,3.0961958E3,2.4987312E3,2.1604417E3,1.9103253E3],"categories":[],"categories_nodes":[],"categories_segments":[],"categories_sizes":[],"default_left":[1,1,1,1,1,1,1,0,0,0,0,0,0,0,0],"id":8,"left_children":[1,3,5,7,9,11,13,-1,-1,-1,-1,-1,-1,-1,-1],"loss_changes":[1.9065446E8,3.444531E7,2.7944858E8,5.927424E6,2.4192E6,5.336883E7,3.3017856E7,0E0,0E0,0E0,0E0,0E0,0E0,0E0,0E0],"parents":[2147483647,0,0,1,1,2,2,3,3,4,4,5,5,6,6],"right_children":[2,4,6,8,10,12,14,-1,-1,-1,-1,-1,-1,-1,-1],"split_conditions":[1.7E2,8.35E1,2.575E2,3.45E1,4.5E0,9.5E0,2.955E2,1.9753609E1,1.843179E1,1.6941254E1,1.5259191E1,3.0961958E1,2.4987312E1,2.1604416E1,1.9103252E1],"split_indices":[4,4,4,4,3,0,4,0,0,0,0,0,0,0,0],"split_type":[0,0,0,0,0,0,0,0,0,0,0,0,0,0,0],"sum_hessian":[6.727E3,3.259E3,3.468E3,2.4E3,8.59E2,8.76E2,2.592E3,8.3E2,1.57E3,6.01E2,2.58E2,2.28E2,6.48E2,9.12E2,1.68E3],"tree_param":{"num_deleted":"0","num_feature":"11","num_nodes":"15","size_leaf_vector":"0"}},{"base_weights":[1.9815966E3,1.8076023E3,2.1445366E3,1.8708146E3,1.6290209E3,2.6310767E3,1.9791528E3,1.9556311E3,1.8247589E3,1.6772122E3,1.5107188E3,3.065369E3,2.4737822E3,2.1388608E3,1.8912334E3],"categories":[],"categories_nodes":[],"categories_segments":[],"categories_sizes":[],"default_left":[1,1,1,1,1,1,1,0,0,0,0,0,0,0,0],"id":9,"left_children":[1,3,5,7,9,11,13,-1,-1,-1,-1,-1,-1,-1,-1],"loss_changes":[1.8686771E8,3.3752064E7,2.739282E8,5.810688E6,2.36928E6,5.232691E7,3.2364544E7,0E0,0E0,0E0,0E0,0E0,0E0,0E0,0E0],"parents":[2147483647,0,0,1,1,2,2,3,3,4,4,5,5,6,6],"right_children":[2,4,6,8,10,12,14,-1,-1,-1,-1,-1,-1,-1,-1],"split_conditions":[1.7E2,8.35E1,2.575E2,3.45E1,4.5E0,9.5E0,2.955E2,1.955631E1,1.824759E1,1.6772121E1,1.5107187E1,3.0653688E1,2.4737822E1,2.1388607E1,1.8912334E1],"split_indices":[4,4,4,4,3,0,4,0,0,0,0,0,0,0,0],"split_type":[0,0,0,0,0,0,0,0,0,0,0,0,0,0,0],"sum_hessian":[6.727E3,3.259E3,3.468E3,2.4E3,8.59E2,8.76E2,2.592E3,8.3E2,1.57E3,6.01E2,2.58E2,2.28E2,6.48E2,9.12E2,1.68E3],"tree_param":{"num_deleted":"0","num_feature":"11","num_nodes":"15","size_leaf_vector":"0"}},{"base_weights":[1.9618052E3,1.7895477E3,2.123119E3,1.8521222E3,1.6127677E3,2.604829E3,1.959377E3,1.889516E3,1.7512473E3,1.6604679E3,1.4956699E3,3.034849E3,2.4490828E3,2.1174958E3,1.8723324E3],"categories":[],"categories_nodes":[],"categories_segments":[],"categories_sizes":[],"default_left":[1,1,1,1,1,1,1,0,0,0,0,0,0,0,0],"id":10,"left_children":[1,3,5,7,9,11,13,-1,-1,-1,-1,-1,-1,-1,-1],"loss_changes":[1.8315469E8,3.30752E7,2.6851738E8,5.748224E6,2.320128E6,5.1303936E7,3.1724544E7,0E0,0E0,0E0,0E0,0E0,0E0,0E0,0E0],"parents":[2147483647,0,0,1,1,2,2,3,3,4,4,5,5,6,6],"right_children":[2,4,6,8,10,12,14,-1,-1,-1,-1,-1,-1,-1,-1],"split_conditions":[1.7E2,8.35E1,2.575E2,4.5E0,4.5E0,9.5E0,2.955E2,1.8895159E1,1.7512472E1,1.660468E1,1.4956698E1,3.034849E1,2.4490828E1,2.1174957E1,1.8723324E1],"split_indices":[4,4,4,3,3,0,4,0,0,0,0,0,0,0,0],"split_type":[0,0,0,0,0,0,0,0,0,0,0,0,0,0,0],"sum_hessian":[6.727E3,3.259E3,3.468E3,2.4E3,8.59E2,8.76E2,2.592E3,1.738E3,6.62E2,6.01E2,2.58E2,2.28E2,6.48E2,9.12E2,1.68E3],"tree_param":{"num_deleted":"0","num_feature":"11","num_nodes":"15","size_leaf_vector":"0"}},{"base_weights":[1.9422113E3,1.7716731E3,2.101915E3,1.8336161E3,1.5966766E3,2.5788433E3,1.9397986E3,1.9176086E3,1.78802E3,1.6438909E3,1.480771E3,3.004633E3,2.4246296E3,2.096344E3,1.8536202E3],"categories":[],"categories_nodes":[],"categories_segments":[],"categories_sizes":[],"default_left":[1,1,1,1,1,1,1,0,0,0,0,0,0,0,0],"id":11,"left_children":[1,3,5,7,9,11,13,-1,-1,-1,-1,-1,-1,-1,-1],"loss_changes":[1.7951949E8,3.2410624E7,2.6321306E8,5.766656E6,2.272E6,5.030144E7,3.1095808E7,0E0,0E0,0E0,0E0,0E0,0E0,0E0,0E0],"parents":[2147483647,0,0,1,1,2,2,3,3,4,4,5,5,6,6],"right_children":[2,4,6,8,10,12,14,-1,-1,-1,-1,-1,-1,-1,-1],"split_conditions":[1.7E2,8.35E1,2.575E2,3.45E1,4.5E0,9.5E0,2.955E2,1.9176086E1,1.78802E1,1.6438908E1,1.480771E1,3.004633E1,2.4246296E1,2.096344E1,1.8536201E1],"split_indices":[4,4,4,4,3,0,4,0,0,0,0,0,0,0,0],"split_type":[0,0,0,0,0,0,0,0,0,0,0,0,0,0,0],"sum_hessian":[6.727E3,3.259E3,3.468E3,2.4E3,8.59E2,8.76E2,2.592E3,8.3E2,1.57E3,6.01E2,2.58E2,2.28E2,6.48E2,9.12E2,1.68E3],"tree_param":{"num_deleted":"0","num_feature":"11","num_nodes":"15","size_leaf_vector":"0"}},{"base_weights":[1.9228132E3,1.7539773E3,2.0809229E3,1.8152954E3,1.5807463E3,2.5531167E3,1.9204158E3,1.8523147E3,1.7154585E3,1.6274792E3,1.4660205E3,2.974718E3,2.4004207E3,2.0754036E3,1.835095E3],"categories":[],"categories_nodes":[],"categories_segments":[],"categories_sizes":[],"default_left":[1,1,1,1,1,1,1,0,0,0,0,0,0,0,0],"id":12,"left_children":[1,3,5,7,9,11,13,-1,-1,-1,-1,-1,-1,-1,-1],"loss_changes":[1.7594982E8,3.175936E7,2.5801318E8,5.696512E6,2.225152E6,4.93184E7,3.0480384E7,0E0,0E0,0E0,0E0,0E0,0E0,0E0,0E0],"parents":[2147483647,0,0,1,1,2,2,3,3,4,4,5,5,6,6],"right_children":[2,4,6,8,10,12,14,-1,-1,-1,-1,-1,-1,-1,-1],"split_conditions":[1.7E2,8.35E1,2.575E2,4.5E0,4.5E0,9.5E0,2.955E2,1.8523146E1,1.7154585E1,1.6274792E1,1.4660205E1,2.9747179E1,2.4004206E1,2.0754036E1,1.835095E1],"split_indices":[4,4,4,3,3,0,4,0,0,0,0,0,0,0,0],"split_type":[0,0,0,0,0,0,0,0,0,0,0,0,0,0,0],"sum_hessian":[6.727E3,3.259E3,3.468E3,2.4E3,8.59E2,8.76E2,2.592E3,1.738E3,6.62E2,6.01E2,2.58E2,2.28E2,6.48E2,9.12E2,1.68E3],"tree_param":{"num_deleted":"0","num_feature":"11","num_nodes":"15","size_leaf_vector":"0"}},{"base_weights":[1.9036089E3,1.7364579E3,2.0601404E3,1.7971572E3,1.5649747E3,2.527647E3,1.9012267E3,1.8803335E3,1.7520161E3,1.6112316E3,1.4514167E3,2.9451006E3,2.3764536E3,2.054672E3,1.8167551E3],"categories":[],"categories_nodes":[],"categories_segments":[],"categories_sizes":[],"default_left":[1,1,1,1,1,1,1,0,0,0,0,0,0,0,0],"id":13,"left_children":[1,3,5,7,9,11,13,-1,-1,-1,-1,-1,-1,-1,-1],"loss_changes":[1.7245798E8,3.1120384E7,2.5291674E8,5.720576E6,2.178816E6,4.8354304E7,2.9877248E7,0E0,0E0,0E0,0E0,0E0,0E0,0E0,0E0],"parents":[2147483647,0,0,1,1,2,2,3,3,4,4,5,5,6,6],"right_children":[2,4,6,8,10,12,14,-1,-1,-1,-1,-1,-1,-1,-1],"split_conditions":[1.7E2,8.35E1,2.575E2,3.45E1,4.5E0,9.5E0,2.955E2,1.8803335E1,1.752016E1,1.6112316E1,1.4514167E1,2.9451006E1,2.3764536E1,2.054672E1,1.8167551E1],"split_indices":[4,4,4,4,3,0,4,0,0,0,0,0,0,0,0],"split_type":[0,0,0,0,0,0,0,0,0,0,0,0,0,0,0],"sum_hessian":[6.727E3,3.259E3,3.468E3,2.4E3,8.59E2,8.76E2,2.592E3,8.3E2,1.57E3,6.01E2,2.58E2,2.28E2,6.48E2,9.12E2,1.68E3],"tree_param":{"num_deleted":"0","num_feature":"11","num_nodes":"15","size_leaf_vector":"0"}},{"base_weights":[1.8845963E3,1.7191139E3,2.0395656E3,1.7792008E3,1.5493606E3,2.5024312E3,1.8822294E3,1.8158494E3,1.6803909E3,1.5951459E3,1.4369587E3,2.9157783E3,2.3527256E3,2.0373256E3,1.8002572E3],"categories":[],"categories_nodes":[],"categories_segments":[],"categories_sizes":[],"default_left":[1,1,1,1,1,1,1,0,0,0,0,0,0,0,0],"id":14,"left_children":[1,3,5,7,9,11,13,-1,-1,-1,-1,-1,-1,-1,-1],"loss_changes":[1.6903168E8,3.0495744E7,2.4792269E8,5.642752E6,2.13376E6,4.740864E7,2.9297664E7,0E0,0E0,0E0,0E0,0E0,0E0,0E0,0E0],"parents":[2147483647,0,0,1,1,2,2,3,3,4,4,5,5,6,6],"right_children":[2,4,6,8,10,12,14,-1,-1,-1,-1,-1,-1,-1,-1],"split_conditions":[1.7E2,8.35E1,2.575E2,4.5E0,4.5E0,9.5E0,2.945E2,1.8158493E1,1.6803907E1,1.5951458E1,1.4369587E1,2.9157782E1,2.3527256E1,2.0373255E1,1.8002571E1],"split_indices":[4,4,4,3,3,0,4,0,0,0,0,0,0,0,0],"split_type":[0,0,0,0,0,0,0,0,0,0,0,0,0,0,0],"sum_hessian":[6.727E3,3.259E3,3.468E3,2.4E3,8.59E2,8.76E2,2.592E3,1.738E3,6.62E2,6.01E2,2.58E2,2.28E2,6.48E2,8.88E2,1.704E3],"tree_param":{"num_deleted":"0","num_feature":"11","num_nodes":"15","size_leaf_vector":"0"}},{"base_weights":[1.8657736E3,1.7019427E3,2.0191962E3,1.7614233E3,1.5339023E3,2.477467E3,1.8634219E3,1.843791E3,1.7167327E3,1.579221E3,1.4226447E3,2.8867478E3,2.3292346E3,2.0138594E3,1.7806064E3],"categories":[],"categories_nodes":[],"categories_segments":[],"categories_sizes":[],"default_left":[1,1,1,1,1,1,1,0,0,0,0,0,0,0,0],"id":15,"left_children":[1,3,5,7,9,11,13,-1,-1,-1,-1,-1,-1,-1,-1],"loss_changes":[1.65675E8,2.9882368E7,2.4302387E8,5.67296E6,2.0896E6,4.648243E7,2.8719104E7,0E0,0E0,0E0,0E0,0E0,0E0,0E0,0E0],"parents":[2147483647,0,0,1,1,2,2,3,3,4,4,5,5,6,6],"right_children":[2,4,6,8,10,12,14,-1,-1,-1,-1,-1,-1,-1,-1],"split_conditions":[1.7E2,8.35E1,2.575E2,3.45E1,4.5E0,9.5E0,2.955E2,1.843791E1,1.7167326E1,1.5792209E1,1.4226446E1,2.8867477E1,2.3292345E1,2.0138594E1,1.7806065E1],"split_indices":[4,4,4,4,3,0,4,0,0,0,0,0,0,0,0],"split_type":[0,0,0,0,0,0,0,0,0,0,0,0,0,0,0],"sum_hessian":[6.727E3,3.259E3,3.468E3,2.4E3,8.59E2,8.76E2,2.592E3,8.3E2,1.57E3,6.01E2,2.58E2,2.28E2,6.48E2,9.12E2,1.68E3],"tree_param":{"num_deleted":"0","num_feature":"11","num_nodes":"15","size_leaf_vector":"0"}},{"base_weights":[1.847139E3,1.6849435E3,1.9990302E3,1.743824E3,1.5185981E3,2.4527517E3,1.8448022E3,1.7801055E3,1.6460302E3,1.563455E3,1.4084731E3,2.8580066E3,2.305978E3,1.9968591E3,1.7644366E3],"categories":[],"categories_nodes":[],"categories_segments":[],"categories_sizes":[],"default_left":[1,1,1,1,1,1,1,0,0,0,0,0,0,0,0],"id":16,"left_children":[1,3,5,7,9,11,13,-1,-1,-1,-1,-1,-1,-1,-1],"loss_changes":[1.6238387E8,2.9282304E7,2.3822336E8,5.588992E6,2.046336E6,4.5574144E7,2.8163072E7,0E0,0E0,0E0,0E0,0E0,0E0,0E0,0E0],"parents":[2147483647,0,0,1,1,2,2,3,3,4,4,5,5,6,6],"right_children":[2,4,6,8,10,12,14,-1,-1,-1,-1,-1,-1,-1,-1],"split_conditions":[1.7E2,8.35E1,2.575E2,4.5E0,4.5E0,9.5E0,2.945E2,1.7801054E1,1.64603E1,1.5634549E1,1.4084731E1,2.8580065E1,2.305978E1,1.9968592E1,1.7644365E1],"split_indices":[4,4,4,3,3,0,4,0,0,0,0,0,0,0,0],"split_type":[0,0,0,0,0,0,0,0,0,0,0,0,0,0,0],"sum_hessian":[6.727E3,3.259E3,3.468E3,2.4E3,8.59E2,8.76E2,2.592E3,1.738E3,6.62E2,6.01E2,2.58E2,2.28E2,6.48E2,8.88E2,1.704E3],"tree_param":{"num_deleted":"0","num_feature":"11","num_nodes":"15","size_leaf_vector":"0"}},{"base_weights":[1.8286904E3,1.6681136E3,1.9790656E3,1.7264E3,1.5034468E3,2.428283E3,1.8263688E3,1.8079668E3,1.6821553E3,1.5478464E3,1.3944427E3,2.8295513E3,2.2829539E3,1.9738572E3,1.7451771E3],"categories":[],"categories_nodes":[],"categories_segments":[],"categories_sizes":[],"default_left":[1,1,1,1,1,1,1,0,0,0,0,0,0,0,0],"id":17,"left_children":[1,3,5,7,9,11,13,-1,-1,-1,-1,-1,-1,-1,-1],"loss_changes":[1.5915827E8,2.8693504E7,2.3351706E8,5.623808E6,2.003712E6,4.4683776E7,2.7606016E7,0E0,0E0,0E0,0E0,0E0,0E0,0E0,0E0],"parents":[2147483647,0,0,1,1,2,2,3,3,4,4,5,5,6,6],"right_children":[2,4,6,8,10,12,14,-1,-1,-1,-1,-1,-1,-1,-1],"split_conditions":[1.7E2,8.35E1,2.575E2,3.45E1,4.5E0,9.5E0,2.955E2,1.8079668E1,1.6821552E1,1.5478464E1,1.39444275E1,2.8295511E1,2.2829538E1,1.9738571E1,1.745177E1],"split_indices":[4,4,4,4,3,0,4,0,0,0,0,0,0,0,0],"split_type":[0,0,0,0,0,0,0,0,0,0,0,0,0,0,0],"sum_hessian":[6.727E3,3.259E3,3.468E3,2.4E3,8.59E2,8.76E2,2.592E3,8.3E2,1.57E3,6.01E2,2.58E2,2.28E2,6.48E2,9.12E2,1.68E3],"tree_param":{"num_deleted":"0","num_feature":"11","num_nodes":"15","size_leaf_vector":"0"}},{"base_weights":[1.8104261E3,1.6514523E3,1.9593004E3,1.7091505E3,1.4884465E3,2.4040583E3,1.8081195E3,1.7450686E3,1.612362E3,1.5323937E3,1.3805521E3,2.8013792E3,2.2601594E3,1.9571968E3,1.729329E3],"categories":[],"categories_nodes":[],"categories_segments":[],"categories_sizes":[],"default_left":[1,1,1,1,1,1,1,0,0,0,0,0,0,0,0],"id":18,"left_children":[1,3,5,7,9,11,13,-1,-1,-1,-1,-1,-1,-1,-1],"loss_changes":[1.559982E8,2.8116992E7,2.2890598E8,5.533696E6,1.96224E6,4.380979E7,2.7072512E7,0E0,0E0,0E0,0E0,0E0,0E0,0E0,0E0],"parents":[2147483647,0,0,1,1,2,2,3,3,4,4,5,5,6,6],"right_children":[2,4,6,8,10,12,14,-1,-1,-1,-1,-1,-1,-1,-1],"split_conditions":[1.7E2,8.35E1,2.575E2,4.5E0,4.5E0,9.5E0,2.945E2,1.7450686E1,1.6123621E1,1.5323936E1,1.3805521E1,2.801379E1,2.2601593E1,1.9571968E1,1.729329E1],"split_indices":[4,4,4,3,3,0,4,0,0,0,0,0,0,0,0],"split_type":[0,0,0,0,0,0,0,0,0,0,0,0,0,0,0],"sum_hessian":[6.727E3,3.259E3,3.468E3,2.4E3,8.59E2,8.76E2,2.592E3,1.738E3,6.62E2,6.01E2,2.58E2,2.28E2,6.48E2,8.88E2,1.704E3],"tree_param":{"num_deleted":"0","num_feature":"11","num_nodes":"15","size_leaf_vector":"0"}},{"base_weights":[1.7923442E3,1.634957E3,1.9397325E3,1.692073E3,1.473596E3,2.3800757E3,1.7900525E3,1.7728464E3,1.6482698E3,1.5170952E3,1.3667999E3,2.7734878E3,2.2375928E3,1.9376467E3,1.7120458E3],"categories":[],"categories_nodes":[],"categories_segments":[],"categories_sizes":[],"default_left":[1,1,1,1,1,1,1,0,0,0,0,0,0,0,0],"id":19,"left_children":[1,3,5,7,9,11,13,-1,-1,-1,-1,-1,-1,-1,-1],"loss_changes":[1.5289958E8,2.755072E7,2.24384E8,5.57312E6,1.921664E6,4.2953216E7,2.6536448E7,0E0,0E0,0E0,0E0,0E0,0E0,0E0,0E0],"parents":[2147483647,0,0,1,1,2,2,3,3,4,4,5,5,6,6],"right_children":[2,4,6,8,10,12,14,-1,-1,-1,-1,-1,-1,-1,-1],"split_conditions":[1.7E2,8.35E1,2.575E2,3.45E1,4.5E0,9.5E0,2.945E2,1.7728464E1,1.6482697E1,1.5170952E1,1.3667999E1,2.7734877E1,2.2375927E1,1.9376467E1,1.7120457E1],"split_indices":[4,4,4,4,3,0,4,0,0,0,0,0,0,0,0],"split_type":[0,0,0,0,0,0,0,0,0,0,0,0,0,0,0],"sum_hessian":[6.727E3,3.259E3,3.468E3,2.4E3,8.59E2,8.76E2,2.592E3,8.3E2,1.57E3,6.01E2,2.58E2,2.28E2,6.48E2,8.88E2,1.704E3],"tree_param":{"num_deleted":"0","num_feature":"11","num_nodes":"15","size_leaf_vector":"0"}},{"base_weights":[1.7744431E3,1.6186267E3,1.9203602E3,1.6751665E3,1.4588934E3,2.356332E3,1.772166E3,1.710725E3,1.5793727E3,1.5019493E3,1.3531848E3,2.745874E3,2.2152512E3,1.9153536E3,1.6933424E3],"categories":[],"categories_nodes":[],"categories_segments":[],"categories_sizes":[],"default_left":[1,1,1,1,1,1,1,0,0,0,0,0,0,0,0],"id":20,"left_children":[1,3,5,7,9,11,13,-1,-1,-1,-1,-1,-1,-1,-1],"loss_changes":[1.498624E8,2.6998784E7,2.1995213E8,5.476352E6,1.881728E6,4.211456E7,2.60224E7,0E0,0E0,0E0,0E0,0E0,0E0,0E0,0E0],"parents":[2147483647,0,0,1,1,2,2,3,3,4,4,5,5,6,6],"right_children":[2,4,6,8,10,12,14,-1,-1,-1,-1,-1,-1,-1,-1],"split_conditions":[1.7E2,8.35E1,2.575E2,4.5E0,4.5E0,9.5E0,2.955E2,1.710725E1,1.5793727E1,1.5019493E1,1.3531848E1,2.745874E1,2.2152512E1,1.9153536E1,1.6933424E1],"split_indices":[4,4,4,3,3,0,4,0,0,0,0,0,0,0,0],"split_type":[0,0,0,0,0,0,0,0,0,0,0,0,0,0,0],"sum_hessian":[6.727E3,3.259E3,3.468E3,2.4E3,8.59E2,8.76E2,2.592E3,1.738E3,6.62E2,6.01E2,2.58E2,2.28E2,6.48E2,9.12E2,1.68E3],"tree_param":{"num_deleted":"0","num_feature":"11","num_nodes":"15","size_leaf_vector":"0"}},{"base_weights":[1.7567205E3,1.6024594E3,1.9011814E3,1.6584285E3,1.4443378E3,2.3328254E3,1.7544583E3,1.7384163E3,1.6150624E3,1.486955E3,1.3397051E3,2.7185352E3,2.1931328E3,1.89916E3,1.6779806E3],"categories":[],"categories_nodes":[],"categories_segments":[],"categories_sizes":[],"default_left":[1,1,1,1,1,1,1,0,0,0,0,0,0,0,0],"id":21,"left_children":[1,3,5,7,9,11,13,-1,-1,-1,-1,-1,-1,-1,-1],"loss_changes":[1.468846E8,2.6456064E7,2.1560627E8,5.521408E6,1.842944E6,4.129075E7,2.5508864E7,0E0,0E0,0E0,0E0,0E0,0E0,0E0,0E0],"parents":[2147483647,0,0,1,1,2,2,3,3,4,4,5,5,6,6],"right_children":[2,4,6,8,10,12,14,-1,-1,-1,-1,-1,-1,-1,-1],"split_conditions":[1.7E2,8.35E1,2.575E2,3.45E1,4.5E0,9.5E0,2.945E2,1.7384163E1,1.6150623E1,1.4869549E1,1.3397051E1,2.718535E1,2.1931328E1,1.89916E1,1.6779806E1],"split_indices":[4,4,4,4,3,0,4,0,0,0,0,0,0,0,0],"split_type":[0,0,0,0,0,0,0,0,0,0,0,0,0,0,0],"sum_hessian":[6.727E3,3.259E3,3.468E3,2.4E3,8.59E2,8.76E2,2.592E3,8.3E2,1.57E3,6.01E2,2.58E2,2.28E2,6.48E2,8.88E2,1.704E3],"tree_param":{"num_deleted":"0","num_feature":"11","num_nodes":"15","size_leaf_vector":"0"}},{"base_weights":[1.739175E3,1.5864537E3,1.882194E3,1.6418583E3,1.4299272E3,2.309553E3,1.7369275E3,1.6770605E3,1.5470486E3,1.4721101E3,1.3263597E3,2.6914683E3,2.1712354E3,1.8773085E3,1.6596493E3],"categories":[],"categories_nodes":[],"categories_segments":[],"categories_sizes":[],"default_left":[1,1,1,1,1,1,1,0,0,0,0,0,0,0,0],"id":22,"left_children":[1,3,5,7,9,11,13,-1,-1,-1,-1,-1,-1,-1,-1],"loss_changes":[1.439662E8,2.5923072E7,2.1134746E8,5.41952E6,1.804672E6,4.0484864E7,2.5014272E7,0E0,0E0,0E0,0E0,0E0,0E0,0E0,0E0],"parents":[2147483647,0,0,1,1,2,2,3,3,4,4,5,5,6,6],"right_children":[2,4,6,8,10,12,14,-1,-1,-1,-1,-1,-1,-1,-1],"split_conditions":[1.7E2,8.35E1,2.575E2,4.5E0,4.5E0,9.5E0,2.955E2,1.6770605E1,1.5470486E1,1.4721101E1,1.32635975E1,2.6914682E1,2.1712353E1,1.8773085E1,1.6596493E1],"split_indices":[4,4,4,3,3,0,4,0,0,0,0,0,0,0,0],"split_type":[0,0,0,0,0,0,0,0,0,0,0,0,0,0,0],"sum_hessian":[6.727E3,3.259E3,3.468E3,2.4E3,8.59E2,8.76E2,2.592E3,1.738E3,6.62E2,6.01E2,2.58E2,2.28E2,6.48E2,9.12E2,1.68E3],"tree_param":{"num_deleted":"0","num_feature":"11","num_nodes":"15","size_leaf_vector":"0"}},{"base_weights":[1.7218048E3,1.5706077E3,1.8633962E3,1.6254531E3,1.4156605E3,2.286513E3,1.7195718E3,1.7046625E3,1.5825197E3,1.4574133E3,1.3131473E3,2.6646714E3,2.1495566E3,1.8614379E3,1.6445933E3],"categories":[],"categories_nodes":[],"categories_segments":[],"categories_sizes":[],"default_left":[1,1,1,1,1,1,1,0,0,0,0,0,0,0,0],"id":23,"left_children":[1,3,5,7,9,11,13,-1,-1,-1,-1,-1,-1,-1,-1],"loss_changes":[1.411072E8,2.540288E7,2.071726E8,5.467648E6,1.76704E6,3.969331E7,2.4520704E7,0E0,0E0,0E0,0E0,0E0,0E0,0E0,0E0],"parents":[2147483647,0,0,1,1,2,2,3,3,4,4,5,5,6,6],"right_children":[2,4,6,8,10,12,14,-1,-1,-1,-1,-1,-1,-1,-1],"split_conditions":[1.7E2,8.35E1,2.575E2,3.45E1,4.5E0,9.5E0,2.945E2,1.7046625E1,1.5825196E1,1.4574133E1,1.3131474E1,2.6646713E1,2.1495565E1,1.8614378E1,1.6445932E1],"split_indices":[4,4,4,4,3,0,4,0,0,0,0,0,0,0,0],"split_type":[0,0,0,0,0,0,0,0,0,0,0,0,0,0,0],"sum_hessian":[6.727E3,3.259E3,3.468E3,2.4E3,8.59E2,8.76E2,2.592E3,8.3E2,1.57E3,6.01E2,2.58E2,2.28E2,6.48E2,8.88E2,1.704E3],"tree_param":{"num_deleted":"0","num_feature":"11","num_nodes":"15","size_leaf_vector":"0"}},{"base_weights":[1.7046082E3,1.5549202E3,1.8447864E3,1.6092123E3,1.4015361E3,2.263703E3,1.7023898E3,1.6440621E3,1.5153763E3,1.4428635E3,1.3000667E3,2.6381409E3,2.128094E3,1.8400189E3,1.6266266E3],"categories":[],"categories_nodes":[],"categories_segments":[],"categories_sizes":[],"default_left":[1,1,1,1,1,1,1,0,0,0,0,0,0,0,0],"id":24,"left_children":[1,3,5,7,9,11,13,-1,-1,-1,-1,-1,-1,-1,-1],"loss_changes":[1.3830554E8,2.4891904E7,2.030807E8,5.360128E6,1.73056E6,3.891712E7,2.4044544E7,0E0,0E0,0E0,0E0,0E0,0E0,0E0,0E0],"parents":[2147483647,0,0,1,1,2,2,3,3,4,4,5,5,6,6],"right_children":[2,4,6,8,10,12,14,-1,-1,-1,-1,-1,-1,-1,-1],"split_conditions":[1.7E2,8.35E1,2.575E2,4.5E0,4.5E0,9.5E0,2.955E2,1.644062E1,1.5153763E1,1.4428635E1,1.3000667E1,2.6381409E1,2.128094E1,1.8400188E1,1.6266266E1],"split_indices":[4,4,4,3,3,0,4,0,0,0,0,0,0,0,0],"split_type":[0,0,0,0,0,0,0,0,0,0,0,0,0,0,0],"sum_hessian":[6.727E3,3.259E3,3.468E3,2.4E3,8.59E2,8.76E2,2.592E3,1.738E3,6.62E2,6.01E2,2.58E2,2.28E2,6.48E2,9.12E2,1.68E3],"tree_param":{"num_deleted":"0","num_feature":"11","num_nodes":"15","size_leaf_vector":"0"}},{"base_weights":[1.687583E3,1.539389E3,1.8263622E3,1.5931333E3,1.3875527E3,2.24112E3,1.6853792E3,1.6715718E3,1.5506282E3,1.4284589E3,1.2871161E3,2.6118748E3,2.106846E3,1.8244648E3,1.6118702E3],"categories":[],"categories_nodes":[],"categories_segments":[],"categories_sizes":[],"default_left":[1,1,1,1,1,1,1,0,0,0,0,0,0,0,0],"id":25,"left_children":[1,3,5,7,9,11,13,-1,-1,-1,-1,-1,-1,-1,-1],"loss_changes":[1.3555712E8,2.4392192E7,1.9906765E8,5.412864E6,1.694848E6,3.81568E7,2.356992E7,0E0,0E0,0E0,0E0,0E0,0E0,0E0,0E0],"parents":[2147483647,0,0,1,1,2,2,3,3,4,4,5,5,6,6],"right_children":[2,4,6,8,10,12,14,-1,-1,-1,-1,-1,-1,-1,-1],"split_conditions":[1.7E2,8.35E1,2.575E2,3.45E1,4.5E0,9.5E0,2.945E2,1.6715717E1,1.5506282E1,1.4284588E1,1.28711605E1,2.6118748E1,2.1068459E1,1.8244648E1,1.6118702E1],"split_indices":[4,4,4,4,3,0,4,0,0,0,0,0,0,0,0],"split_type":[0,0,0,0,0,0,0,0,0,0,0,0,0,0,0],"sum_hessian":[6.727E3,3.259E3,3.468E3,2.4E3,8.59E2,8.76E2,2.592E3,8.3E2,1.57E3,6.01E2,2.58E2,2.28E2,6.48E2,8.88E2,1.704E3],"tree_param":{"num_deleted":"0","num_feature":"11","num_nodes":"15","size_leaf_vector":"0"}},{"base_weights":[1.6707281E3,1.5240134E3,1.8081221E3,1.5772153E3,1.3737087E3,2.2187627E3,1.6685386E3,1.6548761E3,1.5351318E3,1.3497062E3,1.559407E3,2.5858699E3,2.0858098E3,1.8034701E3,1.5942607E3],"categories":[],"categories_nodes":[],"categories_segments":[],"categories_sizes":[],"default_left":[1,1,1,1,1,1,1,0,0,0,0,0,0,0,0],"id":26,"left_children":[1,3,5,7,9,11,13,-1,-1,-1,-1,-1,-1,-1,-1],"loss_changes":[1.32864E8,2.3902208E7,1.9513651E8,5.30688E6,1.728384E6,3.7410816E7,2.3112704E7,0E0,0E0,0E0,0E0,0E0,0E0,0E0,0E0],"parents":[2147483647,0,0,1,1,2,2,3,3,4,4,5,5,6,6],"right_children":[2,4,6,8,10,12,14,-1,-1,-1,-1,-1,-1,-1,-1],"split_conditions":[1.7E2,8.35E1,2.575E2,3.45E1,2.85E1,9.5E0,2.955E2,1.6548761E1,1.5351318E1,1.3497062E1,1.55940695E1,2.5858698E1,2.0858097E1,1.80347E1,1.5942607E1],"split_indices":[4,4,4,4,0,0,4,0,0,0,0,0,0,0,0],"split_type":[0,0,0,0,0,0,0,0,0,0,0,0,0,0,0],"sum_hessian":[6.727E3,3.259E3,3.468E3,2.4E3,8.59E2,8.76E2,2.592E3,8.3E2,1.57E3,7.68E2,9.1E1,2.28E2,6.48E2,9.12E2,1.68E3],"tree_param":{"num_deleted":"0","num_feature":"11","num_nodes":"15","size_leaf_vector":"0"}},{"base_weights":[1.654042E3,1.508792E3,1.7900641E3,1.5614565E3,1.3600055E3,2.1966284E3,1.6518663E3,1.5959607E3,1.4685995E3,1.3362267E3,1.5439825E3,2.5601243E3,2.064984E3,1.7882264E3,1.5797983E3],"categories":[],"categories_nodes":[],"categories_segments":[],"categories_sizes":[],"default_left":[1,1,1,1,1,1,1,0,0,0,0,0,0,0,0],"id":27,"left_children":[1,3,5,7,9,11,13,-1,-1,-1,-1,-1,-1,-1,-1],"loss_changes":[1.3022822E8,2.342144E7,1.9128013E8,5.348352E6,1.699072E6,3.667968E7,2.2657024E7,0E0,0E0,0E0,0E0,0E0,0E0,0E0,0E0],"parents":[2147483647,0,0,1,1,2,2,3,3,4,4,5,5,6,6],"right_children":[2,4,6,8,10,12,14,-1,-1,-1,-1,-1,-1,-1,-1],"split_conditions":[1.7E2,8.35E1,2.575E2,4.5E0,2.85E1,9.5E0,2.945E2,1.5959606E1,1.4685994E1,1.3362267E1,1.5439825E1,2.5601242E1,2.0649837E1,1.7882263E1,1.5797983E1],"split_indices":[4,4,4,3,0,0,4,0,0,0,0,0,0,0,0],"split_type":[0,0,0,0,0,0,0,0,0,0,0,0,0,0,0],"sum_hessian":[6.727E3,3.259E3,3.468E3,2.4E3,8.59E2,8.76E2,2.592E3,1.738E3,6.62E2,7.68E2,9.1E1,2.28E2,6.48E2,8.88E2,1.704E3],"tree_param":{"num_deleted":"0","num_feature":"11","num_nodes":"15","size_leaf_vector":"0"}},{"base_weights":[1.6375222E3,1.4937223E3,1.7721865E3,1.5458547E3,1.3464388E3,2.1747148E3,1.6353606E3,1.6227593E3,1.504191E3,1.386877E3,1.2472489E3,2.5346348E3,2.0443658E3,1.7676472E3,1.5625391E3],"categories":[],"categories_nodes":[],"categories_segments":[],"categories_sizes":[],"default_left":[1,1,1,1,1,1,1,0,0,0,0,0,0,0,0],"id":28,"left_children":[1,3,5,7,9,11,13,-1,-1,-1,-1,-1,-1,-1,-1],"loss_changes":[1.2763955E8,2.2949376E7,1.8750362E8,5.252096E6,1.71968E6,3.5963136E7,2.2217216E7,0E0,0E0,0E0,0E0,0E0,0E0,0E0,0E0],"parents":[2147483647,0,0,1,1,2,2,3,3,4,4,5,5,6,6],"right_children":[2,4,6,8,10,12,14,-1,-1,-1,-1,-1,-1,-1,-1],"split_conditions":[1.7E2,8.35E1,2.575E2,3.45E1,4.5E0,9.5E0,2.955E2,1.6227592E1,1.504191E1,1.386877E1,1.2472488E1,2.5346348E1,2.0443659E1,1.7676472E1,1.562539E1],"split_indices":[4,4,4,4,3,0,4,0,0,0,0,0,0,0,0],"split_type":[0,0,0,0,0,0,0,0,0,0,0,0,0,0,0],"sum_hessian":[6.727E3,3.259E3,3.468E3,2.4E3,8.59E2,8.76E2,2.592E3,8.3E2,1.57E3,6.01E2,2.58E2,2.28E2,6.48E2,9.12E2,1.68E3],"tree_param":{"num_deleted":"0","num_feature":"11","num_nodes":"15","size_leaf_vector":"0"}},{"base_weights":[1.6211674E3,1.4788027E3,1.7544874E3,1.5304092E3,1.3330051E3,2.1530198E3,1.6190199E3,1.5645679E3,1.438505E3,1.3094668E3,1.5152657E3,2.5093992E3,2.0239537E3,1.7527078E3,1.5483645E3],"categories":[],"categories_nodes":[],"categories_segments":[],"categories_sizes":[],"default_left":[1,1,1,1,1,1,1,0,0,0,0,0,0,0,0],"id":29,"left_children":[1,3,5,7,9,11,13,-1,-1,-1,-1,-1,-1,-1,-1],"loss_changes":[1.2510208E8,2.2488576E7,1.837998E8,5.286912E6,1.705344E6,3.5259904E7,2.1779456E7,0E0,0E0,0E0,0E0,0E0,0E0,0E0,0E0],"parents":[2147483647,0,0,1,1,2,2,3,3,4,4,5,5,6,6],"right_children":[2,4,6,8,10,12,14,-1,-1,-1,-1,-1,-1,-1,-1],"split_conditions":[1.7E2,8.35E1,2.575E2,4.5E0,2.85E1,9.5E0,2.945E2,1.56456785E1,1.438505E1,1.3094667E1,1.51526575E1,2.509399E1,2.0239536E1,1.7527077E1,1.54836445E1],"split_indices":[4,4,4,3,0,0,4,0,0,0,0,0,0,0,0],"split_type":[0,0,0,0,0,0,0,0,0,0,0,0,0,0,0],"sum_hessian":[6.727E3,3.259E3,3.468E3,2.4E3,8.59E2,8.76E2,2.592E3,1.738E3,6.62E2,7.68E2,9.1E1,2.28E2,6.48E2,8.88E2,1.704E3],"tree_param":{"num_deleted":"0","num_feature":"11","num_nodes":"15","size_leaf_vector":"0"}},{"base_weights":[1.604976E3,1.4640326E3,1.7369652E3,1.5151176E3,1.3197079E3,2.1315413E3,1.6028424E3,1.5912733E3,1.4738696E3,1.3597089E3,1.2216375E3,2.4844146E3,2.0037454E3,1.732536E3,1.5314486E3],"categories":[],"categories_nodes":[],"categories_segments":[],"categories_sizes":[],"default_left":[1,1,1,1,1,1,1,0,0,0,0,0,0,0,0],"id":30,"left_children":[1,3,5,7,9,11,13,-1,-1,-1,-1,-1,-1,-1,-1],"loss_changes":[1.2261786E8,2.2035968E7,1.801687E8,5.1968E6,1.71264E6,3.457075E7,2.135552E7,0E0,0E0,0E0,0E0,0E0,0E0,0E0,0E0],"parents":[2147483647,0,0,1,1,2,2,3,3,4,4,5,5,6,6],"right_children":[2,4,6,8,10,12,14,-1,-1,-1,-1,-1,-1,-1,-1],"split_conditions":[1.7E2,8.35E1,2.575E2,3.45E1,4.5E0,9.5E0,2.955E2,1.5912733E1,1.4738696E1,1.3597088E1,1.2216374E1,2.4844145E1,2.0037453E1,1.732536E1,1.5314486E1],"split_indices":[4,4,4,4,3,0,4,0,0,0,0,0,0,0,0],"split_type":[0,0,0,0,0,0,0,0,0,0,0,0,0,0,0],"sum_hessian":[6.727E3,3.259E3,3.468E3,2.4E3,8.59E2,8.76E2,2.592E3,8.3E2,1.57E3,6.01E2,2.58E2,2.28E2,6.48E2,9.12E2,1.68E3],"tree_param":{"num_deleted":"0","num_feature":"11","num_nodes":"15","size_leaf_vector":"0"}},{"base_weights":[1.5889462E3,1.4494095E3,1.7196179E3,1.4999792E3,1.3065409E3,2.110277E3,1.5868267E3,1.5337959E3,1.409018E3,1.2832407E3,1.4870985E3,2.4596792E3,1.9837388E3,1.7178944E3,1.5175562E3],"categories":[],"categories_nodes":[],"categories_segments":[],"categories_sizes":[],"default_left":[1,1,1,1,1,1,1,0,0,0,0,0,0,0,0],"id":31,"left_children":[1,3,5,7,9,11,13,-1,-1,-1,-1,-1,-1,-1,-1],"loss_changes":[1.2018074E8,2.15936E7,1.766103E8,5.223936E6,1.709568E6,3.3895424E7,2.0934656E7,0E0,0E0,0E0,0E0,0E0,0E0,0E0,0E0],"parents":[2147483647,0,0,1,1,2,2,3,3,4,4,5,5,6,6],"right_children":[2,4,6,8,10,12,14,-1,-1,-1,-1,-1,-1,-1,-1],"split_conditions":[1.7E2,8.35E1,2.575E2,4.5E0,2.85E1,9.5E0,2.945E2,1.5337958E1,1.4090179E1,1.2832407E1,1.4870985E1,2.4596792E1,1.9837387E1,1.7178944E1,1.5175561E1],"split_indices":[4,4,4,3,0,0,4,0,0,0,0,0,0,0,0],"split_type":[0,0,0,0,0,0,0,0,0,0,0,0,0,0,0],"sum_hessian":[6.727E3,3.259E3,3.468E3,2.4E3,8.59E2,8.76E2,2.592E3,1.738E3,6.62E2,7.68E2,9.1E1,2.28E2,6.48E2,8.88E2,1.704E3],"tree_param":{"num_deleted":"0","num_feature":"11","num_nodes":"15","size_leaf_vector":"0"}},{"base_weights":[1.5730765E3,1.434933E3,1.7024438E3,1.4859557E3,1.2961143E3,2.0892249E3,1.5709708E3,1.5202714E3,1.394949E3,1.3352399E3,1.1965437E3,2.4351897E3,1.9639319E3,1.6981222E3,1.5009767E3],"categories":[],"categories_nodes":[],"categories_segments":[],"categories_sizes":[],"default_left":[1,1,1,1,1,1,1,0,0,0,0,0,0,0,0],"id":32,"left_children":[1,3,5,7,9,11,13,-1,-1,-1,-1,-1,-1,-1,-1],"loss_changes":[1.1779482E8,2.1164032E7,1.7312051E8,5.302784E6,1.846272E6,3.3232896E7,2.052864E7,0E0,0E0,0E0,0E0,0E0,0E0,0E0,0E0],"parents":[2147483647,0,0,1,1,2,2,3,3,4,4,5,5,6,6],"right_children":[2,4,6,8,10,12,14,-1,-1,-1,-1,-1,-1,-1,-1],"split_conditions":[1.7E2,8.25E1,2.575E2,4.5E0,4.5E0,9.5E0,2.955E2,1.5202713E1,1.394949E1,1.3352398E1,1.1965437E1,2.4351896E1,1.9639318E1,1.6981222E1,1.5009767E1],"split_indices":[4,4,4,3,3,0,4,0,0,0,0,0,0,0,0],"split_type":[0,0,0,0,0,0,0,0,0,0,0,0,0,0,0],"sum_hessian":[6.727E3,3.259E3,3.468E3,2.376E3,8.83E2,8.76E2,2.592E3,1.714E3,6.62E2,6.25E2,2.58E2,2.28E2,6.48E2,9.12E2,1.68E3],"tree_param":{"num_deleted":"0","num_feature":"11","num_nodes":"15","size_leaf_vector":"0"}},{"base_weights":[1.5573652E3,1.4206003E3,1.6854413E3,1.4778221E3,1.2990952E3,2.0683828E3,1.5552734E3,1.545568E3,1.435926E3,1.3438182E3,1.1861882E3,2.410944E3,1.9443228E3,1.6837727E3,1.4873608E3],"categories":[],"categories_nodes":[],"categories_segments":[],"categories_sizes":[],"default_left":[1,1,1,1,1,1,1,0,0,0,0,0,0,0,0],"id":33,"left_children":[1,3,5,7,9,11,13,-1,-1,-1,-1,-1,-1,-1,-1],"loss_changes":[1.15456E8,2.0745728E7,1.6970138E8,4.050432E6,3.718144E6,3.2582912E7,2.012416E7,0E0,0E0,0E0,0E0,0E0,0E0,0E0,0E0],"parents":[2147483647,0,0,1,1,2,2,3,3,4,4,5,5,6,6],"right_children":[2,4,6,8,10,12,14,-1,-1,-1,-1,-1,-1,-1,-1],"split_conditions":[1.7E2,7.55E1,2.575E2,3.45E1,4.5E0,9.5E0,2.945E2,1.545568E1,1.435926E1,1.3438182E1,1.1861882E1,2.410944E1,1.9443228E1,1.6837727E1,1.4873608E1],"split_indices":[4,4,4,4,3,0,4,0,0,0,0,0,0,0,0],"split_type":[0,0,0,0,0,0,0,0,0,0,0,0,0,0,0],"sum_hessian":[6.727E3,3.259E3,3.468E3,2.208E3,1.051E3,8.76E2,2.592E3,8.3E2,1.378E3,7.45E2,3.06E2,2.28E2,6.48E2,8.88E2,1.704E3],"tree_param":{"num_deleted":"0","num_feature":"11","num_nodes":"15","size_leaf_vector":"0"}},{"base_weights":[1.5418109E3,1.4064113E3,1.6686085E3,1.4555322E3,1.2676372E3,2.0477487E3,1.5397329E3,1.530131E3,1.4151458E3,1.2445941E3,1.4464696E3,2.38694E3,1.9249097E3,1.6643918E3,1.4711111E3],"categories":[],"categories_nodes":[],"categories_segments":[],"categories_sizes":[],"default_left":[1,1,1,1,1,1,1,0,0,0,0,0,0,0,0],"id":34,"left_children":[1,3,5,7,9,11,13,-1,-1,-1,-1,-1,-1,-1,-1],"loss_changes":[1.1316224E8,2.03776E7,1.663488E8,5.068288E6,1.743616E6,3.1946496E7,1.973248E7,0E0,0E0,0E0,0E0,0E0,0E0,0E0,0E0],"parents":[2147483647,0,0,1,1,2,2,3,3,4,4,5,5,6,6],"right_children":[2,4,6,8,10,12,14,-1,-1,-1,-1,-1,-1,-1,-1],"split_conditions":[1.7E2,8.35E1,2.575E2,3.45E1,2.85E1,9.5E0,2.955E2,1.530131E1,1.4151457E1,1.2445941E1,1.4464696E1,2.3869398E1,1.9249096E1,1.6643919E1,1.471111E1],"split_indices":[4,4,4,4,0,0,4,0,0,0,0,0,0,0,0],"split_type":[0,0,0,0,0,0,0,0,0,0,0,0,0,0,0],"sum_hessian":[6.727E3,3.259E3,3.468E3,2.4E3,8.59E2,8.76E2,2.592E3,8.3E2,1.57E3,7.68E2,9.1E1,2.28E2,6.48E2,9.12E2,1.68E3],"tree_param":{"num_deleted":"0","num_feature":"11","num_nodes":"15","size_leaf_vector":"0"}},{"base_weights":[1.5264122E3,1.3923645E3,1.651944E3,1.4419222E3,1.2575328E3,2.0273203E3,1.5243478E3,1.475862E3,1.3519543E3,1.2957651E3,1.1602703E3,2.3631748E3,1.9056902E3,1.6503287E3,1.4577662E3],"categories":[],"categories_nodes":[],"categories_segments":[],"categories_sizes":[],"default_left":[1,1,1,1,1,1,1,0,0,0,0,0,0,0,0],"id":35,"left_children":[1,3,5,7,9,11,13,-1,-1,-1,-1,-1,-1,-1,-1],"loss_changes":[1.1091456E8,1.9970048E7,1.6306176E8,5.262848E6,1.783808E6,3.1322112E7,1.9344896E7,0E0,0E0,0E0,0E0,0E0,0E0,0E0,0E0],"parents":[2147483647,0,0,1,1,2,2,3,3,4,4,5,5,6,6],"right_children":[2,4,6,8,10,12,14,-1,-1,-1,-1,-1,-1,-1,-1],"split_conditions":[1.7E2,8.25E1,2.575E2,4.5E0,4.5E0,9.5E0,2.945E2,1.475862E1,1.3519543E1,1.2957651E1,1.1602702E1,2.3631748E1,1.9056902E1,1.6503286E1,1.4577662E1],"split_indices":[4,4,4,3,3,0,4,0,0,0,0,0,0,0,0],"split_type":[0,0,0,0,0,0,0,0,0,0,0,0,0,0,0],"sum_hessian":[6.727E3,3.259E3,3.468E3,2.376E3,8.83E2,8.76E2,2.592E3,1.714E3,6.62E2,6.25E2,2.58E2,2.28E2,6.48E2,8.88E2,1.704E3],"tree_param":{"num_deleted":"0","num_feature":"11","num_nodes":"15","size_leaf_vector":"0"}},{"base_weights":[1.511167E3,1.378457E3,1.6354458E3,1.4340728E3,1.2603643E3,2.0070958E3,1.5091162E3,1.5004501E3,1.3930332E3,1.304212E3,1.14971E3,2.3396462E3,1.8866626E3,1.6313317E3,1.4418398E3],"categories":[],"categories_nodes":[],"categories_segments":[],"categories_sizes":[],"default_left":[1,1,1,1,1,1,1,0,0,0,0,0,0,0,0],"id":36,"left_children":[1,3,5,7,9,11,13,-1,-1,-1,-1,-1,-1,-1,-1],"loss_changes":[1.0870989E8,1.9603968E7,1.5984128E8,3.92704E6,3.604736E6,3.070976E7,1.8968064E7,0E0,0E0,0E0,0E0,0E0,0E0,0E0,0E0],"parents":[2147483647,0,0,1,1,2,2,3,3,4,4,5,5,6,6],"right_children":[2,4,6,8,10,12,14,-1,-1,-1,-1,-1,-1,-1,-1],"split_conditions":[1.7E2,7.55E1,2.575E2,3.45E1,4.5E0,9.5E0,2.955E2,1.50045E1,1.3930332E1,1.304212E1,1.1497099E1,2.3396461E1,1.8866625E1,1.6313316E1,1.4418398E1],"split_indices":[4,4,4,4,3,0,4,0,0,0,0,0,0,0,0],"split_type":[0,0,0,0,0,0,0,0,0,0,0,0,0,0,0],"sum_hessian":[6.727E3,3.259E3,3.468E3,2.208E3,1.051E3,8.76E2,2.592E3,8.3E2,1.378E3,7.45E2,3.06E2,2.28E2,6.48E2,9.12E2,1.68E3],"tree_param":{"num_deleted":"0","num_feature":"11","num_nodes":"15","size_leaf_vector":"0"}},{"base_weights":[1.4960741E3,1.3646888E3,1.6191123E3,1.4124023E3,1.2298926E3,1.9870731E3,1.4940369E3,1.4451606E3,1.3243495E3,1.2071034E3,1.4070125E3,2.316352E3,1.8678251E3,1.617549E3,1.4287605E3],"categories":[],"categories_nodes":[],"categories_segments":[],"categories_sizes":[],"default_left":[1,1,1,1,1,1,1,0,0,0,0,0,0,0,0],"id":37,"left_children":[1,3,5,7,9,11,13,-1,-1,-1,-1,-1,-1,-1,-1],"loss_changes":[1.0655027E8,1.9229696E7,1.5668531E8,5.011456E6,1.773056E6,3.0109696E7,1.8594816E7,0E0,0E0,0E0,0E0,0E0,0E0,0E0,0E0],"parents":[2147483647,0,0,1,1,2,2,3,3,4,4,5,5,6,6],"right_children":[2,4,6,8,10,12,14,-1,-1,-1,-1,-1,-1,-1,-1],"split_conditions":[1.7E2,8.35E1,2.575E2,4.5E0,2.85E1,9.5E0,2.945E2,1.4451606E1,1.3243495E1,1.20710335E1,1.4070125E1,2.316352E1,1.8678251E1,1.617549E1,1.4287604E1],"split_indices":[4,4,4,3,0,0,4,0,0,0,0,0,0,0,0],"split_type":[0,0,0,0,0,0,0,0,0,0,0,0,0,0,0],"sum_hessian":[6.727E3,3.259E3,3.468E3,2.4E3,8.59E2,8.76E2,2.592E3,1.738E3,6.62E2,7.68E2,9.1E1,2.28E2,6.48E2,8.88E2,1.704E3],"tree_param":{"num_deleted":"0","num_feature":"11","num_nodes":"15","size_leaf_vector":"0"}},{"base_weights":[1.4811321E3,1.3510585E3,1.6029421E3,1.4056359E3,1.235172E3,1.9672501E3,1.4791083E3,1.4713638E3,1.3650083E3,1.2784774E3,1.1259181E3,2.2932896E3,1.8491757E3,1.5989281E3,1.4131509E3],"categories":[],"categories_nodes":[],"categories_segments":[],"categories_sizes":[],"default_left":[1,1,1,1,1,1,1,0,0,0,0,0,0,0,0],"id":38,"left_children":[1,3,5,7,9,11,13,-1,-1,-1,-1,-1,-1,-1,-1],"loss_changes":[1.0443366E8,1.8882048E7,1.5358976E8,3.890688E6,3.53792E6,2.9521152E7,1.8232832E7,0E0,0E0,0E0,0E0,0E0,0E0,0E0,0E0],"parents":[2147483647,0,0,1,1,2,2,3,3,4,4,5,5,6,6],"right_children":[2,4,6,8,10,12,14,-1,-1,-1,-1,-1,-1,-1,-1],"split_conditions":[1.7E2,7.55E1,2.575E2,3.45E1,4.5E0,9.5E0,2.955E2,1.4713637E1,1.3650083E1,1.2784774E1,1.1259181E1,2.2932896E1,1.8491756E1,1.5989281E1,1.4131509E1],"split_indices":[4,4,4,4,3,0,4,0,0,0,0,0,0,0,0],"split_type":[0,0,0,0,0,0,0,0,0,0,0,0,0,0,0],"sum_hessian":[6.727E3,3.259E3,3.468E3,2.208E3,1.051E3,8.76E2,2.592E3,8.3E2,1.378E3,7.45E2,3.06E2,2.28E2,6.48E2,9.12E2,1.68E3],"tree_param":{"num_deleted":"0","num_feature":"11","num_nodes":"15","size_leaf_vector":"0"}},{"base_weights":[1.4663392E3,1.337564E3,1.5869332E3,1.3852765E3,1.207756E3,1.9476248E3,1.4643289E3,1.4184792E3,1.2973005E3,1.2446665E3,1.1138805E3,2.270457E3,1.8307123E3,1.5854205E3,1.4003318E3],"categories":[],"categories_nodes":[],"categories_segments":[],"categories_sizes":[],"default_left":[1,1,1,1,1,1,1,0,0,0,0,0,0,0,0],"id":39,"left_children":[1,3,5,7,9,11,13,-1,-1,-1,-1,-1,-1,-1,-1],"loss_changes":[1.0236006E8,1.8517504E7,1.5055565E8,5.103616E6,1.676544E6,2.8944128E7,1.7874432E7,0E0,0E0,0E0,0E0,0E0,0E0,0E0,0E0],"parents":[2147483647,0,0,1,1,2,2,3,3,4,4,5,5,6,6],"right_children":[2,4,6,8,10,12,14,-1,-1,-1,-1,-1,-1,-1,-1],"split_conditions":[1.7E2,8.25E1,2.575E2,4.5E0,4.5E0,9.5E0,2.945E2,1.41847925E1,1.2973005E1,1.2446665E1,1.1138804E1,2.2704569E1,1.8307123E1,1.5854205E1,1.4003318E1],"split_indices":[4,4,4,3,3,0,4,0,0,0,0,0,0,0,0],"split_type":[0,0,0,0,0,0,0,0,0,0,0,0,0,0,0],"sum_hessian":[6.727E3,3.259E3,3.468E3,2.376E3,8.83E2,8.76E2,2.592E3,1.714E3,6.62E2,6.25E2,2.58E2,2.28E2,6.48E2,8.88E2,1.704E3],"tree_param":{"num_deleted":"0","num_feature":"11","num_nodes":"15","size_leaf_vector":"0"}},{"base_weights":[1.4516938E3,1.3242039E3,1.5710845E3,1.3777507E3,1.2105068E3,1.9281953E3,1.4496971E3,1.473871E3,1.3502137E3,1.2530001E3,1.1033063E3,2.2478516E3,1.8124333E3,1.5671682E3,1.3850328E3],"categories":[],"categories_nodes":[],"categories_segments":[],"categories_sizes":[],"default_left":[1,1,1,1,1,1,1,0,0,0,0,0,0,0,0],"id":40,"left_children":[1,3,5,7,9,11,13,-1,-1,-1,-1,-1,-1,-1,-1],"loss_changes":[1.0032742E8,1.8179584E7,1.4758144E8,3.856896E6,3.409664E6,2.8378368E7,1.7526272E7,0E0,0E0,0E0,0E0,0E0,0E0,0E0,0E0],"parents":[2147483647,0,0,1,1,2,2,3,3,4,4,5,5,6,6],"right_children":[2,4,6,8,10,12,14,-1,-1,-1,-1,-1,-1,-1,-1],"split_conditions":[1.7E2,7.55E1,2.575E2,2.05E1,4.5E0,9.5E0,2.955E2,1.4738709E1,1.3502137E1,1.2530001E1,1.1033063E1,2.2478516E1,1.8124332E1,1.5671681E1,1.3850328E1],"split_indices":[4,4,4,4,3,0,4,0,0,0,0,0,0,0,0],"split_type":[0,0,0,0,0,0,0,0,0,0,0,0,0,0,0],"sum_hessian":[6.727E3,3.259E3,3.468E3,2.208E3,1.051E3,8.76E2,2.592E3,4.8E2,1.728E3,7.45E2,3.06E2,2.28E2,6.48E2,9.12E2,1.68E3],"tree_param":{"num_deleted":"0","num_feature":"11","num_nodes":"15","size_leaf_vector":"0"}},{"base_weights":[1.4371951E3,1.3109777E3,1.5553938E3,1.3569141E3,1.1812056E3,1.9089596E3,1.4352115E3,1.3889573E3,1.2708203E3,1.1586871E3,1.3565914E3,2.2254712E3,1.7943369E3,1.55393E3,1.372469E3],"categories":[],"categories_nodes":[],"categories_segments":[],"categories_sizes":[],"default_left":[1,1,1,1,1,1,1,0,0,0,0,0,0,0,0],"id":41,"left_children":[1,3,5,7,9,11,13,-1,-1,-1,-1,-1,-1,-1,-1],"loss_changes":[9.833472E7,1.7831424E7,1.4466611E8,4.858368E6,1.82464E6,2.7823872E7,1.7181696E7,0E0,0E0,0E0,0E0,0E0,0E0,0E0,0E0],"parents":[2147483647,0,0,1,1,2,2,3,3,4,4,5,5,6,6],"right_children":[2,4,6,8,10,12,14,-1,-1,-1,-1,-1,-1,-1,-1],"split_conditions":[1.7E2,8.35E1,2.575E2,4.5E0,2.85E1,9.5E0,2.945E2,1.3889572E1,1.2708203E1,1.1586871E1,1.3565914E1,2.2254711E1,1.7943369E1,1.55393E1,1.37246895E1],"split_indices":[4,4,4,3,0,0,4,0,0,0,0,0,0,0,0],"split_type":[0,0,0,0,0,0,0,0,0,0,0,0,0,0,0],"sum_hessian":[6.727E3,3.259E3,3.468E3,2.4E3,8.59E2,8.76E2,2.592E3,1.738E3,6.62E2,7.68E2,9.1E1,2.28E2,6.48E2,8.88E2,1.704E3],"tree_param":{"num_deleted":"0","num_feature":"11","num_nodes":"15","size_leaf_vector":"0"}},{"base_weights":[1.4228412E3,1.2978839E3,1.5398599E3,1.3504312E3,1.1863108E3,1.8899158E3,1.4208706E3,1.4150896E3,1.310488E3,1.2282775E3,1.0804686E3,2.2033135E3,1.7764213E3,1.536039E3,1.3574741E3],"categories":[],"categories_nodes":[],"categories_segments":[],"categories_sizes":[],"default_left":[1,1,1,1,1,1,1,0,0,0,0,0,0,0,0],"id":42,"left_children":[1,3,5,7,9,11,13,-1,-1,-1,-1,-1,-1,-1,-1],"loss_changes":[9.63799E7,1.7510912E7,1.4180915E8,3.850496E6,3.345664E6,2.7280128E7,1.6846848E7,0E0,0E0,0E0,0E0,0E0,0E0,0E0,0E0],"parents":[2147483647,0,0,1,1,2,2,3,3,4,4,5,5,6,6],"right_children":[2,4,6,8,10,12,14,-1,-1,-1,-1,-1,-1,-1,-1],"split_conditions":[1.7E2,7.55E1,2.575E2,3.45E1,4.5E0,9.5E0,2.955E2,1.4150896E1,1.310488E1,1.2282774E1,1.0804686E1,2.2033134E1,1.7764212E1,1.5360389E1,1.3574741E1],"split_indices":[4,4,4,4,3,0,4,0,0,0,0,0,0,0,0],"split_type":[0,0,0,0,0,0,0,0,0,0,0,0,0,0,0],"sum_hessian":[6.727E3,3.259E3,3.468E3,2.208E3,1.051E3,8.76E2,2.592E3,8.3E2,1.378E3,7.45E2,3.06E2,2.28E2,6.48E2,9.12E2,1.68E3],"tree_param":{"num_deleted":"0","num_feature":"11","num_nodes":"15","size_leaf_vector":"0"}},{"base_weights":[1.4086304E3,1.2849204E3,1.524481E3,1.3308566E3,1.1599486E3,1.8710621E3,1.4066731E3,1.3633298E3,1.2448499E3,1.1386051E3,1.3313129E3,2.0624607E3,1.6906465E3,1.5230651E3,1.3451603E3],"categories":[],"categories_nodes":[],"categories_segments":[],"categories_sizes":[],"default_left":[1,1,1,1,1,1,1,0,0,0,0,0,0,0,0],"id":43,"left_children":[1,3,5,7,9,11,13,-1,-1,-1,-1,-1,-1,-1,-1],"loss_changes":[9.446605E7,1.7170944E7,1.39008E8,4.941824E6,1.717504E6,2.6797056E7,1.6515584E7,0E0,0E0,0E0,0E0,0E0,0E0,0E0,0E0],"parents":[2147483647,0,0,1,1,2,2,3,3,4,4,5,5,6,6],"right_children":[2,4,6,8,10,12,14,-1,-1,-1,-1,-1,-1,-1,-1],"split_conditions":[1.7E2,8.25E1,2.575E2,4.5E0,2.85E1,1.35E1,2.945E2,1.3633298E1,1.2448499E1,1.1386051E1,1.3313128E1,2.0624607E1,1.6906464E1,1.523065E1,1.3451603E1],"split_indices":[4,4,4,3,0,0,4,0,0,0,0,0,0,0,0],"split_type":[0,0,0,0,0,0,0,0,0,0,0,0,0,0,0],"sum_hessian":[6.727E3,3.259E3,3.468E3,2.376E3,8.83E2,8.76E2,2.592E3,1.714E3,6.62E2,7.92E2,9.1E1,4.2E2,4.56E2,8.88E2,1.704E3],"tree_param":{"num_deleted":"0","num_feature":"11","num_nodes":"15","size_leaf_vector":"0"}},{"base_weights":[1.3945615E3,1.2720868E3,1.5092554E3,1.3236414E3,1.1626228E3,1.8523943E3,1.3926174E3,1.4181661E3,1.2965795E3,1.2040903E3,1.0580712E3,2.160842E3,1.740704E3,1.5055282E3,1.3304639E3],"categories":[],"categories_nodes":[],"categories_segments":[],"categories_sizes":[],"default_left":[1,1,1,1,1,1,1,0,0,0,0,0,0,0,0],"id":44,"left_children":[1,3,5,7,9,11,13,-1,-1,-1,-1,-1,-1,-1,-1],"loss_changes":[9.258906E7,1.6858624E7,1.362601E8,3.812096E6,3.286912E6,2.6451712E7,1.619456E7,0E0,0E0,0E0,0E0,0E0,0E0,0E0,0E0],"parents":[2147483647,0,0,1,1,2,2,3,3,4,4,5,5,6,6],"right_children":[2,4,6,8,10,12,14,-1,-1,-1,-1,-1,-1,-1,-1],"split_conditions":[1.7E2,7.55E1,2.575E2,2.05E1,4.5E0,9.5E0,2.955E2,1.4181661E1,1.2965795E1,1.2040903E1,1.0580711E1,2.160842E1,1.740704E1,1.5055282E1,1.3304638E1],"split_indices":[4,4,4,4,3,0,4,0,0,0,0,0,0,0,0],"split_type":[0,0,0,0,0,0,0,0,0,0,0,0,0,0,0],"sum_hessian":[6.727E3,3.259E3,3.468E3,2.208E3,1.051E3,8.76E2,2.592E3,4.8E2,1.728E3,7.45E2,3.06E2,2.28E2,6.48E2,9.12E2,1.68E3],"tree_param":{"num_deleted":"0","num_feature":"11","num_nodes":"15","size_leaf_vector":"0"}},{"base_weights":[1.3806333E3,1.2593812E3,1.4941823E3,1.3036115E3,1.1344323E3,1.8339148E3,1.3787023E3,1.3349576E3,1.2194265E3,1.1123691E3,1.3065201E3,2.0222441E3,1.6564081E3,1.4928132E3,1.3183953E3],"categories":[],"categories_nodes":[],"categories_segments":[],"categories_sizes":[],"default_left":[1,1,1,1,1,1,1,0,0,0,0,0,0,0,0],"id":45,"left_children":[1,3,5,7,9,11,13,-1,-1,-1,-1,-1,-1,-1,-1],"loss_changes":[9.074995E7,1.65376E7,1.3356851E8,4.708096E6,1.81184E6,2.5968384E7,1.5876096E7,0E0,0E0,0E0,0E0,0E0,0E0,0E0,0E0],"parents":[2147483647,0,0,1,1,2,2,3,3,4,4,5,5,6,6],"right_children":[2,4,6,8,10,12,14,-1,-1,-1,-1,-1,-1,-1,-1],"split_conditions":[1.7E2,8.35E1,2.575E2,4.5E0,2.85E1,1.35E1,2.945E2,1.3349576E1,1.2194264E1,1.1123692E1,1.3065201E1,2.022244E1,1.6564081E1,1.4928132E1,1.3183952E1],"split_indices":[4,4,4,3,0,0,4,0,0,0,0,0,0,0,0],"split_type":[0,0,0,0,0,0,0,0,0,0,0,0,0,0,0],"sum_hessian":[6.727E3,3.259E3,3.468E3,2.4E3,8.59E2,8.76E2,2.592E3,1.738E3,6.62E2,7.68E2,9.1E1,4.2E2,4.56E2,8.88E2,1.704E3],"tree_param":{"num_deleted":"0","num_feature":"11","num_nodes":"15","size_leaf_vector":"0"}},{"base_weights":[1.366844E3,1.2468026E3,1.479259E3,1.2973949E3,1.1393835E3,1.8156176E3,1.3649259E3,1.3610005E3,1.2581246E3,1.1803372E3,1.0361561E3,2.1191938E3,1.7057029E3,1.4756234E3,1.303991E3],"categories":[],"categories_nodes":[],"categories_segments":[],"categories_sizes":[],"default_left":[1,1,1,1,1,1,1,0,0,0,0,0,0,0,0],"id":46,"left_children":[1,3,5,7,9,11,13,-1,-1,-1,-1,-1,-1,-1,-1],"loss_changes":[8.894669E7,1.6238592E7,1.3092915E8,3.80544E6,3.22432E6,2.5648384E7,1.5566336E7,0E0,0E0,0E0,0E0,0E0,0E0,0E0,0E0],"parents":[2147483647,0,0,1,1,2,2,3,3,4,4,5,5,6,6],"right_children":[2,4,6,8,10,12,14,-1,-1,-1,-1,-1,-1,-1,-1],"split_conditions":[1.7E2,7.55E1,2.575E2,3.45E1,4.5E0,9.5E0,2.955E2,1.3610004E1,1.2581246E1,1.1803371E1,1.0361561E1,2.1191938E1,1.7057028E1,1.4756234E1,1.3039909E1],"split_indices":[4,4,4,4,3,0,4,0,0,0,0,0,0,0,0],"split_type":[0,0,0,0,0,0,0,0,0,0,0,0,0,0,0],"sum_hessian":[6.727E3,3.259E3,3.468E3,2.208E3,1.051E3,8.76E2,2.592E3,8.3E2,1.378E3,7.45E2,3.06E2,2.28E2,6.48E2,9.12E2,1.68E3],"tree_param":{"num_deleted":"0","num_feature":"11","num_nodes":"15","size_leaf_vector":"0"}},{"base_weights":[1.3531926E3,1.2343495E3,1.4644856E3,1.2777454E3,1.1117589E3,1.7975051E3,1.3512875E3,1.3087512E3,1.1944922E3,1.0899219E3,1.2822041E3,1.982814E3,1.6228606E3,1.4631622E3,1.2921626E3],"categories":[],"categories_nodes":[],"categories_segments":[],"categories_sizes":[],"default_left":[1,1,1,1,1,1,1,0,0,0,0,0,0,0,0],"id":47,"left_children":[1,3,5,7,9,11,13,-1,-1,-1,-1,-1,-1,-1,-1],"loss_changes":[8.717926E7,1.5922176E7,1.2834202E8,4.63488E6,1.803392E6,2.5164544E7,1.5261184E7,0E0,0E0,0E0,0E0,0E0,0E0,0E0,0E0],"parents":[2147483647,0,0,1,1,2,2,3,3,4,4,5,5,6,6],"right_children":[2,4,6,8,10,12,14,-1,-1,-1,-1,-1,-1,-1,-1],"split_conditions":[1.7E2,8.35E1,2.575E2,4.5E0,2.85E1,1.35E1,2.945E2,1.3087512E1,1.19449215E1,1.0899219E1,1.2822041E1,1.9828138E1,1.6228605E1,1.4631622E1,1.2921626E1],"split_indices":[4,4,4,3,0,0,4,0,0,0,0,0,0,0,0],"split_type":[0,0,0,0,0,0,0,0,0,0,0,0,0,0,0],"sum_hessian":[6.727E3,3.259E3,3.468E3,2.4E3,8.59E2,8.76E2,2.592E3,1.738E3,6.62E2,7.68E2,9.1E1,4.2E2,4.56E2,8.88E2,1.704E3],"tree_param":{"num_deleted":"0","num_feature":"11","num_nodes":"15","size_leaf_vector":"0"}},{"base_weights":[1.3396774E3,1.222021E3,1.449859E3,1.2716688E3,1.1166083E3,1.7857301E3,1.3398292E3,1.3346514E3,1.2327926E3,1.1570544E3,1.0146884E3,1.9208893E3,1.5464111E3,1.4514944E3,1.2792485E3],"categories":[],"categories_nodes":[],"categories_segments":[],"categories_sizes":[],"default_left":[1,1,1,1,1,1,1,0,0,0,0,0,0,0,0],"id":48,"left_children":[1,3,5,7,9,11,13,-1,-1,-1,-1,-1,-1,-1,-1],"loss_changes":[8.544768E7,1.5641088E7,1.258071E8,3.7632E6,3.162496E6,2.4621056E7,1.58464E7,0E0,0E0,0E0,0E0,0E0,0E0,0E0,0E0],"parents":[2147483647,0,0,1,1,2,2,3,3,4,4,5,5,6,6],"right_children":[2,4,6,8,10,12,14,-1,-1,-1,-1,-1,-1,-1,-1],"split_conditions":[1.7E2,7.55E1,2.565E2,3.45E1,4.5E0,1.85E1,2.945E2,1.3346514E1,1.2327926E1,1.1570544E1,1.0146884E1,1.9208893E1,1.5464111E1,1.4514943E1,1.2792485E1],"split_indices":[4,4,4,4,3,0,4,0,0,0,0,0,0,0,0],"split_type":[0,0,0,0,0,0,0,0,0,0,0,0,0,0,0],"sum_hessian":[6.727E3,3.259E3,3.468E3,2.208E3,1.051E3,8.52E2,2.616E3,8.3E2,1.378E3,7.45E2,3.06E2,5.4E2,3.12E2,9.12E2,1.704E3],"tree_param":{"num_deleted":"0","num_feature":"11","num_nodes":"15","size_leaf_vector":"0"}},{"base_weights":[1.3262969E3,1.2098153E3,1.4353783E3,1.2532148E3,1.0917491E3,1.7618448E3,1.3244077E3,1.2846306E3,1.1700604E3,1.0710436E3,1.2583551E3,2.059228E3,1.6541984E3,1.4318589E3,1.2652601E3],"categories":[],"categories_nodes":[],"categories_segments":[],"categories_sizes":[],"default_left":[1,1,1,1,1,1,1,0,0,0,0,0,0,0,0],"id":49,"left_children":[1,3,5,7,9,11,13,-1,-1,-1,-1,-1,-1,-1,-1],"loss_changes":[8.374886E7,1.5335936E7,1.2334234E8,4.70656E6,1.701824E6,2.466816E7,1.4668288E7,0E0,0E0,0E0,0E0,0E0,0E0,0E0,0E0],"parents":[2147483647,0,0,1,1,2,2,3,3,4,4,5,5,6,6],"right_children":[2,4,6,8,10,12,14,-1,-1,-1,-1,-1,-1,-1,-1],"split_conditions":[1.7E2,8.25E1,2.575E2,4.5E0,2.85E1,9.5E0,2.955E2,1.2846306E1,1.1700604E1,1.0710436E1,1.258355E1,2.059228E1,1.6541983E1,1.4318588E1,1.2652601E1],"split_indices":[4,4,4,3,0,0,4,0,0,0,0,0,0,0,0],"split_type":[0,0,0,0,0,0,0,0,0,0,0,0,0,0,0],"sum_hessian":[6.727E3,3.259E3,3.468E3,2.376E3,8.83E2,8.76E2,2.592E3,1.714E3,6.62E2,7.92E2,9.1E1,2.28E2,6.48E2,9.12E2,1.68E3],"tree_param":{"num_deleted":"0","num_feature":"11","num_nodes":"15","size_leaf_vector":"0"}},{"base_weights":[1.3130505E3,1.1977317E3,1.421043E3,1.2464417E3,1.0943118E3,1.7503083E3,1.3131774E3,1.3387709E3,1.2200352E3,1.1342765E3,9.936343E2,1.8834977E3,1.5145073E3,1.4226339E3,1.2537949E3],"categories":[],"categories_nodes":[],"categories_segments":[],"categories_sizes":[],"default_left":[1,1,1,1,1,1,1,0,0,0,0,0,0,0,0],"id":50,"left_children":[1,3,5,7,9,11,13,-1,-1,-1,-1,-1,-1,-1,-1],"loss_changes":[8.208589E7,1.5058432E7,1.2090778E8,3.752192E6,3.105664E6,2.393728E7,1.5225856E7,0E0,0E0,0E0,0E0,0E0,0E0,0E0,0E0],"parents":[2147483647,0,0,1,1,2,2,3,3,4,4,5,5,6,6],"right_children":[2,4,6,8,10,12,14,-1,-1,-1,-1,-1,-1,-1,-1],"split_conditions":[1.7E2,7.55E1,2.565E2,2.05E1,4.5E0,1.85E1,2.945E2,1.3387709E1,1.2200352E1,1.1342765E1,9.936342E0,1.8834976E1,1.5145073E1,1.4226338E1,1.2537949E1],"split_indices":[4,4,4,4,3,0,4,0,0,0,0,0,0,0,0],"split_type":[0,0,0,0,0,0,0,0,0,0,0,0,0,0,0],"sum_hessian":[6.727E3,3.259E3,3.468E3,2.208E3,1.051E3,8.52E2,2.616E3,4.8E2,1.728E3,7.45E2,3.06E2,5.4E2,3.12E2,9.12E2,1.704E3],"tree_param":{"num_deleted":"0","num_feature":"11","num_nodes":"15","size_leaf_vector":"0"}},{"base_weights":[1.2999359E3,1.1861683E3,1.4072393E3,1.2339888E3,1.0857723E3,1.7390967E3,1.3000558E3,1.2959355E3,1.1957642E3,1.1256682E3,9.8373035E2,2.0600793E3,1.6248689E3,1.4084232E3,1.2412643E3],"categories":[],"categories_nodes":[],"categories_segments":[],"categories_sizes":[],"default_left":[1,1,1,1,1,1,1,0,0,0,0,0,0,0,0],"id":51,"left_children":[1,3,5,7,9,11,13,-1,-1,-1,-1,-1,-1,-1,-1],"loss_changes":[8.046387E7,1.4368768E7,1.2070298E8,3.681024E6,3.22432E6,2.7488E7,1.4925312E7,0E0,0E0,0E0,0E0,0E0,0E0,0E0,0E0],"parents":[2147483647,0,0,1,1,2,2,3,3,4,4,5,5,6,6],"right_children":[2,4,6,8,10,12,14,-1,-1,-1,-1,-1,-1,-1,-1],"split_conditions":[2.215E2,7.55E1,2.565E2,3.45E1,4.5E0,9.5E0,2.945E2,1.2959355E1,1.1957642E1,1.1256681E1,9.837303E0,2.0600794E1,1.6248688E1,1.4084232E1,1.24126425E1],"split_indices":[4,4,4,4,3,0,4,0,0,0,0,0,0,0,0],"split_type":[0,0,0,0,0,0,0,0,0,0,0,0,0,0,0],"sum_hessian":[6.727E3,3.271E3,3.456E3,2.208E3,1.063E3,8.4E2,2.616E3,8.3E2,1.378E3,7.57E2,3.06E2,2.16E2,6.24E2,9.12E2,1.704E3],"tree_param":{"num_deleted":"0","num_feature":"11","num_nodes":"15","size_leaf_vector":"0"}},{"base_weights":[1.2869529E3,1.1743208E3,1.3931852E3,1.2216602E3,1.0749344E3,1.7217495E3,1.2870653E3,1.3124786E3,1.1956884E3,1.1144264E3,9.739251E2,2.0395732E3,1.6086462E3,1.3922318E3,1.2276792E3],"categories":[],"categories_nodes":[],"categories_segments":[],"categories_sizes":[],"default_left":[1,1,1,1,1,1,1,0,0,0,0,0,0,0,0],"id":52,"left_children":[1,3,5,7,9,11,13,-1,-1,-1,-1,-1,-1,-1,-1],"loss_changes":[7.886541E7,1.4081024E7,1.1831962E8,3.641088E6,3.15904E6,2.69504E7,1.4635008E7,0E0,0E0,0E0,0E0,0E0,0E0,0E0,0E0],"parents":[2147483647,0,0,1,1,2,2,3,3,4,4,5,5,6,6],"right_children":[2,4,6,8,10,12,14,-1,-1,-1,-1,-1,-1,-1,-1],"split_conditions":[2.215E2,7.55E1,2.565E2,2.05E1,4.5E0,9.5E0,2.955E2,1.3124786E1,1.1956883E1,1.1144263E1,9.739251E0,2.0395733E1,1.6086462E1,1.39223175E1,1.2276792E1],"split_indices":[4,4,4,4,3,0,4,0,0,0,0,0,0,0,0],"split_type":[0,0,0,0,0,0,0,0,0,0,0,0,0,0,0],"sum_hessian":[6.727E3,3.271E3,3.456E3,2.208E3,1.063E3,8.4E2,2.616E3,4.8E2,1.728E3,7.57E2,3.06E2,2.16E2,6.24E2,9.36E2,1.68E3],"tree_param":{"num_deleted":"0","num_feature":"11","num_nodes":"15","size_leaf_vector":"0"}},{"base_weights":[1.2740995E3,1.1621877E3,1.3789015E3,1.203246E3,1.0462075E3,1.692717E3,1.2722316E3,1.2335212E3,1.1220212E3,1.0248497E3,1.2133591E3,1.8699642E3,1.5257284E3,1.3208822E3,1.149779E3],"categories":[],"categories_nodes":[],"categories_segments":[],"categories_sizes":[],"default_left":[1,1,1,1,1,1,1,0,0,0,0,0,0,0,0],"id":53,"left_children":[1,3,5,7,9,11,13,-1,-1,-1,-1,-1,-1,-1,-1],"loss_changes":[7.730688E7,1.4265344E7,1.1397018E8,4.520448E6,1.826688E6,2.3104512E7,1.3928704E7,0E0,0E0,0E0,0E0,0E0,0E0,0E0,0E0],"parents":[2147483647,0,0,1,1,2,2,3,3,4,4,5,5,6,6],"right_children":[2,4,6,8,10,12,14,-1,-1,-1,-1,-1,-1,-1,-1],"split_conditions":[1.7E2,8.35E1,2.575E2,4.5E0,2.85E1,1.35E1,4.5E0,1.2335212E1,1.1220212E1,1.0248497E1,1.2133591E1,1.8699642E1,1.5257283E1,1.3208821E1,1.149779E1],"split_indices":[4,4,4,3,0,0,3,0,0,0,0,0,0,0,0],"split_type":[0,0,0,0,0,0,0,0,0,0,0,0,0,0,0],"sum_hessian":[6.727E3,3.259E3,3.468E3,2.4E3,8.59E2,8.76E2,2.592E3,1.738E3,6.62E2,7.68E2,9.1E1,4.2E2,4.56E2,1.848E3,7.44E2],"tree_param":{"num_deleted":"0","num_feature":"11","num_nodes":"15","size_leaf_vector":"0"}},{"base_weights":[1.261374E3,1.1509578E3,1.3655165E3,1.1974352E3,1.053383E3,1.6876663E3,1.2614686E3,1.258363E3,1.1598512E3,1.0923501E3,9.5374005E2,2.0006581E3,1.5762952E3,1.3655593E3,1.2026973E3],"categories":[],"categories_nodes":[],"categories_segments":[],"categories_sizes":[],"default_left":[1,1,1,1,1,1,1,0,0,0,0,0,0,0,0],"id":54,"left_children":[1,3,5,7,9,11,13,-1,-1,-1,-1,-1,-1,-1,-1],"loss_changes":[7.579341E7,1.3577216E7,1.1374592E8,3.598592E6,3.089408E6,2.6162176E7,1.4367488E7,0E0,0E0,0E0,0E0,0E0,0E0,0E0,0E0],"parents":[2147483647,0,0,1,1,2,2,3,3,4,4,5,5,6,6],"right_children":[2,4,6,8,10,12,14,-1,-1,-1,-1,-1,-1,-1,-1],"split_conditions":[2.215E2,7.55E1,2.565E2,3.45E1,4.5E0,9.5E0,2.955E2,1.2583631E1,1.1598512E1,1.0923501E1,9.5374E0,2.000658E1,1.5762951E1,1.3655593E1,1.2026973E1],"split_indices":[4,4,4,4,3,0,4,0,0,0,0,0,0,0,0],"split_type":[0,0,0,0,0,0,0,0,0,0,0,0,0,0,0],"sum_hessian":[6.727E3,3.271E3,3.456E3,2.208E3,1.063E3,8.4E2,2.616E3,8.3E2,1.378E3,7.57E2,3.06E2,2.16E2,6.24E2,9.36E2,1.68E3],"tree_param":{"num_deleted":"0","num_feature":"11","num_nodes":"15","size_leaf_vector":"0"}},{"base_weights":[1.2487761E3,1.1394619E3,1.3518792E3,1.1801394E3,1.0302765E3,1.66494E3,1.2469237E3,1.2108018E3,1.0990443E3,1.01064844E3,1.1908239E3,1.9807438E3,1.5567821E3,1.2950894E3,1.1257087E3],"categories":[],"categories_nodes":[],"categories_segments":[],"categories_sizes":[],"default_left":[1,1,1,1,1,1,1,0,0,0,0,0,0,0,0],"id":55,"left_children":[1,3,5,7,9,11,13,-1,-1,-1,-1,-1,-1,-1,-1],"loss_changes":[7.428813E7,1.3316352E7,1.1151155E8,4.579584E6,1.620032E6,2.6461696E7,1.3681152E7,0E0,0E0,0E0,0E0,0E0,0E0,0E0,0E0],"parents":[2147483647,0,0,1,1,2,2,3,3,4,4,5,5,6,6],"right_children":[2,4,6,8,10,12,14,-1,-1,-1,-1,-1,-1,-1,-1],"split_conditions":[2.215E2,8.25E1,2.575E2,4.5E0,2.85E1,9.5E0,4.5E0,1.2108017E1,1.0990443E1,1.0106484E1,1.1908238E1,1.9807438E1,1.5567821E1,1.2950893E1,1.1257087E1],"split_indices":[4,4,4,3,0,0,3,0,0,0,0,0,0,0,0],"split_type":[0,0,0,0,0,0,0,0,0,0,0,0,0,0,0],"sum_hessian":[6.727E3,3.271E3,3.456E3,2.376E3,8.95E2,8.64E2,2.592E3,1.714E3,6.62E2,8.04E2,9.1E1,2.16E2,6.48E2,1.848E3,7.44E2],"tree_param":{"num_deleted":"0","num_feature":"11","num_nodes":"15","size_leaf_vector":"0"}},{"base_weights":[1.2363038E3,1.128081E3,1.3383776E3,1.1736799E3,1.0323517E3,1.6541938E3,1.2363754E3,1.2629882E3,1.1481559E3,1.0708574E3,9.3391626E2,1.9610276E3,1.5450145E3,1.3393915E3,1.178218E3],"categories":[],"categories_nodes":[],"categories_segments":[],"categories_sizes":[],"default_left":[1,1,1,1,1,1,1,0,0,0,0,0,0,0,0],"id":56,"left_children":[1,3,5,7,9,11,13,-1,-1,-1,-1,-1,-1,-1,-1],"loss_changes":[7.281152E7,1.307136E7,1.0931866E8,3.58528E6,3.032832E6,2.5143296E7,1.4100736E7,0E0,0E0,0E0,0E0,0E0,0E0,0E0,0E0],"parents":[2147483647,0,0,1,1,2,2,3,3,4,4,5,5,6,6],"right_children":[2,4,6,8,10,12,14,-1,-1,-1,-1,-1,-1,-1,-1],"split_conditions":[2.215E2,7.55E1,2.565E2,2.05E1,4.5E0,9.5E0,2.955E2,1.2629881E1,1.1481559E1,1.0708574E1,9.339163E0,1.9610275E1,1.5450145E1,1.3393914E1,1.178218E1],"split_indices":[4,4,4,4,3,0,4,0,0,0,0,0,0,0,0],"split_type":[0,0,0,0,0,0,0,0,0,0,0,0,0,0,0],"sum_hessian":[6.727E3,3.271E3,3.456E3,2.208E3,1.063E3,8.4E2,2.616E3,4.8E2,1.728E3,7.57E2,3.06E2,2.16E2,6.24E2,9.36E2,1.68E3],"tree_param":{"num_deleted":"0","num_feature":"11","num_nodes":"15","size_leaf_vector":"0"}},{"base_weights":[1.2239563E3,1.116427E3,1.3246545E3,1.1559788E3,1.0047058E3,1.6263066E3,1.2221194E3,1.1855951E3,1.0765536E3,9.837772E2,1.1687208E3,1.7985812E3,1.4640444E3,1.2698048E3,1.1021293E3],"categories":[],"categories_nodes":[],"categories_segments":[],"categories_sizes":[],"default_left":[1,1,1,1,1,1,1,0,0,0,0,0,0,0,0],"id":57,"left_children":[1,3,5,7,9,11,13,-1,-1,-1,-1,-1,-1,-1,-1],"loss_changes":[7.13728E7,1.3243904E7,1.0530867E8,4.371456E6,1.80224E6,2.1882112E7,1.3437184E7,0E0,0E0,0E0,0E0,0E0,0E0,0E0,0E0],"parents":[2147483647,0,0,1,1,2,2,3,3,4,4,5,5,6,6],"right_children":[2,4,6,8,10,12,14,-1,-1,-1,-1,-1,-1,-1,-1],"split_conditions":[1.7E2,8.35E1,2.575E2,4.5E0,2.85E1,1.35E1,4.5E0,1.185595E1,1.0765535E1,9.837772E0,1.1687208E1,1.7985811E1,1.4640444E1,1.2698048E1,1.1021293E1],"split_indices":[4,4,4,3,0,0,3,0,0,0,0,0,0,0,0],"split_type":[0,0,0,0,0,0,0,0,0,0,0,0,0,0,0],"sum_hessian":[6.727E3,3.259E3,3.468E3,2.4E3,8.59E2,8.76E2,2.592E3,1.738E3,6.62E2,7.68E2,9.1E1,4.2E2,4.56E2,1.848E3,7.44E2],"tree_param":{"num_deleted":"0","num_feature":"11","num_nodes":"15","size_leaf_vector":"0"}},{"base_weights":[1.2117317E3,1.105638E3,1.3117975E3,1.1504065E3,1.01165344E3,1.6157157E3,1.2099073E3,1.2103395E3,1.113456E3,1.0496477E3,9.145483E2,1.9236047E3,1.5102803E3,1.2571136E3,1.0911228E3],"categories":[],"categories_nodes":[],"categories_segments":[],"categories_sizes":[],"default_left":[1,1,1,1,1,1,1,0,0,0,0,0,0,0,0],"id":58,"left_children":[1,3,5,7,9,11,13,-1,-1,-1,-1,-1,-1,-1,-1],"loss_changes":[6.997709E7,1.260288E7,1.0509568E8,3.54432E6,2.965632E6,2.5174784E7,1.3168128E7,0E0,0E0,0E0,0E0,0E0,0E0,0E0,0E0],"parents":[2147483647,0,0,1,1,2,2,3,3,4,4,5,5,6,6],"right_children":[2,4,6,8,10,12,14,-1,-1,-1,-1,-1,-1,-1,-1],"split_conditions":[2.215E2,7.55E1,2.575E2,3.45E1,4.5E0,9.5E0,4.5E0,1.21033945E1,1.1134561E1,1.0496477E1,9.145483E0,1.9236048E1,1.5102802E1,1.2571136E1,1.0911228E1],"split_indices":[4,4,4,4,3,0,3,0,0,0,0,0,0,0,0],"split_type":[0,0,0,0,0,0,0,0,0,0,0,0,0,0,0],"sum_hessian":[6.727E3,3.271E3,3.456E3,2.208E3,1.063E3,8.64E2,2.592E3,8.3E2,1.378E3,7.57E2,3.06E2,2.16E2,6.48E2,1.848E3,7.44E2],"tree_param":{"num_deleted":"0","num_feature":"11","num_nodes":"15","size_leaf_vector":"0"}},{"base_weights":[1.1996294E3,1.0945946E3,1.2986962E3,1.1337783E3,9.894225E2,1.6053011E3,1.1996692E3,1.1637676E3,1.0544944E3,9.701797E2,1.1470426E3,1.9044573E3,1.4988656E3,1.3015951E3,1.1421415E3],"categories":[],"categories_nodes":[],"categories_segments":[],"categories_sizes":[],"default_left":[1,1,1,1,1,1,1,0,0,0,0,0,0,0,0],"id":59,"left_children":[1,3,5,7,9,11,13,-1,-1,-1,-1,-1,-1,-1,-1],"loss_changes":[6.85865E7,1.2361984E7,1.030359E8,4.424448E6,1.604736E6,2.3923456E7,1.385856E7,0E0,0E0,0E0,0E0,0E0,0E0,0E0,0E0],"parents":[2147483647,0,0,1,1,2,2,3,3,4,4,5,5,6,6],"right_children":[2,4,6,8,10,12,14,-1,-1,-1,-1,-1,-1,-1,-1],"split_conditions":[2.215E2,8.25E1,2.565E2,4.5E0,2.85E1,9.5E0,2.955E2,1.1637675E1,1.0544944E1,9.701797E0,1.1470426E1,1.9044573E1,1.4988656E1,1.301595E1,1.1421414E1],"split_indices":[4,4,4,3,0,0,4,0,0,0,0,0,0,0,0],"split_type":[0,0,0,0,0,0,0,0,0,0,0,0,0,0,0],"sum_hessian":[6.727E3,3.271E3,3.456E3,2.376E3,8.95E2,8.4E2,2.616E3,1.714E3,6.62E2,8.04E2,9.1E1,2.16E2,6.24E2,9.36E2,1.68E3],"tree_param":{"num_deleted":"0","num_feature":"11","num_nodes":"15","size_leaf_vector":"0"}},{"base_weights":[1.1876482E3,1.083662E3,1.2857261E3,1.1275842E3,9.914551E2,1.583669E3,1.1858395E3,1.2154062E3,1.1025005E3,1.0289993E3,8.9552686E2,1.8855005E3,1.4803081E3,1.2325752E3,1.068255E3],"categories":[],"categories_nodes":[],"categories_segments":[],"categories_sizes":[],"default_left":[1,1,1,1,1,1,1,0,0,0,0,0,0,0,0],"id":60,"left_children":[1,3,5,7,9,11,13,-1,-1,-1,-1,-1,-1,-1,-1],"loss_changes":[6.722458E7,1.2133376E7,1.0100378E8,3.526144E6,2.910464E6,2.4194816E7,1.2932864E7,0E0,0E0,0E0,0E0,0E0,0E0,0E0,0E0],"parents":[2147483647,0,0,1,1,2,2,3,3,4,4,5,5,6,6],"right_children":[2,4,6,8,10,12,14,-1,-1,-1,-1,-1,-1,-1,-1],"split_conditions":[2.215E2,7.55E1,2.575E2,2.05E1,4.5E0,9.5E0,4.5E0,1.2154062E1,1.1025004E1,1.0289992E1,8.955268E0,1.8855005E1,1.4803081E1,1.2325751E1,1.0682549E1],"split_indices":[4,4,4,4,3,0,3,0,0,0,0,0,0,0,0],"split_type":[0,0,0,0,0,0,0,0,0,0,0,0,0,0,0],"sum_hessian":[6.727E3,3.271E3,3.456E3,2.208E3,1.063E3,8.64E2,2.592E3,4.8E2,1.728E3,7.57E2,3.06E2,2.16E2,6.48E2,1.848E3,7.44E2],"tree_param":{"num_deleted":"0","num_feature":"11","num_nodes":"15","size_leaf_vector":"0"}},{"base_weights":[1.1757864E3,1.072468E3,1.2725411E3,1.1105686E3,9.6484955E2,1.5624736E3,1.1739899E3,1.1395405E3,1.0329025E3,9.443418E2,1.1257799E3,1.7299802E3,1.4047433E3,1.2741758E3,1.1188777E3],"categories":[],"categories_nodes":[],"categories_segments":[],"categories_sizes":[],"default_left":[1,1,1,1,1,1,1,0,0,0,0,0,0,0,0],"id":61,"left_children":[1,3,5,7,9,11,13,-1,-1,-1,-1,-1,-1,-1,-1],"loss_changes":[6.589235E7,1.2295424E7,9.728563E7,4.22528E6,1.775104E6,2.0740864E7,1.2891648E7,0E0,0E0,0E0,0E0,0E0,0E0,0E0,0E0],"parents":[2147483647,0,0,1,1,2,2,3,3,4,4,5,5,6,6],"right_children":[2,4,6,8,10,12,14,-1,-1,-1,-1,-1,-1,-1,-1],"split_conditions":[1.7E2,8.35E1,2.575E2,4.5E0,2.85E1,1.35E1,2.955E2,1.1395405E1,1.0329024E1,9.443418E0,1.1257799E1,1.7299803E1,1.4047433E1,1.2741757E1,1.1188777E1],"split_indices":[4,4,4,3,0,0,4,0,0,0,0,0,0,0,0],"split_type":[0,0,0,0,0,0,0,0,0,0,0,0,0,0,0],"sum_hessian":[6.727E3,3.259E3,3.468E3,2.4E3,8.59E2,8.76E2,2.592E3,1.738E3,6.62E2,7.68E2,9.1E1,4.2E2,4.56E2,9.12E2,1.68E3],"tree_param":{"num_deleted":"0","num_feature":"11","num_nodes":"15","size_leaf_vector":"0"}},{"base_weights":[1.1640431E3,1.0621024E3,1.2601918E3,1.1052251E3,9.715762E2,1.5578539E3,1.1640533E3,1.164179E3,1.0688975E3,1.00862195E3,8.7694324E2,1.8495122E3,1.4540974E3,1.2639183E3,1.1076956E3],"categories":[],"categories_nodes":[],"categories_segments":[],"categories_sizes":[],"default_left":[1,1,1,1,1,1,1,0,0,0,0,0,0,0,0],"id":62,"left_children":[1,3,5,7,9,11,13,-1,-1,-1,-1,-1,-1,-1,-1],"loss_changes":[6.460621E7,1.16992E7,9.711462E7,3.48672E6,2.845632E6,2.276032E7,1.332864E7,0E0,0E0,0E0,0E0,0E0,0E0,0E0,0E0],"parents":[2147483647,0,0,1,1,2,2,3,3,4,4,5,5,6,6],"right_children":[2,4,6,8,10,12,14,-1,-1,-1,-1,-1,-1,-1,-1],"split_conditions":[2.215E2,7.55E1,2.565E2,3.45E1,4.5E0,9.5E0,2.955E2,1.1641789E1,1.0688974E1,1.0086219E1,8.769432E0,1.8495121E1,1.4540974E1,1.2639183E1,1.1076956E1],"split_indices":[4,4,4,4,3,0,4,0,0,0,0,0,0,0,0],"split_type":[0,0,0,0,0,0,0,0,0,0,0,0,0,0,0],"sum_hessian":[6.727E3,3.271E3,3.456E3,2.208E3,1.063E3,8.4E2,2.616E3,8.3E2,1.378E3,7.57E2,3.06E2,2.16E2,6.24E2,9.36E2,1.68E3],"tree_param":{"num_deleted":"0","num_feature":"11","num_nodes":"15","size_leaf_vector":"0"}},{"base_weights":[1.1524172E3,1.051494E3,1.2476062E3,1.0892388E3,9.5018726E2,1.5423146E3,1.1524219E3,1.1185698E3,1.0117246E3,9.313226E2,1.1049255E3,1.6724197E3,1.3174968E3,1.1988115E3,1.0342471E3],"categories":[],"categories_nodes":[],"categories_segments":[],"categories_sizes":[],"default_left":[1,1,1,1,1,1,1,0,0,0,0,0,0,0,0],"id":63,"left_children":[1,3,5,7,9,11,13,-1,-1,-1,-1,-1,-1,-1,-1],"loss_changes":[6.3323136E7,1.147648E7,9.519718E7,4.27264E6,1.586496E6,2.2395776E7,1.3106688E7,0E0,0E0,0E0,0E0,0E0,0E0,0E0,0E0],"parents":[2147483647,0,0,1,1,2,2,3,3,4,4,5,5,6,6],"right_children":[2,4,6,8,10,12,14,-1,-1,-1,-1,-1,-1,-1,-1],"split_conditions":[2.215E2,8.25E1,2.565E2,4.5E0,2.85E1,1.85E1,4.5E0,1.1185698E1,1.0117246E1,9.313226E0,1.1049255E1,1.6724195E1,1.3174968E1,1.1988115E1,1.034247E1],"split_indices":[4,4,4,3,0,0,3,0,0,0,0,0,0,0,0],"split_type":[0,0,0,0,0,0,0,0,0,0,0,0,0,0,0],"sum_hessian":[6.727E3,3.271E3,3.456E3,2.376E3,8.95E2,8.4E2,2.616E3,1.714E3,6.62E2,8.04E2,9.1E1,5.28E2,3.12E2,1.872E3,7.44E2],"tree_param":{"num_deleted":"0","num_feature":"11","num_nodes":"15","size_leaf_vector":"0"}},{"base_weights":[1.140907E3,1.0409918E3,1.2351453E3,1.0832993E3,9.5217773E2,1.5215537E3,1.1391257E3,1.1696583E3,1.0586481E3,9.887845E2,8.58692E2,1.8144552E3,1.4212745E3,1.1849291E3,1.0239185E3],"categories":[],"categories_nodes":[],"categories_segments":[],"categories_sizes":[],"default_left":[1,1,1,1,1,1,1,0,0,0,0,0,0,0,0],"id":64,"left_children":[1,3,5,7,9,11,13,-1,-1,-1,-1,-1,-1,-1,-1],"loss_changes":[6.2063616E7,1.1262976E7,9.333709E7,3.464192E6,2.792128E6,2.2827776E7,1.2469504E7,0E0,0E0,0E0,0E0,0E0,0E0,0E0,0E0],"parents":[2147483647,0,0,1,1,2,2,3,3,4,4,5,5,6,6],"right_children":[2,4,6,8,10,12,14,-1,-1,-1,-1,-1,-1,-1,-1],"split_conditions":[2.215E2,7.55E1,2.575E2,2.05E1,4.5E0,9.5E0,4.5E0,1.1696583E1,1.058648E1,9.887845E0,8.58692E0,1.8144552E1,1.4212745E1,1.1849291E1,1.0239185E1],"split_indices":[4,4,4,4,3,0,3,0,0,0,0,0,0,0,0],"split_type":[0,0,0,0,0,0,0,0,0,0,0,0,0,0,0],"sum_hessian":[6.727E3,3.271E3,3.456E3,2.208E3,1.063E3,8.64E2,2.592E3,4.8E2,1.728E3,7.57E2,3.06E2,2.16E2,6.48E2,1.848E3,7.44E2],"tree_param":{"num_deleted":"0","num_feature":"11","num_nodes":"15","size_leaf_vector":"0"}},{"base_weights":[1.1295121E3,1.0302401E3,1.2224775E3,1.0620353E3,9.104954E2,1.4369962E3,1.0994668E3,1.1304597E3,1.0287463E3,9.286945E2,7.894751E2,1.6637671E3,1.3217672E3,1.1432498E3,9.9246436E2],"categories":[],"categories_nodes":[],"categories_segments":[],"categories_sizes":[],"default_left":[1,1,1,1,1,1,1,0,0,0,0,0,0,0,0],"id":65,"left_children":[1,3,5,7,9,11,13,-1,-1,-1,-1,-1,-1,-1,-1],"loss_changes":[6.0832256E7,1.1444992E7,8.996045E7,4.690688E6,7.88736E5,3.0751488E7,9.214208E6,0E0,0E0,0E0,0E0,0E0,0E0,0E0,0E0],"parents":[2147483647,0,0,1,1,2,2,3,3,4,4,5,5,6,6],"right_children":[2,4,6,8,10,12,14,-1,-1,-1,-1,-1,-1,-1,-1],"split_conditions":[1.7E2,9.05E1,2.735E2,3.45E1,5.5E0,1.35E1,4.5E0,1.1304597E1,1.0287463E1,9.286945E0,7.8947506E0,1.663767E1,1.3217671E1,1.1432497E1,9.9246435E0],"split_indices":[4,4,4,4,3,0,3,0,0,0,0,0,0,0,0],"split_type":[0,0,0,0,0,0,0,0,0,0,0,0,0,0,0],"sum_hessian":[6.727E3,3.259E3,3.468E3,2.569E3,6.9E2,1.26E3,2.208E3,8.3E2,1.739E3,5.94E2,9.6E1,4.2E2,8.4E2,1.56E3,6.48E2],"tree_param":{"num_deleted":"0","num_feature":"11","num_nodes":"15","size_leaf_vector":"0"}},{"base_weights":[1.1182303E3,1.0202806E3,1.2106149E3,1.056308E3,9.199111E2,1.49156E3,1.1164274E3,1.0846519E3,9.803711E2,9.0052405E2,1.0744906E3,1.7798333E3,1.3928746E3,1.2140594E3,1.0627365E3],"categories":[],"categories_nodes":[],"categories_segments":[],"categories_sizes":[],"default_left":[1,1,1,1,1,1,1,0,0,0,0,0,0,0,0],"id":66,"left_children":[1,3,5,7,9,11,13,-1,-1,-1,-1,-1,-1,-1,-1],"loss_changes":[5.9646976E7,1.0860032E7,8.981248E7,4.104192E6,1.645632E6,2.2128768E7,1.230208E7,0E0,0E0,0E0,0E0,0E0,0E0,0E0,0E0],"parents":[2147483647,0,0,1,1,2,2,3,3,4,4,5,5,6,6],"right_children":[2,4,6,8,10,12,14,-1,-1,-1,-1,-1,-1,-1,-1],"split_conditions":[2.215E2,8.35E1,2.575E2,4.5E0,2.85E1,9.5E0,2.955E2,1.08465185E1,9.803711E0,9.00524E0,1.0744905E1,1.7798332E1,1.3928746E1,1.21405945E1,1.0627364E1],"split_indices":[4,4,4,3,0,0,4,0,0,0,0,0,0,0,0],"split_type":[0,0,0,0,0,0,0,0,0,0,0,0,0,0,0],"sum_hessian":[6.727E3,3.271E3,3.456E3,2.4E3,8.71E2,8.64E2,2.592E3,1.738E3,6.62E2,7.8E2,9.1E1,2.16E2,6.48E2,9.12E2,1.68E3],"tree_param":{"num_deleted":"0","num_feature":"11","num_nodes":"15","size_leaf_vector":"0"}},{"base_weights":[1.1070621E3,1.0100901E3,1.1985245E3,1.0512596E3,9.236676E2,1.4819541E3,1.1069835E3,1.1361411E3,1.027038E3,9.596582E2,8.3179614E2,1.6086229E3,1.263137E3,1.2042368E3,1.0521154E3],"categories":[],"categories_nodes":[],"categories_segments":[],"categories_sizes":[],"default_left":[1,1,1,1,1,1,1,0,0,0,0,0,0,0,0],"id":67,"left_children":[1,3,5,7,9,11,13,-1,-1,-1,-1,-1,-1,-1,-1],"loss_changes":[5.8461696E7,1.0670592E7,8.805325E7,3.374848E6,2.719808E6,2.1278208E7,1.2697856E7,0E0,0E0,0E0,0E0,0E0,0E0,0E0,0E0],"parents":[2147483647,0,0,1,1,2,2,3,3,4,4,5,5,6,6],"right_children":[2,4,6,8,10,12,14,-1,-1,-1,-1,-1,-1,-1,-1],"split_conditions":[2.215E2,7.55E1,2.565E2,2.05E1,4.5E0,1.85E1,2.955E2,1.1361411E1,1.0270379E1,9.596581E0,8.317962E0,1.608623E1,1.263137E1,1.2042368E1,1.0521153E1],"split_indices":[4,4,4,4,3,0,4,0,0,0,0,0,0,0,0],"split_type":[0,0,0,0,0,0,0,0,0,0,0,0,0,0,0],"sum_hessian":[6.727E3,3.271E3,3.456E3,2.208E3,1.063E3,8.4E2,2.616E3,4.8E2,1.728E3,7.57E2,3.06E2,5.28E2,3.12E2,9.36E2,1.68E3],"tree_param":{"num_deleted":"0","num_feature":"11","num_nodes":"15","size_leaf_vector":"0"}},{"base_weights":[1.096005E3,1.0000013E3,1.1865541E3,1.0360221E3,9.033257E2,1.4619719E3,1.0942198E3,1.0647024E3,9.602711E2,8.849127E2,1.0546204E3,1.746105E3,1.3647164E3,1.1391813E3,9.81162E2],"categories":[],"categories_nodes":[],"categories_segments":[],"categories_sizes":[],"default_left":[1,1,1,1,1,1,1,0,0,0,0,0,0,0,0],"id":68,"left_children":[1,3,5,7,9,11,13,-1,-1,-1,-1,-1,-1,-1,-1],"loss_changes":[5.730048E7,1.0458112E7,8.631347E7,4.141824E6,1.562816E6,2.152E7,1.2063232E7,0E0,0E0,0E0,0E0,0E0,0E0,0E0,0E0],"parents":[2147483647,0,0,1,1,2,2,3,3,4,4,5,5,6,6],"right_children":[2,4,6,8,10,12,14,-1,-1,-1,-1,-1,-1,-1,-1],"split_conditions":[2.215E2,8.25E1,2.575E2,4.5E0,2.85E1,9.5E0,4.5E0,1.0647024E1,9.602711E0,8.849127E0,1.0546204E1,1.746105E1,1.3647164E1,1.1391812E1,9.81162E0],"split_indices":[4,4,4,3,0,0,3,0,0,0,0,0,0,0,0],"split_type":[0,0,0,0,0,0,0,0,0,0,0,0,0,0,0],"sum_hessian":[6.727E3,3.271E3,3.456E3,2.376E3,8.95E2,8.64E2,2.592E3,1.714E3,6.62E2,8.04E2,9.1E1,2.16E2,6.48E2,1.848E3,7.44E2],"tree_param":{"num_deleted":"0","num_feature":"11","num_nodes":"15","size_leaf_vector":"0"}},{"base_weights":[1.0850586E3,9.896721E2,1.1743855E3,1.02030646E3,8.7430316E2,1.3813754E3,1.0556945E3,1.0873905E3,9.876817E2,8.07407E2,9.0811176E2,1.6001305E3,1.2702252E3,1.0986052E3,9.5085706E2],"categories":[],"categories_nodes":[],"categories_segments":[],"categories_sizes":[],"default_left":[1,1,1,1,1,1,1,0,0,0,0,0,0,0,0],"id":69,"left_children":[1,3,5,7,9,11,13,-1,-1,-1,-1,-1,-1,-1,-1],"loss_changes":[5.616435E7,1.0629376E7,8.37673E7,4.550656E6,8.29632E5,2.862848E7,8.892928E6,0E0,0E0,0E0,0E0,0E0,0E0,0E0,0E0],"parents":[2147483647,0,0,1,1,2,2,3,3,4,4,5,5,6,6],"right_children":[2,4,6,8,10,12,14,-1,-1,-1,-1,-1,-1,-1,-1],"split_conditions":[1.7E2,9.05E1,2.735E2,3.45E1,1.05E1,1.35E1,4.5E0,1.0873905E1,9.876817E0,8.07407E0,9.081118E0,1.6001305E1,1.2702252E1,1.0986052E1,9.508571E0],"split_indices":[4,4,4,4,0,0,3,0,0,0,0,0,0,0,0],"split_type":[0,0,0,0,0,0,0,0,0,0,0,0,0,0,0],"sum_hessian":[6.727E3,3.259E3,3.468E3,2.569E3,6.9E2,1.26E3,2.208E3,8.3E2,1.739E3,2.4E2,4.5E2,4.2E2,8.4E2,1.56E3,6.48E2],"tree_param":{"num_deleted":"0","num_feature":"11","num_nodes":"15","size_leaf_vector":"0"}},{"base_weights":[1.074221E3,9.801059E2,1.1629888E3,1.0201579E3,8.960316E2,1.3704749E3,1.0451467E3,1.1035876E3,9.963581E2,9.315232E2,8.054822E2,1.5993488E3,1.2575381E3,1.0876262E3,9.4136316E2],"categories":[],"categories_nodes":[],"categories_segments":[],"categories_sizes":[],"default_left":[1,1,1,1,1,1,1,0,0,0,0,0,0,0,0],"id":70,"left_children":[1,3,5,7,9,11,13,-1,-1,-1,-1,-1,-1,-1,-1],"loss_changes":[5.506867E7,1.0103808E7,8.309299E7,3.286528E6,2.66912E6,3.027328E7,8.715008E6,0E0,0E0,0E0,0E0,0E0,0E0,0E0,0E0],"parents":[2147483647,0,0,1,1,2,2,3,3,4,4,5,5,6,6],"right_children":[2,4,6,8,10,12,14,-1,-1,-1,-1,-1,-1,-1,-1],"split_conditions":[2.215E2,7.55E1,2.735E2,2.05E1,4.5E0,1.35E1,4.5E0,1.1035876E1,9.963581E0,9.315231E0,8.054822E0,1.5993487E1,1.257538E1,1.0876262E1,9.413631E0],"split_indices":[4,4,4,4,3,0,3,0,0,0,0,0,0,0,0],"split_type":[0,0,0,0,0,0,0,0,0,0,0,0,0,0,0],"sum_hessian":[6.727E3,3.271E3,3.456E3,2.208E3,1.063E3,1.248E3,2.208E3,4.8E2,1.728E3,7.57E2,3.06E2,4.08E2,8.4E2,1.56E3,6.48E2],"tree_param":{"num_deleted":"0","num_feature":"11","num_nodes":"15","size_leaf_vector":"0"}},{"base_weights":[1.0634917E3,9.703165E2,1.151373E3,1.0099658E3,8.870876E2,1.4240519E3,1.0633049E3,1.0659586E3,9.754915E2,9.222202E2,7.974536E2,1.5469778E3,1.2117454E3,1.158416E3,1.0096569E3],"categories":[],"categories_nodes":[],"categories_segments":[],"categories_sizes":[],"default_left":[1,1,1,1,1,1,1,0,0,0,0,0,0,0,0],"id":71,"left_children":[1,3,5,7,9,11,13,-1,-1,-1,-1,-1,-1,-1,-1],"loss_changes":[5.3974016E7,9.901568E6,8.150323E7,3.22432E6,2.615232E6,2.0073856E7,1.2183552E7,0E0,0E0,0E0,0E0,0E0,0E0,0E0,0E0],"parents":[2147483647,0,0,1,1,2,2,3,3,4,4,5,5,6,6],"right_children":[2,4,6,8,10,12,14,-1,-1,-1,-1,-1,-1,-1,-1],"split_conditions":[2.215E2,7.55E1,2.565E2,3.45E1,4.5E0,1.85E1,2.955E2,1.0659586E1,9.754915E0,9.222202E0,7.974536E0,1.5469777E1,1.2117454E1,1.158416E1,1.0096569E1],"split_indices":[4,4,4,4,3,0,4,0,0,0,0,0,0,0,0],"split_type":[0,0,0,0,0,0,0,0,0,0,0,0,0,0,0],"sum_hessian":[6.727E3,3.271E3,3.456E3,2.208E3,1.063E3,8.4E2,2.616E3,8.3E2,1.378E3,7.57E2,3.06E2,5.28E2,3.12E2,9.36E2,1.68E3],"tree_param":{"num_deleted":"0","num_feature":"11","num_nodes":"15","size_leaf_vector":"0"}},{"base_weights":[1.0528698E3,9.606249E2,1.1398737E3,9.901678E2,8.5125653E2,1.3434424E3,1.024257E3,1.0183906E3,9.1494324E2,7.819049E2,8.855168E2,1.5679624E3,1.232655E3,1.0663239E3,9.21498E2],"categories":[],"categories_nodes":[],"categories_segments":[],"categories_sizes":[],"default_left":[1,1,1,1,1,1,1,0,0,0,0,0,0,0,0],"id":72,"left_children":[1,3,5,7,9,11,13,-1,-1,-1,-1,-1,-1,-1,-1],"loss_changes":[5.2901376E7,9.729024E6,7.998771E7,4.524544E6,9.77952E5,2.9134848E7,8.566272E6,0E0,0E0,0E0,0E0,0E0,0E0,0E0,0E0],"parents":[2147483647,0,0,1,1,2,2,3,3,4,4,5,5,6,6],"right_children":[2,4,6,8,10,12,14,-1,-1,-1,-1,-1,-1,-1,-1],"split_conditions":[2.215E2,9.05E1,2.735E2,4.5E0,1.005E2,1.35E1,4.5E0,1.0183906E1,9.149432E0,7.819049E0,8.855167E0,1.5679624E1,1.23265505E1,1.0663239E1,9.21498E0],"split_indices":[4,4,4,3,4,0,3,0,0,0,0,0,0,0,0],"split_type":[0,0,0,0,0,0,0,0,0,0,0,0,0,0,0],"sum_hessian":[6.727E3,3.271E3,3.456E3,2.569E3,7.02E2,1.248E3,2.208E3,1.859E3,7.1E2,2.4E2,4.62E2,4.08E2,8.4E2,1.56E3,6.48E2],"tree_param":{"num_deleted":"0","num_feature":"11","num_nodes":"15","size_leaf_vector":"0"}},{"base_weights":[1.0423535E3,9.510296E2,1.1284888E3,9.8998364E2,8.6926227E2,1.3300304E3,1.01402344E3,1.0720327E3,9.665854E2,9.03899E2,7.809107E2,1.5523212E3,1.2203431E3,1.0556675E3,9.1229724E2],"categories":[],"categories_nodes":[],"categories_segments":[],"categories_sizes":[],"default_left":[1,1,1,1,1,1,1,0,0,0,0,0,0,0,0],"id":73,"left_children":[1,3,5,7,9,11,13,-1,-1,-1,-1,-1,-1,-1,-1],"loss_changes":[5.185075E7,9.561344E6,7.840256E7,3.204864E6,2.550208E6,2.855936E7,8.395008E6,0E0,0E0,0E0,0E0,0E0,0E0,0E0,0E0],"parents":[2147483647,0,0,1,1,2,2,3,3,4,4,5,5,6,6],"right_children":[2,4,6,8,10,12,14,-1,-1,-1,-1,-1,-1,-1,-1],"split_conditions":[2.215E2,7.55E1,2.735E2,2.05E1,4.5E0,1.35E1,4.5E0,1.0720327E1,9.6658535E0,9.03899E0,7.809107E0,1.55232115E1,1.2203431E1,1.0556675E1,9.1229725E0],"split_indices":[4,4,4,4,3,0,3,0,0,0,0,0,0,0,0],"split_type":[0,0,0,0,0,0,0,0,0,0,0,0,0,0,0],"sum_hessian":[6.727E3,3.271E3,3.456E3,2.208E3,1.063E3,1.248E3,2.208E3,4.8E2,1.728E3,7.57E2,3.06E2,4.08E2,8.4E2,1.56E3,6.48E2],"tree_param":{"num_deleted":"0","num_feature":"11","num_nodes":"15","size_leaf_vector":"0"}},{"base_weights":[1.0319426E3,9.412039E2,1.116917E3,9.705485E2,8.3070197E2,1.3140262E3,1.00389215E3,9.984367E2,8.962272E2,7.6560675E2,8.636448E2,1.5223977E3,1.2081542E3,1.0451176E3,9.0318835E2],"categories":[],"categories_nodes":[],"categories_segments":[],"categories_sizes":[],"default_left":[1,1,1,1,1,1,1,0,0,0,0,0,0,0,0],"id":74,"left_children":[1,3,5,7,9,11,13,-1,-1,-1,-1,-1,-1,-1,-1],"loss_changes":[5.082419E7,9.764864E6,7.59639E7,4.432128E6,8.20608E5,2.5979392E7,8.226816E6,0E0,0E0,0E0,0E0,0E0,0E0,0E0,0E0],"parents":[2147483647,0,0,1,1,2,2,3,3,4,4,5,5,6,6],"right_children":[2,4,6,8,10,12,14,-1,-1,-1,-1,-1,-1,-1,-1],"split_conditions":[1.7E2,9.05E1,2.735E2,4.5E0,1.05E1,1.35E1,4.5E0,9.984366E0,8.962272E0,7.6560674E0,8.636448E0,1.5223977E1,1.2081541E1,1.0451176E1,9.031883E0],"split_indices":[4,4,4,3,0,0,3,0,0,0,0,0,0,0,0],"split_type":[0,0,0,0,0,0,0,0,0,0,0,0,0,0,0],"sum_hessian":[6.727E3,3.259E3,3.468E3,2.569E3,6.9E2,1.26E3,2.208E3,1.859E3,7.1E2,2.4E2,4.5E2,4.2E2,8.4E2,1.56E3,6.48E2],"tree_param":{"num_deleted":"0","num_feature":"11","num_nodes":"15","size_leaf_vector":"0"}},{"base_weights":[1.0216353E3,9.321081E2,1.106076E3,9.6594836E2,8.4129285E2,1.3685144E3,1.0213161E3,9.9368146E2,8.927534E2,8.234122E2,9.886043E2,1.6352657E3,1.2737087E3,1.113827E3,9.691424E2],"categories":[],"categories_nodes":[],"categories_segments":[],"categories_sizes":[],"default_left":[1,1,1,1,1,1,1,0,0,0,0,0,0,0,0],"id":75,"left_children":[1,3,5,7,9,11,13,-1,-1,-1,-1,-1,-1,-1,-1],"loss_changes":[4.9831424E7,9.24288E6,7.550029E7,3.938304E6,1.546048E6,1.9185664E7,1.1551744E7,0E0,0E0,0E0,0E0,0E0,0E0,0E0,0E0],"parents":[2147483647,0,0,1,1,2,2,3,3,4,4,5,5,6,6],"right_children":[2,4,6,8,10,12,14,-1,-1,-1,-1,-1,-1,-1,-1],"split_conditions":[2.215E2,8.25E1,2.565E2,4.5E0,2.85E1,9.5E0,2.955E2,9.936814E0,8.927534E0,8.234121E0,9.886043E0,1.6352657E1,1.2737087E1,1.113827E1,9.691423E0],"split_indices":[4,4,4,3,0,0,4,0,0,0,0,0,0,0,0],"split_type":[0,0,0,0,0,0,0,0,0,0,0,0,0,0,0],"sum_hessian":[6.727E3,3.271E3,3.456E3,2.376E3,8.95E2,8.4E2,2.616E3,1.714E3,6.62E2,8.04E2,9.1E1,2.16E2,6.24E2,9.36E2,1.68E3],"tree_param":{"num_deleted":"0","num_feature":"11","num_nodes":"15","size_leaf_vector":"0"}},{"base_weights":[1.01143195E3,9.2279834E2,1.0950298E3,9.607455E2,8.431479E2,1.3500568E3,1.0095329E3,1.0158283E3,9.268553E2,8.772057E2,7.5631085E2,1.6189884E3,1.2580564E3,1.0521841E3,9.023227E2],"categories":[],"categories_nodes":[],"categories_segments":[],"categories_sizes":[],"default_left":[1,1,1,1,1,1,1,0,0,0,0,0,0,0,0],"id":76,"left_children":[1,3,5,7,9,11,13,-1,-1,-1,-1,-1,-1,-1,-1],"loss_changes":[4.8841216E7,9.079552E6,7.40137E7,3.182208E6,2.483264E6,1.9364736E7,1.0907392E7,0E0,0E0,0E0,0E0,0E0,0E0,0E0,0E0],"parents":[2147483647,0,0,1,1,2,2,3,3,4,4,5,5,6,6],"right_children":[2,4,6,8,10,12,14,-1,-1,-1,-1,-1,-1,-1,-1],"split_conditions":[2.215E2,7.55E1,2.575E2,3.45E1,4.5E0,9.5E0,4.5E0,1.0158283E1,9.268553E0,8.772057E0,7.5631084E0,1.6189884E1,1.2580564E1,1.0521841E1,9.023227E0],"split_indices":[4,4,4,4,3,0,3,0,0,0,0,0,0,0,0],"split_type":[0,0,0,0,0,0,0,0,0,0,0,0,0,0,0],"sum_hessian":[6.727E3,3.271E3,3.456E3,2.208E3,1.063E3,8.64E2,2.592E3,8.3E2,1.378E3,7.57E2,3.06E2,2.16E2,6.48E2,1.848E3,7.44E2],"tree_param":{"num_deleted":"0","num_feature":"11","num_nodes":"15","size_leaf_vector":"0"}},{"base_weights":[1.0013301E3,9.1358124E2,1.0840934E3,9.4616534E2,8.228153E2,1.2783773E3,9.737518E2,9.729822E2,8.743996E2,8.043783E2,9.703855E2,1.4925778E3,1.1726862E3,1.0141391E3,8.751101E2],"categories":[],"categories_nodes":[],"categories_segments":[],"categories_sizes":[],"default_left":[1,1,1,1,1,1,1,0,0,0,0,0,0,0,0],"id":77,"left_children":[1,3,5,7,9,11,13,-1,-1,-1,-1,-1,-1,-1,-1],"loss_changes":[4.7870464E7,8.89856E6,7.286502E7,3.769856E6,1.591936E6,2.6525952E7,7.912832E6,0E0,0E0,0E0,0E0,0E0,0E0,0E0,0E0],"parents":[2147483647,0,0,1,1,2,2,3,3,4,4,5,5,6,6],"right_children":[2,4,6,8,10,12,14,-1,-1,-1,-1,-1,-1,-1,-1],"split_conditions":[2.215E2,8.35E1,2.735E2,4.5E0,2.85E1,1.35E1,4.5E0,9.729821E0,8.743996E0,8.043783E0,9.703855E0,1.4925777E1,1.1726861E1,1.0141391E1,8.751101E0],"split_indices":[4,4,4,3,0,0,3,0,0,0,0,0,0,0,0],"split_type":[0,0,0,0,0,0,0,0,0,0,0,0,0,0,0],"sum_hessian":[6.727E3,3.271E3,3.456E3,2.4E3,8.71E2,1.248E3,2.208E3,1.738E3,6.62E2,7.8E2,9.1E1,4.08E2,8.4E2,1.56E3,6.48E2],"tree_param":{"num_deleted":"0","num_feature":"11","num_nodes":"15","size_leaf_vector":"0"}},{"base_weights":[9.913289E2,9.0414154E2,1.0729778E3,9.324126E2,7.976859E2,1.2629924E3,9.640228E2,9.9623694E2,9.0139514E2,7.33518E2,8.302065E2,1.4637883E3,1.1609733E3,1.0040042E3,8.663725E2],"categories":[],"categories_nodes":[],"categories_segments":[],"categories_sizes":[],"default_left":[1,1,1,1,1,1,1,0,0,0,0,0,0,0,0],"id":78,"left_children":[1,3,5,7,9,11,13,-1,-1,-1,-1,-1,-1,-1,-1],"loss_changes":[4.69248E7,9.06752E6,7.060122E7,4.189696E6,8.33024E5,2.4132224E7,7.754496E6,0E0,0E0,0E0,0E0,0E0,0E0,0E0,0E0],"parents":[2147483647,0,0,1,1,2,2,3,3,4,4,5,5,6,6],"right_children":[2,4,6,8,10,12,14,-1,-1,-1,-1,-1,-1,-1,-1],"split_conditions":[1.7E2,9.05E1,2.735E2,3.45E1,1.05E1,1.35E1,4.5E0,9.962369E0,9.013951E0,7.33518E0,8.302065E0,1.4637883E1,1.1609733E1,1.0040042E1,8.663725E0],"split_indices":[4,4,4,4,0,0,3,0,0,0,0,0,0,0,0],"split_type":[0,0,0,0,0,0,0,0,0,0,0,0,0,0,0],"sum_hessian":[6.727E3,3.259E3,3.468E3,2.569E3,6.9E2,1.26E3,2.208E3,8.3E2,1.739E3,2.4E2,4.5E2,4.2E2,8.4E2,1.56E3,6.48E2],"tree_param":{"num_deleted":"0","num_feature":"11","num_nodes":"15","size_leaf_vector":"0"}},{"base_weights":[9.814275E2,8.9540515E2,1.0625625E3,9.3232916E2,8.179046E2,1.2530254E3,9.5439105E2,1.0124191E3,9.095093E2,8.514752E2,7.3235266E2,1.5734456E3,1.1845024E3,9.9397064E2,8.5772217E2],"categories":[],"categories_nodes":[],"categories_segments":[],"categories_sizes":[],"default_left":[1,1,1,1,1,1,1,0,0,0,0,0,0,0,0],"id":79,"left_children":[1,3,5,7,9,11,13,-1,-1,-1,-1,-1,-1,-1,-1],"loss_changes":[4.600576E7,8.600576E6,7.002778E7,3.116416E6,2.432256E6,2.5559424E7,7.599232E6,0E0,0E0,0E0,0E0,0E0,0E0,0E0,0E0],"parents":[2147483647,0,0,1,1,2,2,3,3,4,4,5,5,6,6],"right_children":[2,4,6,8,10,12,14,-1,-1,-1,-1,-1,-1,-1,-1],"split_conditions":[2.215E2,7.55E1,2.735E2,2.05E1,4.5E0,9.5E0,4.5E0,1.0124191E1,9.095093E0,8.514752E0,7.3235264E0,1.5734455E1,1.1845024E1,9.939706E0,8.577222E0],"split_indices":[4,4,4,4,3,0,3,0,0,0,0,0,0,0,0],"split_type":[0,0,0,0,0,0,0,0,0,0,0,0,0,0,0],"sum_hessian":[6.727E3,3.271E3,3.456E3,2.208E3,1.063E3,1.248E3,2.208E3,4.8E2,1.728E3,7.57E2,3.06E2,2.16E2,1.032E3,1.56E3,6.48E2],"tree_param":{"num_deleted":"0","num_feature":"11","num_nodes":"15","size_leaf_vector":"0"}},{"base_weights":[9.716253E2,8.864618E2,1.0519502E3,9.230146E2,8.097405E2,1.3022115E3,9.7112415E2,1.00231604E3,9.0041943E2,8.4297174E2,7.25053E2,1.4176991E3,1.1028662E3,1.0610073E3,9.2044495E2],"categories":[],"categories_nodes":[],"categories_segments":[],"categories_sizes":[],"default_left":[1,1,1,1,1,1,1,0,0,0,0,0,0,0,0],"id":80,"left_children":[1,3,5,7,9,11,13,-1,-1,-1,-1,-1,-1,-1,-1],"loss_changes":[4.509235E7,8.428544E6,6.866227E7,3.055744E6,2.383168E6,1.7797888E7,1.0944512E7,0E0,0E0,0E0,0E0,0E0,0E0,0E0,0E0],"parents":[2147483647,0,0,1,1,2,2,3,3,4,4,5,5,6,6],"right_children":[2,4,6,8,10,12,14,-1,-1,-1,-1,-1,-1,-1,-1],"split_conditions":[2.215E2,7.55E1,2.565E2,2.05E1,4.5E0,1.85E1,2.955E2,1.002316E1,9.004194E0,8.429717E0,7.25053E0,1.41769905E1,1.1028662E1,1.0610073E1,9.20445E0],"split_indices":[4,4,4,4,3,0,4,0,0,0,0,0,0,0,0],"split_type":[0,0,0,0,0,0,0,0,0,0,0,0,0,0,0],"sum_hessian":[6.727E3,3.271E3,3.456E3,2.208E3,1.063E3,8.4E2,2.616E3,4.8E2,1.728E3,7.57E2,3.06E2,5.28E2,3.12E2,9.36E2,1.68E3],"tree_param":{"num_deleted":"0","num_feature":"11","num_nodes":"15","size_leaf_vector":"0"}},{"base_weights":[9.619209E2,8.7760785E2,1.0414437E3,9.048719E2,7.766885E2,1.2283031E3,9.353192E2,9.317978E2,8.331603E2,7.102833E2,8.0957605E2,1.5436719E3,1.1608654E3,9.745145E2,8.3960394E2],"categories":[],"categories_nodes":[],"categories_segments":[],"categories_sizes":[],"default_left":[1,1,1,1,1,1,1,0,0,0,0,0,0,0,0],"id":81,"left_children":[1,3,5,7,9,11,13,-1,-1,-1,-1,-1,-1,-1,-1],"loss_changes":[4.419533E7,8.300032E6,6.740454E7,4.186112E6,9.60256E5,2.4771584E7,7.469184E6,0E0,0E0,0E0,0E0,0E0,0E0,0E0,0E0],"parents":[2147483647,0,0,1,1,2,2,3,3,4,4,5,5,6,6],"right_children":[2,4,6,8,10,12,14,-1,-1,-1,-1,-1,-1,-1,-1],"split_conditions":[2.215E2,9.05E1,2.735E2,4.5E0,1.005E2,9.5E0,4.5E0,9.317978E0,8.331603E0,7.1028333E0,8.09576E0,1.5436718E1,1.1608653E1,9.745145E0,8.396039E0],"split_indices":[4,4,4,3,4,0,3,0,0,0,0,0,0,0,0],"split_type":[0,0,0,0,0,0,0,0,0,0,0,0,0,0,0],"sum_hessian":[6.727E3,3.271E3,3.456E3,2.569E3,7.02E2,1.248E3,2.208E3,1.859E3,7.1E2,2.4E2,4.62E2,2.16E2,1.032E3,1.56E3,6.48E2],"tree_param":{"num_deleted":"0","num_feature":"11","num_nodes":"15","size_leaf_vector":"0"}},{"base_weights":[9.523133E2,8.6854175E2,1.0307632E3,8.958301E2,7.657929E2,1.2135133E3,9.259743E2,9.224848E2,8.2484045E2,7.0320996E2,7.975373E2,1.4080431E3,1.1146898E3,9.647757E2,8.312209E2],"categories":[],"categories_nodes":[],"categories_segments":[],"categories_sizes":[],"default_left":[1,1,1,1,1,1,1,0,0,0,0,0,0,0,0],"id":82,"left_children":[1,3,5,7,9,11,13,-1,-1,-1,-1,-1,-1,-1,-1],"loss_changes":[4.332032E7,8.4544E6,6.5308416E7,4.102144E6,8.11936E5,2.2672256E7,7.319424E6,0E0,0E0,0E0,0E0,0E0,0E0,0E0,0E0],"parents":[2147483647,0,0,1,1,2,2,3,3,4,4,5,5,6,6],"right_children":[2,4,6,8,10,12,14,-1,-1,-1,-1,-1,-1,-1,-1],"split_conditions":[1.7E2,9.05E1,2.735E2,4.5E0,1.05E1,1.35E1,4.5E0,9.224848E0,8.2484045E0,7.0320992E0,7.975373E0,1.4080431E1,1.1146898E1,9.647757E0,8.312209E0],"split_indices":[4,4,4,3,0,0,3,0,0,0,0,0,0,0,0],"split_type":[0,0,0,0,0,0,0,0,0,0,0,0,0,0,0],"sum_hessian":[6.727E3,3.259E3,3.468E3,2.569E3,6.9E2,1.26E3,2.208E3,1.859E3,7.1E2,2.4E2,4.5E2,4.2E2,8.4E2,1.56E3,6.48E2],"tree_param":{"num_deleted":"0","num_feature":"11","num_nodes":"15","size_leaf_vector":"0"}},{"base_weights":[9.428014E2,8.601465E2,1.0207603E3,9.4904877E2,8.295413E2,1.2640846E3,9.4217554E2,9.8009546E2,8.641652E2,8.5667725E2,7.6119696E2,1.3770106E3,1.06919E3,1.0300536E3,8.926312E2],"categories":[],"categories_nodes":[],"categories_segments":[],"categories_sizes":[],"default_left":[1,1,1,1,1,1,1,0,0,0,0,0,0,0,0],"id":83,"left_children":[1,3,5,7,9,11,13,-1,-1,-1,-1,-1,-1,-1,-1],"loss_changes":[4.247552E7,8.1152E6,6.491213E7,1.342976E6,3.876864E6,1.7037184E7,1.0474496E7,0E0,0E0,0E0,0E0,0E0,0E0,0E0,0E0],"parents":[2147483647,0,0,1,1,2,2,3,3,4,4,5,5,6,6],"right_children":[2,4,6,8,10,12,14,-1,-1,-1,-1,-1,-1,-1,-1],"split_conditions":[2.215E2,3.45E1,2.565E2,4.5E0,9.05E1,1.85E1,2.955E2,9.800955E0,8.641652E0,8.566772E0,7.6119695E0,1.3770106E1,1.0691899E1,1.0300535E1,8.926312E0],"split_indices":[4,4,4,3,4,0,4,0,0,0,0,0,0,0,0],"split_type":[0,0,0,0,0,0,0,0,0,0,0,0,0,0,0],"sum_hessian":[6.727E3,3.271E3,3.456E3,8.3E2,2.441E3,8.4E2,2.616E3,6E2,2.3E2,1.739E3,7.02E2,5.28E2,3.12E2,9.36E2,1.68E3],"tree_param":{"num_deleted":"0","num_feature":"11","num_nodes":"15","size_leaf_vector":"0"}},{"base_weights":[9.333851E2,8.5155566E2,1.01056537E3,9.3958057E2,8.212525E2,1.2514728E3,9.3276117E2,9.7031085E2,8.5556104E2,8.4811536E2,7.535959E2,1.500584E3,1.162979E3,1.01976404E3,8.8371027E2],"categories":[],"categories_nodes":[],"categories_segments":[],"categories_sizes":[],"default_left":[1,1,1,1,1,1,1,0,0,0,0,0,0,0,0],"id":84,"left_children":[1,3,5,7,9,11,13,-1,-1,-1,-1,-1,-1,-1,-1],"loss_changes":[4.163123E7,7.956224E6,6.362931E7,1.315392E6,3.79904E6,1.6794496E7,1.026688E7,0E0,0E0,0E0,0E0,0E0,0E0,0E0,0E0],"parents":[2147483647,0,0,1,1,2,2,3,3,4,4,5,5,6,6],"right_children":[2,4,6,8,10,12,14,-1,-1,-1,-1,-1,-1,-1,-1],"split_conditions":[2.215E2,3.45E1,2.565E2,4.5E0,9.05E1,9.5E0,2.955E2,9.703108E0,8.55561E0,8.4811535E0,7.535959E0,1.5005839E1,1.1629789E1,1.019764E1,8.837103E0],"split_indices":[4,4,4,3,4,0,4,0,0,0,0,0,0,0,0],"split_type":[0,0,0,0,0,0,0,0,0,0,0,0,0,0,0],"sum_hessian":[6.727E3,3.271E3,3.456E3,8.3E2,2.441E3,8.4E2,2.616E3,6E2,2.3E2,1.739E3,7.02E2,2.16E2,6.24E2,9.36E2,1.68E3],"tree_param":{"num_deleted":"0","num_feature":"11","num_nodes":"15","size_leaf_vector":"0"}},{"base_weights":[9.2406305E2,8.4305054E2,1.0004729E3,9.3020667E2,8.130465E2,1.1803523E3,8.9831366E2,9.606239E2,8.4704236E2,8.2972687E2,7.06394E2,1.4856473E3,1.115077E3,9.367514E2,8.044775E2],"categories":[],"categories_nodes":[],"categories_segments":[],"categories_sizes":[],"default_left":[1,1,1,1,1,1,1,0,0,0,0,0,0,0,0],"id":85,"left_children":[1,3,5,7,9,11,13,-1,-1,-1,-1,-1,-1,-1,-1],"loss_changes":[4.080333E7,7.800064E6,6.246656E7,1.288384E6,3.75808E6,2.3233792E7,7.213824E6,0E0,0E0,0E0,0E0,0E0,0E0,0E0,0E0],"parents":[2147483647,0,0,1,1,2,2,3,3,4,4,5,5,6,6],"right_children":[2,4,6,8,10,12,14,-1,-1,-1,-1,-1,-1,-1,-1],"split_conditions":[2.215E2,3.45E1,2.735E2,4.5E0,5.5E0,9.5E0,4.5E0,9.606238E0,8.470424E0,8.297269E0,7.0639396E0,1.4856473E1,1.115077E1,9.367514E0,8.044775E0],"split_indices":[4,4,4,3,3,0,3,0,0,0,0,0,0,0,