{"learner":{"attributes":{"best_iteration":"1508","best_ntree_limit":"1509","best_score":"1754.8986765041172"},"feature_names":["period_day","period_week","period_year","period_day_of_week","period_day_of_year","period_month_end","period_month_start","period_quarter_end","period_quarter_start","period_year_end","period_year_start"],"feature_types":["int","int","int","int","int","i","i","i","i","i","i"],"gradient_booster":{"model":{"gbtree_model_param":{"num_parallel_tree":"1","num_trees":"1609","size_leaf_vector":"0"},"tree_info":[0,0,0,0,0,0,0,0,0,0,0,0,0,0,0,0,0,0,0,0,0,0,0,0,0,0,0,0,0,0,0,0,0,0,0,0,0,0,0,0,0,0,0,0,0,0,0,0,0,0,0,0,0,0,0,0,0,0,0,0,0,0,0,0,0,0,0,0,0,0,0,0,0,0,0,0,0,0,0,0,0,0,0,0,0,0,0,0,0,0,0,0,0,0,0,0,0,0,0,0,0,0,0,0,0,0,0,0,0,0,0,0,0,0,0,0,0,0,0,0,0,0,0,0,0,0,0,0,0,0,0,0,0,0,0,0,0,0,0,0,0,0,0,0,0,0,0,0,0,0,0,0,0,0,0,0,0,0,0,0,0,0,0,0,0,0,0,0,0,0,0,0,0,0,0,0,0,0,0,0,0,0,0,0,0,0,0,0,0,0,0,0,0,0,0,0,0,0,0,0,0,0,0,0,0,0,0,0,0,0,0,0,0,0,0,0,0,0,0,0,0,0,0,0,0,0,0,0,0,0,0,0,0,0,0,0,0,0,0,0,0,0,0,0,0,0,0,0,0,0,0,0,0,0,0,0,0,0,0,0,0,0,0,0,0,0,0,0,0,0,0,0,0,0,0,0,0,0,0,0,0,0,0,0,0,0,0,0,0,0,0,0,0,0,0,0,0,0,0,0,0,0,0,0,0,0,0,0,0,0,0,0,0,0,0,0,0,0,0,0,0,0,0,0,0,0,0,0,0,0,0,0,0,0,0,0,0,0,0,0,0,0,0,0,0,0,0,0,0,0,0,0,0,0,0,0,0,0,0,0,0,0,0,0,0,0,0,0,0,0,0,0,0,0,0,0,0,0,0,0,0,0,0,0,0,0,0,0,0,0,0,0,0,0,0,0,0,0,0,0,0,0,0,0,0,0,0,0,0,0,0,0,0,0,0,0,0,0,0,0,0,0,0,0,0,0,0,0,0,0,0,0,0,0,0,0,0,0,0,0,0,0,0,0,0,0,0,0,0,0,0,0,0,0,0,0,0,0,0,0,0,0,0,0,0,0,0,0,0,0,0,0,0,0,0,0,0,0,0,0,0,0,0,0,0,0,0,0,0,0,0,0,0,0,0,0,0,0,0,0,0,0,0,0,0,0,0,0,0,0,0,0,0,0,0,0,0,0,0,0,0,0,0,0,0,0,0,0,0,0,0,0,0,0,0,0,0,0,0,0,0,0,0,0,0,0,0,0,0,0,0,0,0,0,0,0,0,0,0,0,0,0,0,0,0,0,0,0,0,0,0,0,0,0,0,0,0,0,0,0,0,0,0,0,0,0,0,0,0,0,0,0,0,0,0,0,0,0,0,0,0,0,0,0,0,0,0,0,0,0,0,0,0,0,0,0,0,0,0,0,0,0,0,0,0,0,0,0,0,0,0,0,0,0,0,0,0,0,0,0,0,0,0,0,0,0,0,0,0,0,0,0,0,0,0,0,0,0,0,0,0,0,0,0,0,0,0,0,0,0,0,0,0,0,0,0,0,0,0,0,0,0,0,0,0,0,0,0,0,0,0,0,0,0,0,0,0,0,0,0,0,0,0,0,0,0,0,0,0,0,0,0,0,0,0,0,0,0,0,0,0,0,0,0,0,0,0,0,0,0,0,0,0,0,0,0,0,0,0,0,0,0,0,0,0,0,0,0,0,0,0,0,0,0,0,0,0,0,0,0,0,0,0,0,0,0,0,0,0,0,0,0,0,0,0,0,0,0,0,0,0,0,0,0,0,0,0,0,0,0,0,0,0,0,0,0,0,0,0,0,0,0,0,0,0,0,0,0,0,0,0,0,0,0,0,0,0,0,0,0,0,0,0,0,0,0,0,0,0,0,0,0,0,0,0,0,0,0,0,0,0,0,0,0,0,0,0,0,0,0,0,0,0,0,0,0,0,0,0,0,0,0,0,0,0,0,0,0,0,0,0,0,0,0,0,0,0,0,0,0,0,0,0,0,0,0,0,0,0,0,0,0,0,0,0,0,0,0,0,0,0,0,0,0,0,0,0,0,0,0,0,0,0,0,0,0,0,0,0,0,0,0,0,0,0,0,0,0,0,0,0,0,0,0,0,0,0,0,0,0,0,0,0,0,0,0,0,0,0,0,0,0,0,0,0,0,0,0,0,0,0,0,0,0,0,0,0,0,0,0,0,0,0,0,0,0,0,0,0,0,0,0,0,0,0,0,0,0,0,0,0,0,0,0,0,0,0,0,0,0,0,0,0,0,0,0,0,0,0,0,0,0,0,0,0,0,0,0,0,0,0,0,0,0,0,0,0,0,0,0,0,0,0,0,0,0,0,0,0,0,0,0,0,0,0,0,0,0,0,0,0,0,0,0,0,0,0,0,0,0,0,0,0,0,0,0,0,0,0,0,0,0,0,0,0,0,0,0,0,0,0,0,0,0,0,0,0,0,0,0,0,0,0,0,0,0,0,0,0,0,0,0,0,0,0,0,0,0,0,0,0,0,0,0,0,0,0,0,0,0,0,0,0,0,0,0,0,0,0,0,0,0,0,0,0,0,0,0,0,0,0,0,0,0,0,0,0,0,0,0,0,0,0,0,0,0,0,0,0,0,0,0,0,0,0,0,0,0,0,0,0,0,0,0,0,0,0,0,0,0,0,0,0,0,0,0,0,0,0,0,0,0,0,0,0,0,0,0,0,0,0,0,0,0,0,0,0,0,0,0,0,0,0,0,0,0,0,0,0,0,0,0,0,0,0,0,0,0,0,0,0,0,0,0,0,0,0,0,0,0,0,0,0,0,0,0,0,0,0,0,0,0,0,0,0,0,0,0,0,0,0,0,0,0,0,0,0,0,0,0,0,0,0,0,0,0,0,0,0,0,0,0,0,0,0,0,0,0,0,0,0,0,0,0,0,0,0,0,0,0,0,0,0,0,0,0,0,0,0,0,0,0,0,0,0,0,0,0,0,0,0,0,0,0,0,0,0,0,0,0,0,0,0,0,0,0,0,0,0,0,0,0,0,0,0,0,0,0,0,0,0,0,0,0,0,0,0,0,0,0,0,0,0,0,0,0,0,0,0,0,0,0,0,0,0,0,0,0,0,0,0,0,0,0,0,0,0,0,0,0,0,0,0,0,0,0,0,0,0,0,0,0,0,0,0,0,0,0,0,0,0,0,0,0,0,0,0,0,0,0,0,0,0,0,0,0,0,0,0,0,0,0,0,0,0,0,0,0,0,0,0,0,0,0,0,0,0,0,0,0,0,0,0,0,0,0,0,0,0,0,0,0,0,0,0,0,0,0,0,0,0,0,0,0,0,0,0,0,0,0,0,0,0,0,0,0,0,0,0,0,0,0,0,0,0,0,0,0,0,0,0,0,0,0,0,0,0,0,0,0,0,0,0,0,0,0,0,0,0,0,0,0,0,0,0,0,0,0,0,0,0,0,0,0,0,0,0,0,0,0,0,0,0,0,0,0,0,0,0,0,0,0,0,0,0,0,0,0,0,0,0,0,0,0,0,0,0,0,0,0,0,0,0,0,0,0,0,0,0,0,0,0,0,0,0,0,0,0,0,0,0,0,0,0,0,0,0,0,0,0,0,0,0,0,0,0,0,0,0],"trees":[{"base_weights":[1.1206969E4,1.056823E4,1.1788862E4,1.0779959E4,1.0012874E4,1.3983184E4,1.1033073E4,1.0904602E4,1.0015649E4,1.0284248E4,9.401675E3,1.3496156E4,1.5444912E4,1.1148672E4,1.0279775E4],"categories":[],"categories_nodes":[],"categories_segments":[],"categories_sizes":[],"default_left":[1,1,1,1,1,1,1,0,0,0,0,0,0,0,0],"id":0,"left_children":[1,3,5,7,9,11,13,-1,-1,-1,-1,-1,-1,-1,-1],"loss_changes":[2.3760732E9,2.70336E8,5.6701747E9,1.114112E8,5.291213E7,4.2942464E8,1.1327898E8,0E0,0E0,0E0,0E0,0E0,0E0,0E0,0E0],"parents":[2147483647,0,0,1,1,2,2,3,3,4,4,5,5,6,6],"right_children":[2,4,6,8,10,12,14,-1,-1,-1,-1,-1,-1,-1,-1],"split_conditions":[1.175E2,4.5E0,2.565E2,1.45E1,7.4E1,3.55E1,5.5E0,1.0904601E2,1.00156494E2,1.02842476E2,9.401675E1,1.3496156E2,1.5444911E2,1.1148672E2,1.0279775E2],"split_indices":[4,3,4,1,4,1,3,0,0,0,0,0,0,0,0],"split_type":[0,0,0,0,0,0,0,0,0,0,0,0,0,0,0],"sum_hessian":[6.727E3,3.216E3,3.511E3,2.315E3,9.01E2,8.95E2,2.616E3,1.979E3,3.36E2,6.13E2,2.88E2,6.79E2,2.16E2,2.256E3,3.6E2],"tree_param":{"num_deleted":"0","num_feature":"11","num_nodes":"15","size_leaf_vector":"0"}},{"base_weights":[1.1095034E4,1.0462675E4,1.1671117E4,1.067225E4,9.912964E3,1.3843675E4,1.0922824E4,1.0795611E4,9.915791E3,1.0181573E4,9.307983E3,1.3361394E4,1.5291175E4,1.1037235E4,1.0177263E4],"categories":[],"categories_nodes":[],"categories_segments":[],"categories_sizes":[],"default_left":[1,1,1,1,1,1,1,0,0,0,0,0,0,0,0],"id":1,"left_children":[1,3,5,7,9,11,13,-1,-1,-1,-1,-1,-1,-1,-1],"loss_changes":[2.3288218E9,2.6483098E8,5.558305E9,1.0908467E8,5.18144E7,4.211835E8,1.1088691E8,0E0,0E0,0E0,0E0,0E0,0E0,0E0,0E0],"parents":[2147483647,0,0,1,1,2,2,3,3,4,4,5,5,6,6],"right_children":[2,4,6,8,10,12,14,-1,-1,-1,-1,-1,-1,-1,-1],"split_conditions":[1.175E2,4.5E0,2.565E2,1.45E1,7.4E1,3.55E1,5.5E0,1.0795611E2,9.9157906E1,1.0181573E2,9.3079834E1,1.3361394E2,1.5291174E2,1.1037235E2,1.0177262E2],"split_indices":[4,3,4,1,4,1,3,0,0,0,0,0,0,0,0],"split_type":[0,0,0,0,0,0,0,0,0,0,0,0,0,0,0],"sum_hessian":[6.727E3,3.216E3,3.511E3,2.315E3,9.01E2,8.95E2,2.616E3,1.979E3,3.36E2,6.13E2,2.88E2,6.79E2,2.16E2,2.256E3,3.6E2],"tree_param":{"num_deleted":"0","num_feature":"11","num_nodes":"15","size_leaf_vector":"0"}},{"base_weights":[1.0984218E4,1.0358173E4,1.1554548E4,1.0565617E4,9.81405E3,1.3705558E4,1.0813677E4,1.0687709E4,9.816927E3,1.0030188E4,9.085549E3,1.215516E4,1.4130771E4,1.0926911E4,1.0075772E4],"categories":[],"categories_nodes":[],"categories_segments":[],"categories_sizes":[],"default_left":[1,1,1,1,1,1,1,0,0,0,0,0,0,0,0],"id":2,"left_children":[1,3,5,7,9,11,13,-1,-1,-1,-1,-1,-1,-1,-1],"loss_changes":[2.2825533E9,2.5942426E8,5.4485975E9,1.0677453E8,5.0888704E7,4.1893888E8,1.0856038E8,0E0,0E0,0E0,0E0,0E0,0E0,0E0,0E0],"parents":[2147483647,0,0,1,1,2,2,3,3,4,4,5,5,6,6],"right_children":[2,4,6,8,10,12,14,-1,-1,-1,-1,-1,-1,-1,-1],"split_conditions":[1.175E2,4.5E0,2.565E2,1.45E1,8.45E1,2.275E2,5.5E0,1.0687709E2,9.8169266E1,1.0030188E2,9.0855484E1,1.215516E2,1.4130771E2,1.0926911E2,1.0075772E2],"split_indices":[4,3,4,1,4,4,3,0,0,0,0,0,0,0,0],"split_type":[0,0,0,0,0,0,0,0,0,0,0,0,0,0,0],"sum_hessian":[6.727E3,3.216E3,3.511E3,2.315E3,9.01E2,8.95E2,2.616E3,1.979E3,3.36E2,6.85E2,2.16E2,1.99E2,6.96E2,2.256E3,3.6E2],"tree_param":{"num_deleted":"0","num_feature":"11","num_nodes":"15","size_leaf_vector":"0"}},{"base_weights":[1.0874505E4,1.0254715E4,1.1439138E4,1.046005E4,9.716122E3,1.3568796E4,1.0705621E4,1.0580887E4,9.719049E3,9.979785E3,9.122331E3,1.3092658E4,1.4998312E4,1.081769E4,9.975293E3],"categories":[],"categories_nodes":[],"categories_segments":[],"categories_sizes":[],"default_left":[1,1,1,1,1,1,1,0,0,0,0,0,0,0,0],"id":3,"left_children":[1,3,5,7,9,11,13,-1,-1,-1,-1,-1,-1,-1,-1],"loss_changes":[2.2372024E9,2.541486E8,5.3409874E9,1.0457907E8,5.0176E7,4.134994E8,1.0633216E8,0E0,0E0,0E0,0E0,0E0,0E0,0E0,0E0],"parents":[2147483647,0,0,1,1,2,2,3,3,4,4,5,5,6,6],"right_children":[2,4,6,8,10,12,14,-1,-1,-1,-1,-1,-1,-1,-1],"split_conditions":[1.175E2,4.5E0,2.565E2,1.45E1,7.4E1,3.55E1,5.5E0,1.0580887E2,9.719048E1,9.979785E1,9.1223305E1,1.3092657E2,1.4998311E2,1.081769E2,9.975293E1],"split_indices":[4,3,4,1,4,1,3,0,0,0,0,0,0,0,0],"split_type":[0,0,0,0,0,0,0,0,0,0,0,0,0,0,0],"sum_hessian":[6.727E3,3.216E3,3.511E3,2.315E3,9.01E2,8.95E2,2.616E3,1.979E3,3.36E2,6.13E2,2.88E2,6.79E2,2.16E2,2.256E3,3.6E2],"tree_param":{"num_deleted":"0","num_feature":"11","num_nodes":"15","size_leaf_vector":"0"}},{"base_weights":[1.0765891E4,1.0152289E4,1.1324885E4,1.0355536E4,9.619172E3,1.3433421E4,1.0598644E4,1.047513E4,9.622147E3,9.83128E3,8.904309E3,1.1903944E4,1.3853022E4,1.07095625E4,9.875816E3],"categories":[],"categories_nodes":[],"categories_segments":[],"categories_sizes":[],"default_left":[1,1,1,1,1,1,1,0,0,0,0,0,0,0,0],"id":4,"left_children":[1,3,5,7,9,11,13,-1,-1,-1,-1,-1,-1,-1,-1],"loss_changes":[2.192769E9,2.4897126E8,5.2356055E9,1.0233446E8,4.922573E7,4.101243E8,1.040384E8,0E0,0E0,0E0,0E0,0E0,0E0,0E0,0E0],"parents":[2147483647,0,0,1,1,2,2,3,3,4,4,5,5,6,6],"right_children":[2,4,6,8,10,12,14,-1,-1,-1,-1,-1,-1,-1,-1],"split_conditions":[1.175E2,4.5E0,2.565E2,1.45E1,8.45E1,2.275E2,5.5E0,1.047513E2,9.622147E1,9.83128E1,8.904308E1,1.19039444E2,1.3853023E2,1.0709562E2,9.875816E1],"split_indices":[4,3,4,1,4,4,3,0,0,0,0,0,0,0,0],"split_type":[0,0,0,0,0,0,0,0,0,0,0,0,0,0,0],"sum_hessian":[6.727E3,3.216E3,3.511E3,2.315E3,9.01E2,8.95E2,2.616E3,1.979E3,3.36E2,6.85E2,2.16E2,1.99E2,6.96E2,2.256E3,3.6E2],"tree_param":{"num_deleted":"0","num_feature":"11","num_nodes":"15","size_leaf_vector":"0"}},{"base_weights":[1.0658358E4,1.0050888E4,1.1211769E4,1.0252067E4,9.523188E3,1.3299375E4,1.0492736E4,1.0370433E4,9.526211E3,9.781997E3,8.940379E3,1.2829302E4,1.4711128E4,1.0602514E4,9.777332E3],"categories":[],"categories_nodes":[],"categories_segments":[],"categories_sizes":[],"default_left":[1,1,1,1,1,1,1,0,0,0,0,0,0,0,0],"id":5,"left_children":[1,3,5,7,9,11,13,-1,-1,-1,-1,-1,-1,-1,-1],"loss_changes":[2.1491876E9,2.4389222E8,5.132157E9,1.0018816E8,4.8603136E7,4.0586445E8,1.0187571E8,0E0,0E0,0E0,0E0,0E0,0E0,0E0,0E0],"parents":[2147483647,0,0,1,1,2,2,3,3,4,4,5,5,6,6],"right_children":[2,4,6,8,10,12,14,-1,-1,-1,-1,-1,-1,-1,-1],"split_conditions":[1.175E2,4.5E0,2.565E2,1.45E1,7.4E1,3.55E1,5.5E0,1.0370432E2,9.526211E1,9.781997E1,8.9403786E1,1.2829301E2,1.4711128E2,1.0602513E2,9.7773315E1],"split_indices":[4,3,4,1,4,1,3,0,0,0,0,0,0,0,0],"split_type":[0,0,0,0,0,0,0,0,0,0,0,0,0,0,0],"sum_hessian":[6.727E3,3.216E3,3.511E3,2.315E3,9.01E2,8.95E2,2.616E3,1.979E3,3.36E2,6.13E2,2.88E2,6.79E2,2.16E2,2.256E3,3.6E2],"tree_param":{"num_deleted":"0","num_feature":"11","num_nodes":"15","size_leaf_vector":"0"}},{"base_weights":[1.0551903E4,9.950499E3,1.1099787E4,1.0149633E4,9.428164E3,1.3130133E4,1.0375137E4,1.0291463E4,9.550172E3,9.636316E3,8.726685E3,1.4502494E4,1.265434E4,1.0482897E4,9.67983E3],"categories":[],"categories_nodes":[],"categories_segments":[],"categories_sizes":[],"default_left":[1,1,1,1,1,1,1,0,0,0,0,0,0,0,0],"id":6,"left_children":[1,3,5,7,9,11,13,-1,-1,-1,-1,-1,-1,-1,-1],"loss_changes":[2.1064581E9,2.3891149E8,5.0309693E9,9.86153E7,4.7611904E7,4.171858E8,9.279898E7,0E0,0E0,0E0,0E0,0E0,0E0,0E0,0E0],"parents":[2147483647,0,0,1,1,2,2,3,3,4,4,5,5,6,6],"right_children":[2,4,6,8,10,12,14,-1,-1,-1,-1,-1,-1,-1,-1],"split_conditions":[1.175E2,4.5E0,2.575E2,1.35E1,8.45E1,9.5E0,5.5E0,1.0291463E2,9.550172E1,9.636316E1,8.7266846E1,1.4502493E2,1.26543396E2,1.0482897E2,9.67983E1],"split_indices":[4,3,4,1,4,0,3,0,0,0,0,0,0,0,0],"split_type":[0,0,0,0,0,0,0,0,0,0,0,0,0,0,0],"sum_hessian":[6.727E3,3.216E3,3.511E3,2.315E3,9.01E2,9.19E2,2.592E3,1.859E3,4.56E2,6.85E2,2.16E2,2.29E2,6.9E2,2.232E3,3.6E2],"tree_param":{"num_deleted":"0","num_feature":"11","num_nodes":"15","size_leaf_vector":"0"}},{"base_weights":[1.0446511E4,9.858412E3,1.099584E4,1.0052877E4,9.353078E3,1.3164318E4,1.0284003E4,1.0193104E4,9.523157E3,9.58813E3,8.852508E3,1.2713699E4,1.4428514E4,1.0391521E4,9.583299E3],"categories":[],"categories_nodes":[],"categories_segments":[],"categories_sizes":[],"default_left":[1,1,1,1,1,1,1,0,0,0,0,0,0,0,0],"id":7,"left_children":[1,3,5,7,9,11,13,-1,-1,-1,-1,-1,-1,-1,-1],"loss_changes":[2.0651704E9,2.261975E8,5.2208927E9,7.675904E7,2.3363584E7,3.0305485E8,9.755034E7,0E0,0E0,0E0,0E0,0E0,0E0,0E0,0E0],"parents":[2147483647,0,0,1,1,2,2,3,3,4,4,5,5,6,6],"right_children":[2,4,6,8,10,12,14,-1,-1,-1,-1,-1,-1,-1,-1],"split_conditions":[1.7E2,4.5E0,2.565E2,8.95E1,7.4E1,3.55E1,5.5E0,1.0193103E2,9.523157E1,9.5881294E1,8.852508E1,1.27136986E2,1.4428514E2,1.03915215E2,9.5832985E1],"split_indices":[4,3,4,4,4,1,3,0,0,0,0,0,0,0,0],"split_type":[0,0,0,0,0,0,0,0,0,0,0,0,0,0,0],"sum_hessian":[6.727E3,3.258E3,3.469E3,2.339E3,9.19E2,8.53E2,2.616E3,1.835E3,5.04E2,6.13E2,3.06E2,6.37E2,2.16E2,2.256E3,3.6E2],"tree_param":{"num_deleted":"0","num_feature":"11","num_nodes":"15","size_leaf_vector":"0"}},{"base_weights":[1.0342173E4,9.752565E3,1.087931E4,9.947724E3,9.24066E3,1.2870295E4,1.016871E4,1.0062975E4,9.241064E3,9.492405E3,8.673835E3,1.4222568E4,1.2401564E4,1.0274247E4,9.487731E3],"categories":[],"categories_nodes":[],"categories_segments":[],"categories_sizes":[],"default_left":[1,1,1,1,1,1,1,0,0,0,0,0,0,0,0],"id":8,"left_children":[1,3,5,7,9,11,13,-1,-1,-1,-1,-1,-1,-1,-1],"loss_changes":[2.0246692E9,2.2944154E8,4.8379003E9,9.561702E7,4.637491E7,4.0676557E8,8.88832E7,0E0,0E0,0E0,0E0,0E0,0E0,0E0,0E0],"parents":[2147483647,0,0,1,1,2,2,3,3,4,4,5,5,6,6],"right_children":[2,4,6,8,10,12,14,-1,-1,-1,-1,-1,-1,-1,-1],"split_conditions":[1.175E2,4.5E0,2.575E2,1.45E1,7.4E1,9.5E0,5.5E0,1.00629745E2,9.2410645E1,9.492405E1,8.673835E1,1.4222568E2,1.2401564E2,1.0274247E2,9.487731E1],"split_indices":[4,3,4,1,4,0,3,0,0,0,0,0,0,0,0],"split_type":[0,0,0,0,0,0,0,0,0,0,0,0,0,0,0],"sum_hessian":[6.727E3,3.216E3,3.511E3,2.315E3,9.01E2,9.19E2,2.592E3,1.979E3,3.36E2,6.13E2,2.88E2,2.29E2,6.9E2,2.232E3,3.6E2],"tree_param":{"num_deleted":"0","num_feature":"11","num_nodes":"15","size_leaf_vector":"0"}},{"base_weights":[1.0238876E4,9.662192E3,1.0777542E4,9.852786E3,9.16692E3,1.2904239E4,1.0079424E4,9.990653E3,9.332041E3,9.397635E3,8.675629E3,1.245983E4,1.415138E4,1.01847295E4,9.393117E3],"categories":[],"categories_nodes":[],"categories_segments":[],"categories_sizes":[],"default_left":[1,1,1,1,1,1,1,0,0,0,0,0,0,0,0],"id":9,"left_children":[1,3,5,7,9,11,13,-1,-1,-1,-1,-1,-1,-1,-1],"loss_changes":[1.9858063E9,2.1735014E8,5.0217943E9,7.476019E7,2.2749184E7,2.9699277E8,9.347072E7,0E0,0E0,0E0,0E0,0E0,0E0,0E0,0E0],"parents":[2147483647,0,0,1,1,2,2,3,3,4,4,5,5,6,6],"right_children":[2,4,6,8,10,12,14,-1,-1,-1,-1,-1,-1,-1,-1],"split_conditions":[1.7E2,4.5E0,2.565E2,8.95E1,7.4E1,3.55E1,5.5E0,9.990653E1,9.332041E1,9.397635E1,8.675629E1,1.245983E2,1.415138E2,1.0184729E2,9.393117E1],"split_indices":[4,3,4,4,4,1,3,0,0,0,0,0,0,0,0],"split_type":[0,0,0,0,0,0,0,0,0,0,0,0,0,0,0],"sum_hessian":[6.727E3,3.258E3,3.469E3,2.339E3,9.19E2,8.53E2,2.616E3,1.835E3,5.04E2,6.13E2,3.06E2,6.37E2,2.16E2,2.256E3,3.6E2],"tree_param":{"num_deleted":"0","num_feature":"11","num_nodes":"15","size_leaf_vector":"0"}},{"base_weights":[1.0136611E4,9.565686E3,1.0669899E4,9.754341E3,9.075447E3,1.2775509E4,9.978703E3,9.890802E3,9.238905E3,9.3038125E3,8.589155E3,1.2335426E4,1.4010518E4,1.0082928E4,9.299446E3],"categories":[],"categories_nodes":[],"categories_segments":[],"categories_sizes":[],"default_left":[1,1,1,1,1,1,1,0,0,0,0,0,0,0,0],"id":10,"left_children":[1,3,5,7,9,11,13,-1,-1,-1,-1,-1,-1,-1,-1],"loss_changes":[1.9464192E9,2.128937E8,4.9227366E9,7.320371E7,2.2257664E7,2.913239E8,9.150464E7,0E0,0E0,0E0,0E0,0E0,0E0,0E0,0E0],"parents":[2147483647,0,0,1,1,2,2,3,3,4,4,5,5,6,6],"right_children":[2,4,6,8,10,12,14,-1,-1,-1,-1,-1,-1,-1,-1],"split_conditions":[1.7E2,4.5E0,2.565E2,8.95E1,7.4E1,3.55E1,5.5E0,9.890801E1,9.238905E1,9.3038124E1,8.589155E1,1.23354256E2,1.4010518E2,1.0082928E2,9.299446E1],"split_indices":[4,3,4,4,4,1,3,0,0,0,0,0,0,0,0],"split_type":[0,0,0,0,0,0,0,0,0,0,0,0,0,0,0],"sum_hessian":[6.727E3,3.258E3,3.469E3,2.339E3,9.19E2,8.53E2,2.616E3,1.835E3,5.04E2,6.13E2,3.06E2,6.37E2,2.16E2,2.256E3,3.6E2],"tree_param":{"num_deleted":"0","num_feature":"11","num_nodes":"15","size_leaf_vector":"0"}},{"base_weights":[1.0035368E4,9.458765E3,1.0553202E4,9.613877E3,8.806056E3,1.2427756E4,9.8666875E3,9.7877E3,9.144971E3,9.028107E3,8.26225E3,1.0943631E4,1.2871606E4,9.968965E3,9.20671E3],"categories":[],"categories_nodes":[],"categories_segments":[],"categories_sizes":[],"default_left":[1,1,1,1,1,1,1,0,0,0,0,0,0,0,0],"id":11,"left_children":[1,3,5,7,9,11,13,-1,-1,-1,-1,-1,-1,-1,-1],"loss_changes":[1.9090637E9,2.3861658E8,4.4278743E9,1.1988173E8,8.8064E5,4.809851E8,8.326349E7,0E0,0E0,0E0,0E0,0E0,0E0,0E0,0E0],"parents":[2147483647,0,0,1,1,2,2,3,3,4,4,5,5,6,6],"right_children":[2,4,6,8,10,12,14,-1,-1,-1,-1,-1,-1,-1,-1],"split_conditions":[1.165E2,9.05E1,2.575E2,4.5E0,4.5E0,2.275E2,5.5E0,9.7877E1,9.144971E1,9.0281075E1,8.26225E1,1.0943631E2,1.2871606E2,9.9689644E1,9.20671E1],"split_indices":[4,4,4,3,3,4,3,0,0,0,0,0,0,0,0],"split_type":[0,0,0,0,0,0,0,0,0,0,0,0,0,0,0],"sum_hessian":[6.727E3,3.192E3,3.535E3,2.568E3,6.24E2,9.43E2,2.592E3,1.859E3,7.09E2,4.32E2,1.92E2,2.23E2,7.2E2,2.232E3,3.6E2],"tree_param":{"num_deleted":"0","num_feature":"11","num_nodes":"15","size_leaf_vector":"0"}},{"base_weights":[9.935133E3,9.375365E3,1.0457999E4,9.56021E3,8.895027E3,1.2523041E4,9.780122E3,9.694123E3,9.054415E3,9.119625E3,8.416857E3,1.2088495E4,1.3742936E4,9.944476E3,9.353792E3],"categories":[],"categories_nodes":[],"categories_segments":[],"categories_sizes":[],"default_left":[1,1,1,1,1,1,1,0,0,0,0,0,0,0,0],"id":12,"left_children":[1,3,5,7,9,11,13,-1,-1,-1,-1,-1,-1,-1,-1],"loss_changes":[1.8711183E9,2.0434125E8,4.734976E9,7.072973E7,2.2044672E7,2.8656435E8,9.034138E7,0E0,0E0,0E0,0E0,0E0,0E0,0E0,0E0],"parents":[2147483647,0,0,1,1,2,2,3,3,4,4,5,5,6,6],"right_children":[2,4,6,8,10,12,14,-1,-1,-1,-1,-1,-1,-1,-1],"split_conditions":[1.7E2,4.5E0,2.565E2,8.95E1,7.4E1,3.55E1,4.5E0,9.694123E1,9.054415E1,9.119625E1,8.416857E1,1.2088495E2,1.3742935E2,9.9444756E1,9.353792E1],"split_indices":[4,3,4,4,4,1,3,0,0,0,0,0,0,0,0],"split_type":[0,0,0,0,0,0,0,0,0,0,0,0,0,0,0],"sum_hessian":[6.727E3,3.258E3,3.469E3,2.339E3,9.19E2,8.53E2,2.616E3,1.835E3,5.04E2,6.13E2,3.06E2,6.37E2,2.16E2,1.872E3,7.44E2],"tree_param":{"num_deleted":"0","num_feature":"11","num_nodes":"15","size_leaf_vector":"0"}},{"base_weights":[9.835902E3,9.270548E3,1.0343634E4,9.396473E3,8.496094E3,1.2181977E4,9.670383E3,9.570841E3,8.928604E3,1.0723791E4,1.2618108E4,9.770936E3,9.021618E3],"categories":[],"categories_nodes":[],"categories_segments":[],"categories_sizes":[],"default_left":[1,1,1,1,0,1,1,0,0,0,0,0,0],"id":13,"left_children":[1,3,5,7,-1,9,11,-1,-1,-1,-1,-1,-1],"loss_changes":[1.8353357E9,2.3157146E8,4.258562E9,1.378386E8,0E0,4.6502707E8,8.10025E7,0E0,0E0,0E0,0E0,0E0,0E0],"parents":[2147483647,0,0,1,1,2,2,3,3,5,5,6,6],"right_children":[2,4,6,8,-1,10,12,-1,-1,-1,-1,-1,-1],"split_conditions":[1.165E2,9.75E1,2.575E2,4.5E0,8.496094E1,2.275E2,5.5E0,9.5708405E1,8.928603E1,1.0723791E2,1.2618108E2,9.770935E1,9.021618E1],"split_indices":[4,4,4,3,0,4,3,0,0,0,0,0,0],"split_type":[0,0,0,0,0,0,0,0,0,0,0,0,0],"sum_hessian":[6.727E3,3.192E3,3.535E3,2.736E3,4.56E2,9.43E2,2.592E3,1.979E3,7.57E2,2.23E2,7.2E2,2.232E3,3.6E2],"tree_param":{"num_deleted":"0","num_feature":"11","num_nodes":"13","size_leaf_vector":"0"}},{"base_weights":[9.7376455E3,9.177928E3,1.0240316E4,9.302575E3,8.411319E3,1.2060404E4,9.573752E3,9.475181E3,8.839435E3,1.0617031E4,1.2492103E4,9.67327E3,8.931652E3],"categories":[],"categories_nodes":[],"categories_segments":[],"categories_sizes":[],"default_left":[1,1,1,1,0,1,1,0,0,0,0,0,0],"id":14,"left_children":[1,3,5,7,-1,9,11,-1,-1,-1,-1,-1,-1],"loss_changes":[1.7989632E9,2.2686925E8,4.1744138E9,1.3503693E8,0E0,4.555817E8,7.929856E7,0E0,0E0,0E0,0E0,0E0,0E0],"parents":[2147483647,0,0,1,1,2,2,3,3,5,5,6,6],"right_children":[2,4,6,8,-1,10,12,-1,-1,-1,-1,-1,-1],"split_conditions":[1.165E2,9.75E1,2.575E2,4.5E0,8.411319E1,2.275E2,5.5E0,9.475181E1,8.839434E1,1.0617031E2,1.2492102E2,9.67327E1,8.931652E1],"split_indices":[4,4,4,3,0,4,3,0,0,0,0,0,0],"split_type":[0,0,0,0,0,0,0,0,0,0,0,0,0],"sum_hessian":[6.727E3,3.192E3,3.535E3,2.736E3,4.56E2,9.43E2,2.592E3,1.979E3,7.57E2,2.23E2,7.2E2,2.232E3,3.6E2],"tree_param":{"num_deleted":"0","num_feature":"11","num_nodes":"13","size_leaf_vector":"0"}},{"base_weights":[9.640371E3,9.096817E3,1.0148095E4,9.276689E3,8.629428E3,1.2154235E4,9.489558E3,9.406879E3,8.784999E3,8.851186E3,8.1578037E3,1.3312584E4,1.1708517E4,9.843337E3,9.294549E3],"categories":[],"categories_nodes":[],"categories_segments":[],"categories_sizes":[],"default_left":[1,1,1,1,1,1,1,0,0,0,0,0,0,0,0],"id":15,"left_children":[1,3,5,7,9,11,13,-1,-1,-1,-1,-1,-1,-1,-1],"loss_changes":[1.7644257E9,1.9392102E8,4.4689654E9,6.714163E7,2.4014848E7,2.8504883E8,8.904704E7,0E0,0E0,0E0,0E0,0E0,0E0,0E0,0E0],"parents":[2147483647,0,0,1,1,2,2,3,3,4,4,5,5,6,6],"right_children":[2,4,6,8,10,12,14,-1,-1,-1,-1,-1,-1,-1,-1],"split_conditions":[1.7E2,4.5E0,2.565E2,8.95E1,7.4E1,9.5E0,2.945E2,9.406879E1,8.784999E1,8.8511856E1,8.157803E1,1.3312584E2,1.1708517E2,9.8433365E1,9.294549E1],"split_indices":[4,3,4,4,4,0,4,0,0,0,0,0,0,0,0],"split_type":[0,0,0,0,0,0,0,0,0,0,0,0,0,0,0],"sum_hessian":[6.727E3,3.258E3,3.469E3,2.339E3,9.19E2,8.53E2,2.616E3,1.835E3,5.04E2,6.13E2,3.06E2,2.29E2,6.24E2,9.12E2,1.704E3],"tree_param":{"num_deleted":"0","num_feature":"11","num_nodes":"15","size_leaf_vector":"0"}},{"base_weights":[9.544085E3,8.999178E3,1.0040504E4,9.179731E3,8.5256045E3,1.1915434E4,9.394735E3,9.286907E3,8.522797E3,8.719245E3,7.874161E3,1.1478161E4,1.3230778E4,9.555155E3,8.978814E3],"categories":[],"categories_nodes":[],"categories_segments":[],"categories_sizes":[],"default_left":[1,1,1,1,1,1,1,0,0,0,0,0,0,0,0],"id":16,"left_children":[1,3,5,7,9,11,13,-1,-1,-1,-1,-1,-1,-1,-1],"loss_changes":[1.7296261E9,1.968046E8,4.1403023E9,8.390246E7,4.512563E7,3.6348723E8,8.881766E7,0E0,0E0,0E0,0E0,0E0,0E0,0E0,0E0],"parents":[2147483647,0,0,1,1,2,2,3,3,4,4,5,5,6,6],"right_children":[2,4,6,8,10,12,14,-1,-1,-1,-1,-1,-1,-1,-1],"split_conditions":[1.175E2,4.5E0,2.565E2,1.45E1,8.45E1,3.55E1,4.5E0,9.286907E1,8.522797E1,8.719245E1,7.874161E1,1.1478161E2,1.3230779E2,9.555155E1,8.978814E1],"split_indices":[4,3,4,1,4,1,3,0,0,0,0,0,0,0,0],"split_type":[0,0,0,0,0,0,0,0,0,0,0,0,0,0,0],"sum_hessian":[6.727E3,3.216E3,3.511E3,2.315E3,9.01E2,8.95E2,2.616E3,1.979E3,3.36E2,6.85E2,2.16E2,6.79E2,2.16E2,1.872E3,7.44E2],"tree_param":{"num_deleted":"0","num_feature":"11","num_nodes":"15","size_leaf_vector":"0"}},{"base_weights":[9.44876E3,8.915752E3,9.946635E3,9.092044E3,8.457665E3,1.1913905E4,9.300858E3,9.220043E3,8.60868E3,8.675768E3,7.993911E3,1.3056609E4,1.1474328E4,9.651079E3,9.107866E3],"categories":[],"categories_nodes":[],"categories_segments":[],"categories_sizes":[],"default_left":[1,1,1,1,1,1,1,0,0,0,0,0,0,0,0],"id":17,"left_children":[1,3,5,7,9,11,13,-1,-1,-1,-1,-1,-1,-1,-1],"loss_changes":[1.696727E9,1.8628608E8,4.297523E9,6.540493E7,2.3703552E7,2.791506E8,8.896512E7,0E0,0E0,0E0,0E0,0E0,0E0,0E0,0E0],"parents":[2147483647,0,0,1,1,2,2,3,3,4,4,5,5,6,6],"right_children":[2,4,6,8,10,12,14,-1,-1,-1,-1,-1,-1,-1,-1],"split_conditions":[1.7E2,4.5E0,2.565E2,8.95E1,7.4E1,9.5E0,2.945E2,9.2200424E1,8.608679E1,8.6757675E1,7.993911E1,1.3056609E2,1.1474328E2,9.651079E1,9.107866E1],"split_indices":[4,3,4,4,4,0,4,0,0,0,0,0,0,0,0],"split_type":[0,0,0,0,0,0,0,0,0,0,0,0,0,0,0],"sum_hessian":[6.727E3,3.258E3,3.469E3,2.339E3,9.19E2,8.53E2,2.616E3,1.835E3,5.04E2,6.13E2,3.06E2,2.29E2,6.24E2,9.12E2,1.704E3],"tree_param":{"num_deleted":"0","num_feature":"11","num_nodes":"15","size_leaf_vector":"0"}},{"base_weights":[9.354388E3,8.816206E3,9.837719E3,8.936787E3,8.0747495E3,1.1588524E4,9.196532E3,9.102376E3,8.492457E3,1.0185645E4,1.2008297E4,9.294365E3,8.565899E3],"categories":[],"categories_nodes":[],"categories_segments":[],"categories_sizes":[],"default_left":[1,1,1,1,0,1,1,0,0,0,0,0,0],"id":18,"left_children":[1,3,5,7,-1,9,11,-1,-1,-1,-1,-1,-1],"loss_changes":[1.6633692E9,2.1331968E8,3.8628884E9,1.2407603E8,0E0,4.3360256E8,8.03799E7,0E0,0E0,0E0,0E0,0E0,0E0],"parents":[2147483647,0,0,1,1,2,2,3,3,5,5,6,6],"right_children":[2,4,6,8,-1,10,12,-1,-1,-1,-1,-1,-1],"split_conditions":[1.165E2,9.75E1,2.575E2,4.5E0,8.074749E1,2.275E2,5.5E0,9.102376E1,8.492457E1,1.01856445E2,1.2008297E2,9.294365E1,8.565899E1],"split_indices":[4,4,4,3,0,4,3,0,0,0,0,0,0],"split_type":[0,0,0,0,0,0,0,0,0,0,0,0,0],"sum_hessian":[6.727E3,3.192E3,3.535E3,2.736E3,4.56E2,9.43E2,2.592E3,1.979E3,7.57E2,2.23E2,7.2E2,2.232E3,3.6E2],"tree_param":{"num_deleted":"0","num_feature":"11","num_nodes":"13","size_leaf_vector":"0"}},{"base_weights":[9.260941E3,8.738339E3,9.749098E3,8.911362E3,8.288761E3,1.1678462E4,9.115767E3,9.036918E3,8.437239E3,8.504365E3,7.8305513E3,1.1259447E4,1.2856587E4,9.462077E3,8.924978E3],"categories":[],"categories_nodes":[],"categories_segments":[],"categories_sizes":[],"default_left":[1,1,1,1,1,1,1,0,0,0,0,0,0,0,0],"id":19,"left_children":[1,3,5,7,9,11,13,-1,-1,-1,-1,-1,-1,-1,-1],"loss_changes":[1.6311255E9,1.7966694E8,4.1336177E9,6.304563E7,2.4293376E7,2.7682406E8,8.84736E7,0E0,0E0,0E0,0E0,0E0,0E0,0E0,0E0],"parents":[2147483647,0,0,1,1,2,2,3,3,4,4,5,5,6,6],"right_children":[2,4,6,8,10,12,14,-1,-1,-1,-1,-1,-1,-1,-1],"split_conditions":[1.7E2,4.5E0,2.565E2,8.95E1,7.4E1,3.55E1,2.945E2,9.036918E1,8.437239E1,8.504365E1,7.830551E1,1.1259447E2,1.2856587E2,9.4620766E1,8.924977E1],"split_indices":[4,3,4,4,4,1,4,0,0,0,0,0,0,0,0],"split_type":[0,0,0,0,0,0,0,0,0,0,0,0,0,0,0],"sum_hessian":[6.727E3,3.258E3,3.469E3,2.339E3,9.19E2,8.53E2,2.616E3,1.835E3,5.04E2,6.13E2,3.06E2,6.37E2,2.16E2,9.12E2,1.704E3],"tree_param":{"num_deleted":"0","num_feature":"11","num_nodes":"15","size_leaf_vector":"0"}},{"base_weights":[9.168445E3,8.640751E3,9.64236E3,8.759291E3,7.9119023E3,1.135929E4,9.013581E3,8.921511E3,8.323993E3,9.980954E3,1.1771757E4,9.168786E3,8.616282E3],"categories":[],"categories_nodes":[],"categories_segments":[],"categories_sizes":[],"default_left":[1,1,1,1,0,1,1,0,0,0,0,0,0],"id":20,"left_children":[1,3,5,7,-1,9,11,-1,-1,-1,-1,-1,-1],"loss_changes":[1.5992095E9,2.0658586E8,3.714941E9,1.1899699E8,0E0,4.1918464E8,8.087142E7,0E0,0E0,0E0,0E0,0E0,0E0],"parents":[2147483647,0,0,1,1,2,2,3,3,5,5,6,6],"right_children":[2,4,6,8,-1,10,12,-1,-1,-1,-1,-1,-1],"split_conditions":[1.165E2,9.75E1,2.575E2,4.5E0,7.911902E1,2.275E2,4.5E0,8.92151E1,8.323993E1,9.980954E1,1.1771757E2,9.168786E1,8.616282E1],"split_indices":[4,4,4,3,0,4,3,0,0,0,0,0,0],"split_type":[0,0,0,0,0,0,0,0,0,0,0,0,0],"sum_hessian":[6.727E3,3.192E3,3.535E3,2.736E3,4.56E2,9.43E2,2.592E3,1.979E3,7.57E2,2.23E2,7.2E2,1.848E3,7.44E2],"tree_param":{"num_deleted":"0","num_feature":"11","num_nodes":"13","size_leaf_vector":"0"}},{"base_weights":[9.076857E3,8.564458E3,9.555484E3,8.734275E3,8.1232217E3,1.1447673E4,8.934359E3,9.147474E3,8.586213E3,8.336355E3,7.6704937E3,1.2571449E4,1.1015807E4,9.27674E3,8.745779E3],"categories":[],"categories_nodes":[],"categories_segments":[],"categories_sizes":[],"default_left":[1,1,1,1,1,1,1,0,0,0,0,0,0,0,0],"id":21,"left_children":[1,3,5,7,9,11,13,-1,-1,-1,-1,-1,-1,-1,-1],"loss_changes":[1.568211E9,1.7322803E8,3.9759708E9,6.4618496E7,2.4829952E7,2.7598848E8,8.785101E7,0E0,0E0,0E0,0E0,0E0,0E0,0E0,0E0],"parents":[2147483647,0,0,1,1,2,2,3,3,4,4,5,5,6,6],"right_children":[2,4,6,8,10,12,14,-1,-1,-1,-1,-1,-1,-1,-1],"split_conditions":[1.7E2,4.5E0,2.565E2,5.5E0,7.4E1,9.5E0,2.945E2,9.147473E1,8.586213E1,8.3363556E1,7.670493E1,1.2571449E2,1.10158066E2,9.27674E1,8.7457794E1],"split_indices":[4,3,4,1,4,0,4,0,0,0,0,0,0,0,0],"split_type":[0,0,0,0,0,0,0,0,0,0,0,0,0,0,0],"sum_hessian":[6.727E3,3.258E3,3.469E3,2.339E3,9.19E2,8.53E2,2.616E3,6.01E2,1.738E3,6.13E2,3.06E2,2.29E2,6.24E2,9.12E2,1.704E3],"tree_param":{"num_deleted":"0","num_feature":"11","num_nodes":"15","size_leaf_vector":"0"}},{"base_weights":[8.986201E3,8.468836E3,9.450839E3,8.610643E3,7.8724062E3,1.1134428E4,8.834271E3,8.765867E3,8.1918687E3,8.0009673E3,7.0901274E3,1.2446281E4,1.069686E4,8.930465E3,8.214785E3],"categories":[],"categories_nodes":[],"categories_segments":[],"categories_sizes":[],"default_left":[1,1,1,1,1,1,1,0,0,0,0,0,0,0,0],"id":22,"left_children":[1,3,5,7,9,11,13,-1,-1,-1,-1,-1,-1,-1,-1],"loss_changes":[1.537278E9,2.0226048E8,3.5721708E9,9.517466E7,6.127616E6,4.0875622E8,8.116634E7,0E0,0E0,0E0,0E0,0E0,0E0,0E0,0E0],"parents":[2147483647,0,0,1,1,2,2,3,3,4,4,5,5,6,6],"right_children":[2,4,6,8,10,12,14,-1,-1,-1,-1,-1,-1,-1,-1],"split_conditions":[1.165E2,9.05E1,2.575E2,4.5E0,5.5E0,9.5E0,5.5E0,8.765867E1,8.1918686E1,8.0009674E1,7.0901276E1,1.2446281E2,1.069686E2,8.930465E1,8.214785E1],"split_indices":[4,4,4,3,3,0,3,0,0,0,0,0,0,0,0],"split_type":[0,0,0,0,0,0,0,0,0,0,0,0,0,0,0],"sum_hessian":[6.727E3,3.192E3,3.535E3,2.568E3,6.24E2,9.43E2,2.592E3,1.859E3,7.09E2,5.28E2,9.6E1,2.29E2,7.14E2,2.232E3,3.6E2],"tree_param":{"num_deleted":"0","num_feature":"11","num_nodes":"15","size_leaf_vector":"0"}},{"base_weights":[8.896446E3,8.393876E3,9.365894E3,8.560403E3,7.9611924E3,1.12219375E4,8.756636E3,8.968638E3,8.414159E3,8.171343E3,7.51496E3,1.0811471E4,1.2377035E4,8.911533E3,8.355457E3],"categories":[],"categories_nodes":[],"categories_segments":[],"categories_sizes":[],"default_left":[1,1,1,1,1,1,1,0,0,0,0,0,0,0,0],"id":23,"left_children":[1,3,5,7,9,11,13,-1,-1,-1,-1,-1,-1,-1,-1],"loss_changes":[1.508737E9,1.6667443E8,3.8256312E9,6.4241664E7,2.4870912E7,2.7110605E8,8.81623E7,0E0,0E0,0E0,0E0,0E0,0E0,0E0,0E0],"parents":[2147483647,0,0,1,1,2,2,3,3,4,4,5,5,6,6],"right_children":[2,4,6,8,10,12,14,-1,-1,-1,-1,-1,-1,-1,-1],"split_conditions":[1.7E2,4.5E0,2.565E2,5.5E0,7.4E1,3.55E1,4.5E0,8.968638E1,8.414159E1,8.1713425E1,7.51496E1,1.0811471E2,1.2377035E2,8.911533E1,8.3554565E1],"split_indices":[4,3,4,1,4,1,3,0,0,0,0,0,0,0,0],"split_type":[0,0,0,0,0,0,0,0,0,0,0,0,0,0,0],"sum_hessian":[6.727E3,3.258E3,3.469E3,2.339E3,9.19E2,8.53E2,2.616E3,6.01E2,1.738E3,6.13E2,3.06E2,6.37E2,2.16E2,1.872E3,7.44E2],"tree_param":{"num_deleted":"0","num_feature":"11","num_nodes":"15","size_leaf_vector":"0"}},{"base_weights":[8.807591E3,8.310038E3,9.272352E3,8.474873E3,7.8817515E3,1.110999E4,8.669136E3,8.8791E3,8.330065E3,8.0897627E3,7.440055E3,1.0703525E4,1.2253835E4,9.007788E3,8.482708E3],"categories":[],"categories_nodes":[],"categories_segments":[],"categories_sizes":[],"default_left":[1,1,1,1,1,1,1,0,0,0,0,0,0,0,0],"id":24,"left_children":[1,3,5,7,9,11,13,-1,-1,-1,-1,-1,-1,-1,-1],"loss_changes":[1.4787543E9,1.6328294E8,3.7501665E9,6.3012864E7,2.4346624E7,2.6588774E8,8.880128E7,0E0,0E0,0E0,0E0,0E0,0E0,0E0,0E0],"parents":[2147483647,0,0,1,1,2,2,3,3,4,4,5,5,6,6],"right_children":[2,4,6,8,10,12,14,-1,-1,-1,-1,-1,-1,-1,-1],"split_conditions":[1.7E2,4.5E0,2.565E2,5.5E0,7.4E1,3.55E1,2.945E2,8.879099E1,8.330065E1,8.089763E1,7.440055E1,1.0703525E2,1.22538345E2,9.007788E1,8.482708E1],"split_indices":[4,3,4,1,4,1,4,0,0,0,0,0,0,0,0],"split_type":[0,0,0,0,0,0,0,0,0,0,0,0,0,0,0],"sum_hessian":[6.727E3,3.258E3,3.469E3,2.339E3,9.19E2,8.53E2,2.616E3,6.01E2,1.738E3,6.13E2,3.06E2,6.37E2,2.16E2,9.12E2,1.704E3],"tree_param":{"num_deleted":"0","num_feature":"11","num_nodes":"15","size_leaf_vector":"0"}},{"base_weights":[8.719624E3,8.227038E3,9.179744E3,8.390198E3,7.8031025E3,1.0999159E4,8.582512E3,8.790456E3,8.246813E3,8.287102E3,7.6070923E3,1.2091889E4,1.0579436E4,8.7358E3,8.18561E3],"categories":[],"categories_nodes":[],"categories_segments":[],"categories_sizes":[],"default_left":[1,1,1,1,1,1,1,0,0,0,0,0,0,0,0],"id":25,"left_children":[1,3,5,7,9,11,13,-1,-1,-1,-1,-1,-1,-1,-1],"loss_changes":[1.4493614E9,1.5997338E8,3.6761436E9,6.1784064E7,2.4240128E7,2.6375782E8,8.771994E7,0E0,0E0,0E0,0E0,0E0,0E0,0E0,0E0],"parents":[2147483647,0,0,1,1,2,2,3,3,4,4,5,5,6,6],"right_children":[2,4,6,8,10,12,14,-1,-1,-1,-1,-1,-1,-1,-1],"split_conditions":[1.7E2,4.5E0,2.565E2,5.5E0,5.5E0,9.5E0,4.5E0,8.790456E1,8.246813E1,8.287102E1,7.607092E1,1.20918884E2,1.0579435E2,8.7357994E1,8.1856094E1],"split_indices":[4,3,4,1,1,0,3,0,0,0,0,0,0,0,0],"split_type":[0,0,0,0,0,0,0,0,0,0,0,0,0,0,0],"sum_hessian":[6.727E3,3.258E3,3.469E3,2.339E3,9.19E2,8.53E2,2.616E3,6.01E2,1.738E3,2.53E2,6.66E2,2.29E2,6.24E2,1.872E3,7.44E2],"tree_param":{"num_deleted":"0","num_feature":"11","num_nodes":"15","size_leaf_vector":"0"}},{"base_weights":[8.632536E3,8.1351235E3,9.079257E3,8.249877E3,7.430058E3,1.0698738E4,8.486171E3,8.402884E3,7.8393174E3,9.373901E3,1.1095499E4,8.580113E3,7.8815747E3],"categories":[],"categories_nodes":[],"categories_segments":[],"categories_sizes":[],"default_left":[1,1,1,1,0,1,1,0,0,0,0,0,0],"id":26,"left_children":[1,3,5,7,-1,9,11,-1,-1,-1,-1,-1,-1],"loss_changes":[1.4211154E9,1.9705037E8,3.3055048E9,1.0605363E8,0E0,3.922002E8,7.965901E7,0E0,0E0,0E0,0E0,0E0,0E0],"parents":[2147483647,0,0,1,1,2,2,3,3,5,5,6,6],"right_children":[2,4,6,8,-1,10,12,-1,-1,-1,-1,-1,-1],"split_conditions":[1.165E2,9.75E1,2.575E2,4.5E0,7.430058E1,2.275E2,5.5E0,8.402884E1,7.839317E1,9.373901E1,1.1095499E2,8.580113E1,7.881574E1],"split_indices":[4,4,4,3,0,4,3,0,0,0,0,0,0],"split_type":[0,0,0,0,0,0,0,0,0,0,0,0,0],"sum_hessian":[6.727E3,3.192E3,3.535E3,2.736E3,4.56E2,9.43E2,2.592E3,1.979E3,7.57E2,2.23E2,7.2E2,2.232E3,3.6E2],"tree_param":{"num_deleted":"0","num_feature":"11","num_nodes":"13","size_leaf_vector":"0"}},{"base_weights":[8.546301E3,8.06334E3,8.997431E3,8.223475E3,7.647277E3,1.0781772E4,8.411713E3,8.61881E3,8.0818896E3,7.8519824E3,7.212956E3,1.03819E4,1.1907746E4,8.746543E3,8.227483E3],"categories":[],"categories_nodes":[],"categories_segments":[],"categories_sizes":[],"default_left":[1,1,1,1,1,1,1,0,0,0,0,0,0,0,0],"id":27,"left_children":[1,3,5,7,9,11,13,-1,-1,-1,-1,-1,-1,-1,-1],"loss_changes":[1.3933281E9,1.5425536E8,3.5358638E9,6.132531E7,2.5157632E7,2.6088243E8,8.947302E7,0E0,0E0,0E0,0E0,0E0,0E0,0E0,0E0],"parents":[2147483647,0,0,1,1,2,2,3,3,4,4,5,5,6,6],"right_children":[2,4,6,8,10,12,14,-1,-1,-1,-1,-1,-1,-1,-1],"split_conditions":[1.7E2,4.5E0,2.565E2,5.5E0,7.4E1,3.55E1,2.945E2,8.6188095E1,8.081889E1,7.851982E1,7.212956E1,1.03819E2,1.1907746E2,8.746543E1,8.227483E1],"split_indices":[4,3,4,1,4,1,4,0,0,0,0,0,0,0,0],"split_type":[0,0,0,0,0,0,0,0,0,0,0,0,0,0,0],"sum_hessian":[6.727E3,3.258E3,3.469E3,2.339E3,9.19E2,8.53E2,2.616E3,6.01E2,1.738E3,6.13E2,3.06E2,6.37E2,2.16E2,9.12E2,1.704E3],"tree_param":{"num_deleted":"0","num_feature":"11","num_nodes":"15","size_leaf_vector":"0"}},{"base_weights":[8.460943E3,7.9732676E3,8.89892E3,8.0864414E3,7.278016E3,1.0486957E4,8.317353E3,8.23649E3,7.6838257E3,1.1750667E4,1.0065782E4,8.410327E3,7.7192056E3],"categories":[],"categories_nodes":[],"categories_segments":[],"categories_sizes":[],"default_left":[1,1,1,1,0,1,1,0,0,0,0,0,0],"id":28,"left_children":[1,3,5,7,-1,9,11,-1,-1,-1,-1,-1,-1],"loss_changes":[1.3660979E9,1.9239731E8,3.1784632E9,1.0205594E8,0E0,3.8416384E8,7.926579E7,0E0,0E0,0E0,0E0,0E0,0E0],"parents":[2147483647,0,0,1,1,2,2,3,3,5,5,6,6],"right_children":[2,4,6,8,-1,10,12,-1,-1,-1,-1,-1,-1],"split_conditions":[1.165E2,9.75E1,2.575E2,4.5E0,7.278016E1,9.5E0,5.5E0,8.23649E1,7.683826E1,1.1750667E2,1.0065782E2,8.410327E1,7.7192055E1],"split_indices":[4,4,4,3,0,0,3,0,0,0,0,0,0],"split_type":[0,0,0,0,0,0,0,0,0,0,0,0,0],"sum_hessian":[6.727E3,3.192E3,3.535E3,2.736E3,4.56E2,9.43E2,2.592E3,1.979E3,7.57E2,2.29E2,7.14E2,2.232E3,3.6E2],"tree_param":{"num_deleted":"0","num_feature":"11","num_nodes":"13","size_leaf_vector":"0"}},{"base_weights":[8.376425E3,7.9027183E3,8.818912E3,8.059884E3,7.494382E3,1.0569158E4,8.244389E3,8.178167E3,7.6138887E3,7.9717256E3,7.301369E3,1.0174866E4,1.1679707E4,8.575635E3,8.0621753E3],"categories":[],"categories_nodes":[],"categories_segments":[],"categories_sizes":[],"default_left":[1,1,1,1,1,1,1,0,0,0,0,0,0,0,0],"id":29,"left_children":[1,3,5,7,9,11,13,-1,-1,-1,-1,-1,-1,-1,-1],"loss_changes":[1.3405389E9,1.4875034E8,3.402154E9,6.1177856E7,2.6554368E7,2.5510707E8,8.883405E7,0E0,0E0,0E0,0E0,0E0,0E0,0E0,0E0],"parents":[2147483647,0,0,1,1,2,2,3,3,4,4,5,5,6,6],"right_children":[2,4,6,8,10,12,14,-1,-1,-1,-1,-1,-1,-1,-1],"split_conditions":[1.7E2,4.5E0,2.565E2,8.95E1,5.5E0,3.55E1,2.945E2,8.178167E1,7.6138885E1,7.9717255E1,7.301369E1,1.0174866E2,1.16797066E2,8.575635E1,8.062175E1],"split_indices":[4,3,4,4,1,1,4,0,0,0,0,0,0,0,0],"split_type":[0,0,0,0,0,0,0,0,0,0,0,0,0,0,0],"sum_hessian":[6.727E3,3.258E3,3.469E3,2.339E3,9.19E2,8.53E2,2.616E3,1.835E3,5.04E2,2.53E2,6.66E2,6.37E2,2.16E2,9.12E2,1.704E3],"tree_param":{"num_deleted":"0","num_feature":"11","num_nodes":"15","size_leaf_vector":"0"}},{"base_weights":[8.292764E3,7.8237866E3,8.730834E3,7.979352E3,7.4196045E3,1.0463723E4,8.162008E3,8.358663E3,7.8362456E3,7.8923223E3,7.228465E3,1.1524514E4,1.0056609E4,8.489973E3,7.981601E3],"categories":[],"categories_nodes":[],"categories_segments":[],"categories_sizes":[],"default_left":[1,1,1,1,1,1,1,0,0,0,0,0,0,0,0],"id":30,"left_children":[1,3,5,7,9,11,13,-1,-1,-1,-1,-1,-1,-1,-1],"loss_changes":[1.3139313E9,1.4568653E8,3.334996E9,6.152192E7,2.6079232E7,2.5291162E8,8.708096E7,0E0,0E0,0E0,0E0,0E0,0E0,0E0,0E0],"parents":[2147483647,0,0,1,1,2,2,3,3,4,4,5,5,6,6],"right_children":[2,4,6,8,10,12,14,-1,-1,-1,-1,-1,-1,-1,-1],"split_conditions":[1.7E2,4.5E0,2.565E2,3.75E1,5.5E0,9.5E0,2.945E2,8.358663E1,7.836246E1,7.892322E1,7.2284645E1,1.1524513E2,1.0056609E2,8.489973E1,7.981601E1],"split_indices":[4,3,4,4,1,0,4,0,0,0,0,0,0,0,0],"split_type":[0,0,0,0,0,0,0,0,0,0,0,0,0,0,0],"sum_hessian":[6.727E3,3.258E3,3.469E3,2.339E3,9.19E2,8.53E2,2.616E3,6.25E2,1.714E3,2.53E2,6.66E2,2.29E2,6.24E2,9.12E2,1.704E3],"tree_param":{"num_deleted":"0","num_feature":"11","num_nodes":"15","size_leaf_vector":"0"}},{"base_weights":[8.209939E3,7.7364287E3,8.635196E3,7.847526E3,7.054132E3,1.0177537E4,8.0703657E3,7.9928643E3,7.457529E3,8.896078E3,1.0561545E4,8.217827E3,7.6935513E3],"categories":[],"categories_nodes":[],"categories_segments":[],"categories_sizes":[],"default_left":[1,1,1,1,0,1,1,0,0,0,0,0,0],"id":31,"left_children":[1,3,5,7,-1,9,11,-1,-1,-1,-1,-1,-1],"loss_changes":[1.287979E9,1.866793E8,2.998272E9,9.55351E7,0E0,3.705733E8,8.085504E7,0E0,0E0,0E0,0E0,0E0,0E0],"parents":[2147483647,0,0,1,1,2,2,3,3,5,5,6,6],"right_children":[2,4,6,8,-1,10,12,-1,-1,-1,-1,-1,-1],"split_conditions":[1.165E2,9.75E1,2.575E2,4.5E0,7.054131E1,2.275E2,4.5E0,7.992864E1,7.457529E1,8.896078E1,1.0561545E2,8.217827E1,7.693551E1],"split_indices":[4,4,4,3,0,4,3,0,0,0,0,0,0],"split_type":[0,0,0,0,0,0,0,0,0,0,0,0,0],"sum_hessian":[6.727E3,3.192E3,3.535E3,2.736E3,4.56E2,9.43E2,2.592E3,1.979E3,7.57E2,2.23E2,7.2E2,1.848E3,7.44E2],"tree_param":{"num_deleted":"0","num_feature":"11","num_nodes":"13","size_leaf_vector":"0"}},{"base_weights":[8.127926E3,7.6681147E3,8.557435E3,7.8208E3,7.271428E3,1.0256908E4,7.9995796E3,8.205646E3,7.6830776E3,7.4718643E3,6.846871E3,9.869009E3,1.1350099E4,8.147594E3,7.616719E3],"categories":[],"categories_nodes":[],"categories_segments":[],"categories_sizes":[],"default_left":[1,1,1,1,1,1,1,0,0,0,0,0,0,0,0],"id":32,"left_children":[1,3,5,7,9,11,13,-1,-1,-1,-1,-1,-1,-1,-1],"loss_changes":[1.2631081E9,1.4052557E8,3.2077087E9,6.0964864E7,2.7131904E7,2.5011814E8,8.626176E7,0E0,0E0,0E0,0E0,0E0,0E0,0E0,0E0],"parents":[2147483647,0,0,1,1,2,2,3,3,4,4,5,5,6,6],"right_children":[2,4,6,8,10,12,14,-1,-1,-1,-1,-1,-1,-1,-1],"split_conditions":[1.7E2,4.5E0,2.565E2,5.5E0,7.4E1,3.55E1,4.5E0,8.2056465E1,7.683077E1,7.471864E1,6.846871E1,9.869009E1,1.13500984E2,8.147594E1,7.616719E1],"split_indices":[4,3,4,1,4,1,3,0,0,0,0,0,0,0,0],"split_type":[0,0,0,0,0,0,0,0,0,0,0,0,0,0,0],"sum_hessian":[6.727E3,3.258E3,3.469E3,2.339E3,9.19E2,8.53E2,2.616E3,6.01E2,1.738E3,6.13E2,3.06E2,6.37E2,2.16E2,1.872E3,7.44E2],"tree_param":{"num_deleted":"0","num_feature":"11","num_nodes":"15","size_leaf_vector":"0"}},{"base_weights":[8.046746E3,7.58579E3,8.466692E3,7.71529E3,7.0614883E3,1.0027071E4,7.9098022E3,7.8542383E3,7.340418E3,7.1831104E3,6.2953193E3,1.1199566E4,9.622295E3,8.000615E3,7.326158E3],"categories":[],"categories_nodes":[],"categories_segments":[],"categories_sizes":[],"default_left":[1,1,1,1,1,1,1,0,0,0,0,0,0,0,0],"id":33,"left_children":[1,3,5,7,9,11,13,-1,-1,-1,-1,-1,-1,-1,-1],"loss_changes":[1.2381389E9,1.6392192E8,2.9724836E9,7.615283E7,1.5253504E7,3.2886784E8,7.880704E7,0E0,0E0,0E0,0E0,0E0,0E0,0E0,0E0],"parents":[2147483647,0,0,1,1,2,2,3,3,4,4,5,5,6,6],"right_children":[2,4,6,8,10,12,14,-1,-1,-1,-1,-1,-1,-1,-1],"split_conditions":[1.175E2,9.05E1,2.575E2,4.5E0,5.5E0,9.5E0,5.5E0,7.854238E1,7.3404175E1,7.18311E1,6.2953194E1,1.1199566E2,9.6222946E1,8.000615E1,7.326158E1],"split_indices":[4,4,4,3,3,0,3,0,0,0,0,0,0,0,0],"split_type":[0,0,0,0,0,0,0,0,0,0,0,0,0,0,0],"sum_hessian":[6.727E3,3.216E3,3.511E3,2.568E3,6.48E2,9.19E2,2.592E3,1.859E3,7.09E2,5.52E2,9.6E1,2.29E2,6.9E2,2.232E3,3.6E2],"tree_param":{"num_deleted":"0","num_feature":"11","num_nodes":"15","size_leaf_vector":"0"}},{"base_weights":[7.9663755E3,7.5154937E3,8.387544E3,7.9200225E3,7.368555E3,1.0054247E4,7.8404478E3,7.52931E3,6.938389E3,9.698592E3,1.1222068E4,8.1643906E3,7.662383E3],"categories":[],"categories_nodes":[],"categories_segments":[],"categories_sizes":[],"default_left":[1,1,1,0,1,1,1,0,0,0,0,0,0],"id":34,"left_children":[1,3,5,-1,7,9,11,-1,-1,-1,-1,-1,-1],"loss_changes":[1.2146115E9,1.3534822E8,3.085271E9,0E0,1.1406541E8,2.458665E8,8.840806E7,0E0,0E0,0E0,0E0,0E0,0E0],"parents":[2147483647,0,0,1,1,2,2,4,4,5,5,6,6],"right_children":[2,4,6,-1,8,10,12,-1,-1,-1,-1,-1,-1],"split_conditions":[1.7E2,5.5E0,2.565E2,7.9200226E1,4.5E0,2.485E2,2.945E2,7.52931E1,6.938389E1,9.6985916E1,1.1222068E2,8.1643906E1,7.6623825E1],"split_indices":[4,1,4,0,3,4,4,0,0,0,0,0,0],"split_type":[0,0,0,0,0,0,0,0,0,0,0,0,0],"sum_hessian":[6.727E3,3.258E3,3.469E3,8.54E2,2.404E3,8.53E2,2.616E3,1.738E3,6.66E2,6.61E2,1.92E2,9.12E2,1.704E3],"tree_param":{"num_deleted":"0","num_feature":"11","num_nodes":"13","size_leaf_vector":"0"}},{"base_weights":[7.8867993E3,7.440407E3,8.303774E3,7.5890127E3,7.0543457E3,9.95395E3,7.7621035E3,7.956343E3,7.450507E3,7.2506665E3,6.6387246E3,1.0985135E4,9.558548E3,8.0828364E3,7.585804E3],"categories":[],"categories_nodes":[],"categories_segments":[],"categories_sizes":[],"default_left":[1,1,1,1,1,1,1,0,0,0,0,0,0,0,0],"id":35,"left_children":[1,3,5,7,9,11,13,-1,-1,-1,-1,-1,-1,-1,-1],"loss_changes":[1.1905597E9,1.334313E8,3.0244045E9,5.9777024E7,2.6935296E7,2.4318771E8,8.667136E7,0E0,0E0,0E0,0E0,0E0,0E0,0E0,0E0],"parents":[2147483647,0,0,1,1,2,2,3,3,4,4,5,5,6,6],"right_children":[2,4,6,8,10,12,14,-1,-1,-1,-1,-1,-1,-1,-1],"split_conditions":[1.7E2,4.5E0,2.565E2,3.75E1,7.4E1,9.5E0,2.945E2,7.956342E1,7.4505066E1,7.250666E1,6.6387245E1,1.0985135E2,9.558548E1,8.082836E1,7.585804E1],"split_indices":[4,3,4,4,4,0,4,0,0,0,0,0,0,0,0],"split_type":[0,0,0,0,0,0,0,0,0,0,0,0,0,0,0],"sum_hessian":[6.727E3,3.258E3,3.469E3,2.339E3,9.19E2,8.53E2,2.616E3,6.25E2,1.714E3,6.13E2,3.06E2,2.29E2,6.24E2,9.12E2,1.704E3],"tree_param":{"num_deleted":"0","num_feature":"11","num_nodes":"15","size_leaf_vector":"0"}},{"base_weights":[7.808029E3,7.3572344E3,8.212887E3,7.465222E3,6.694391E3,9.681889E3,7.674919E3,7.6039966E3,7.0928755E3,8.443473E3,1.0053211E4,7.7647954E3,7.0977197E3],"categories":[],"categories_nodes":[],"categories_segments":[],"categories_sizes":[],"default_left":[1,1,1,1,0,1,1,0,0,0,0,0,0],"id":36,"left_children":[1,3,5,7,-1,9,11,-1,-1,-1,-1,-1,-1],"loss_changes":[1.1674583E9,1.7856922E8,2.7201044E9,8.749056E7,0E0,3.4922496E8,7.939686E7,0E0,0E0,0E0,0E0,0E0,0E0],"parents":[2147483647,0,0,1,1,2,2,3,3,5,5,6,6],"right_children":[2,4,6,8,-1,10,12,-1,-1,-1,-1,-1,-1],"split_conditions":[1.165E2,9.75E1,2.575E2,4.5E0,6.694391E1,2.275E2,5.5E0,7.603996E1,7.092876E1,8.443472E1,1.00532104E2,7.764795E1,7.0977196E1],"split_indices":[4,4,4,3,0,4,3,0,0,0,0,0,0],"split_type":[0,0,0,0,0,0,0,0,0,0,0,0,0],"sum_hessian":[6.727E3,3.192E3,3.535E3,2.736E3,4.56E2,9.43E2,2.592E3,1.979E3,7.57E2,2.23E2,7.2E2,2.232E3,3.6E2],"tree_param":{"num_deleted":"0","num_feature":"11","num_nodes":"13","size_leaf_vector":"0"}},{"base_weights":[7.73003E3,7.2923667E3,8.1388525E3,7.6890938E3,7.148294E3,9.757195E3,7.607632E3,7.3049316E3,6.7291924E3,9.406883E3,1.0908232E4,7.924809E3,7.433327E3],"categories":[],"categories_nodes":[],"categories_segments":[],"categories_sizes":[],"default_left":[1,1,1,0,1,1,1,0,0,0,0,0,0],"id":37,"left_children":[1,3,5,-1,7,9,11,-1,-1,-1,-1,-1,-1],"loss_changes":[1.144488E9,1.3131776E8,2.90893E9,0E0,1.0871603E8,2.4173773E8,8.577024E7,0E0,0E0,0E0,0E0,0E0,0E0],"parents":[2147483647,0,0,1,1,2,2,4,4,5,5,6,6],"right_children":[2,4,6,-1,8,10,12,-1,-1,-1,-1,-1,-1],"split_conditions":[1.7E2,5.5E0,2.565E2,7.689094E1,4.5E0,2.485E2,2.945E2,7.304932E1,6.729192E1,9.4068825E1,1.0908232E2,7.924809E1,7.433327E1],"split_indices":[4,1,4,0,3,4,4,0,0,0,0,0,0],"split_type":[0,0,0,0,0,0,0,0,0,0,0,0,0],"sum_hessian":[6.727E3,3.258E3,3.469E3,8.54E2,2.404E3,8.53E2,2.616E3,1.738E3,6.66E2,6.61E2,1.92E2,9.12E2,1.704E3],"tree_param":{"num_deleted":"0","num_feature":"11","num_nodes":"13","size_leaf_vector":"0"}},{"base_weights":[7.652815E3,7.2108438E3,8.04975E3,7.3174624E3,6.556518E3,9.490198E3,7.5222397E3,7.4538164E3,6.9516333E3,6.677264E3,5.829893E3,1.0676649E4,9.0952705E3,7.6647773E3,7.1583823E3],"categories":[],"categories_nodes":[],"categories_segments":[],"categories_sizes":[],"default_left":[1,1,1,1,1,1,1,0,0,0,0,0,0,0,0],"id":38,"left_children":[1,3,5,7,9,11,13,-1,-1,-1,-1,-1,-1,-1,-1],"loss_changes":[1.1222712E9,1.7478451E8,2.6154435E9,8.470528E7,1.16736E6,3.4521088E8,7.962624E7,0E0,0E0,0E0,0E0,0E0,0E0,0E0,0E0],"parents":[2147483647,0,0,1,1,2,2,3,3,4,4,5,5,6,6],"right_children":[2,4,6,8,10,12,14,-1,-1,-1,-1,-1,-1,-1,-1],"split_conditions":[1.165E2,9.75E1,2.575E2,4.5E0,5.5E0,9.5E0,4.5E0,7.453816E1,6.9516335E1,6.677264E1,5.829893E1,1.06766495E2,9.0952705E1,7.664777E1,7.1583824E1],"split_indices":[4,4,4,3,3,0,3,0,0,0,0,0,0,0,0],"split_type":[0,0,0,0,0,0,0,0,0,0,0,0,0,0,0],"sum_hessian":[6.727E3,3.192E3,3.535E3,2.736E3,4.56E2,9.43E2,2.592E3,1.979E3,7.57E2,3.84E2,7.2E1,2.29E2,7.14E2,1.848E3,7.44E2],"tree_param":{"num_deleted":"0","num_feature":"11","num_nodes":"15","size_leaf_vector":"0"}},{"base_weights":[7.5763784E3,7.147102E3,7.9773677E3,7.539328E3,7.0046904E3,9.564775E3,7.4563047E3,7.1583696E3,6.5935176E3,9.218964E3,1.0701367E4,7.7700386E3,7.2839316E3],"categories":[],"categories_nodes":[],"categories_segments":[],"categories_sizes":[],"default_left":[1,1,1,0,1,1,1,0,0,0,0,0,0],"id":39,"left_children":[1,3,5,-1,7,9,11,-1,-1,-1,-1,-1,-1],"loss_changes":[1.1010703E9,1.2923699E8,2.7988623E9,0E0,1.0476749E8,2.3701094E8,8.493466E7,0E0,0E0,0E0,0E0,0E0,0E0],"parents":[2147483647,0,0,1,1,2,2,4,4,5,5,6,6],"right_children":[2,4,6,-1,8,10,12,-1,-1,-1,-1,-1,-1],"split_conditions":[1.7E2,5.5E0,2.565E2,7.539328E1,4.5E0,2.485E2,2.945E2,7.1583694E1,6.593517E1,9.218964E1,1.0701367E2,7.7700386E1,7.283932E1],"split_indices":[4,1,4,0,3,4,4,0,0,0,0,0,0],"split_type":[0,0,0,0,0,0,0,0,0,0,0,0,0],"sum_hessian":[6.727E3,3.258E3,3.469E3,8.54E2,2.404E3,8.53E2,2.616E3,1.738E3,6.66E2,6.61E2,1.92E2,9.12E2,1.704E3],"tree_param":{"num_deleted":"0","num_feature":"11","num_nodes":"13","size_leaf_vector":"0"}},{"base_weights":[7.5006978E3,7.0756963E3,7.897695E3,7.1949375E3,6.6221416E3,9.46936E3,7.381799E3,7.3255337E3,6.842678E3,6.738671E3,5.8390776E3,1.047237E4,9.085102E3,7.5247144E3,7.012587E3],"categories":[],"categories_nodes":[],"categories_segments":[],"categories_sizes":[],"default_left":[1,1,1,1,1,1,1,0,0,0,0,0,0,0,0],"id":40,"left_children":[1,3,5,7,9,11,13,-1,-1,-1,-1,-1,-1,-1,-1],"loss_changes":[1.0792796E9,1.286144E8,2.743632E9,6.805914E7,2.3707648E7,2.3400448E8,8.532787E7,0E0,0E0,0E0,0E0,0E0,0E0,0E0,0E0],"parents":[2147483647,0,0,1,1,2,2,3,3,4,4,5,5,6,6],"right_children":[2,4,6,8,10,12,14,-1,-1,-1,-1,-1,-1,-1,-1],"split_conditions":[1.7E2,9.05E1,2.565E2,4.5E0,5.5E0,9.5E0,4.5E0,7.325533E1,6.842678E1,6.738671E1,5.8390774E1,1.047237E2,9.085101E1,7.524714E1,7.012587E1],"split_indices":[4,4,4,3,3,0,3,0,0,0,0,0,0,0,0],"split_type":[0,0,0,0,0,0,0,0,0,0,0,0,0,0,0],"sum_hessian":[6.727E3,3.258E3,3.469E3,2.568E3,6.9E2,8.53E2,2.616E3,1.859E3,7.09E2,5.94E2,9.6E1,2.29E2,6.24E2,1.872E3,7.44E2],"tree_param":{"num_deleted":"0","num_feature":"11","num_nodes":"15","size_leaf_vector":"0"}},{"base_weights":[7.4257812E3,6.9966426E3,7.811193E3,7.1010957E3,6.355758E3,9.210233E3,7.2988496E3,7.2337495E3,6.745218E3,6.473112E3,5.6497705E3,8.011368E3,9.569922E3,7.386638E3,6.7356074E3],"categories":[],"categories_nodes":[],"categories_segments":[],"categories_sizes":[],"default_left":[1,1,1,1,1,1,1,0,0,0,0,0,0,0,0],"id":41,"left_children":[1,3,5,7,9,11,13,-1,-1,-1,-1,-1,-1,-1,-1],"loss_changes":[1.05814426E9,1.6860774E8,2.467332E9,8.042906E7,1.292288E6,3.3039974E8,7.846298E7,0E0,0E0,0E0,0E0,0E0,0E0,0E0,0E0],"parents":[2147483647,0,0,1,1,2,2,3,3,4,4,5,5,6,6],"right_children":[2,4,6,8,10,12,14,-1,-1,-1,-1,-1,-1,-1,-1],"split_conditions":[1.165E2,9.75E1,2.575E2,4.5E0,5.5E0,2.275E2,5.5E0,7.2337494E1,6.745218E1,6.473112E1,5.6497704E1,8.011368E1,9.569922E1,7.386638E1,6.735607E1],"split_indices":[4,4,4,3,3,4,3,0,0,0,0,0,0,0,0],"split_type":[0,0,0,0,0,0,0,0,0,0,0,0,0,0,0],"sum_hessian":[6.727E3,3.192E3,3.535E3,2.736E3,4.56E2,9.43E2,2.592E3,1.979E3,7.57E2,3.84E2,7.2E1,2.23E2,7.2E2,2.232E3,3.6E2],"tree_param":{"num_deleted":"0","num_feature":"11","num_nodes":"15","size_leaf_vector":"0"}},{"base_weights":[7.3516094E3,6.9349297E3,7.740834E3,7.3214746E3,6.794626E3,9.282174E3,7.2348936E3,6.9440874E3,6.394763E3,8.941555E3,1.0402424E4,7.545101E3,7.064539E3],"categories":[],"categories_nodes":[],"categories_segments":[],"categories_sizes":[],"default_left":[1,1,1,0,1,1,1,0,0,0,0,0,0],"id":42,"left_children":[1,3,5,-1,7,9,11,-1,-1,-1,-1,-1,-1],"loss_changes":[1.03746765E9,1.2700877E8,2.6388398E9,0E0,9.9328E7,2.328576E8,8.500838E7,0E0,0E0,0E0,0E0,0E0,0E0],"parents":[2147483647,0,0,1,1,2,2,4,4,5,5,6,6],"right_children":[2,4,6,-1,8,10,12,-1,-1,-1,-1,-1,-1],"split_conditions":[1.7E2,5.5E0,2.565E2,7.3214745E1,4.5E0,2.485E2,2.945E2,6.944087E1,6.394763E1,8.941554E1,1.0402424E2,7.545101E1,7.0645386E1],"split_indices":[4,1,4,0,3,4,4,0,0,0,0,0,0],"split_type":[0,0,0,0,0,0,0,0,0,0,0,0,0],"sum_hessian":[6.727E3,3.258E3,3.469E3,8.54E2,2.404E3,8.53E2,2.616E3,1.738E3,6.66E2,6.61E2,1.92E2,9.12E2,1.704E3],"tree_param":{"num_deleted":"0","num_feature":"11","num_nodes":"13","size_leaf_vector":"0"}},{"base_weights":[7.278175E3,6.8574443E3,7.6560347E3,6.982389E3,6.3329004E3,9.027881E3,7.153652E3,7.1093965E3,6.639831E3,6.44443E3,5.6593745E3,1.0178576E4,8.645102E3,7.2405386E3,6.5963906E3],"categories":[],"categories_nodes":[],"categories_segments":[],"categories_sizes":[],"default_left":[1,1,1,1,1,1,1,0,0,0,0,0,0,0,0],"id":43,"left_children":[1,3,5,7,9,11,13,-1,-1,-1,-1,-1,-1,-1,-1],"loss_changes":[1.01708595E9,1.6505242E8,2.3724032E9,6.456115E7,1.0477568E7,3.277947E8,7.779123E7,0E0,0E0,0E0,0E0,0E0,0E0,0E0,0E0],"parents":[2147483647,0,0,1,1,2,2,3,3,4,4,5,5,6,6],"right_children":[2,4,6,8,10,12,14,-1,-1,-1,-1,-1,-1,-1,-1],"split_conditions":[1.165E2,9.05E1,2.575E2,4.5E0,5.5E0,9.5E0,5.5E0,7.109396E1,6.639831E1,6.44443E1,5.6593742E1,1.0178576E2,8.645101E1,7.240539E1,6.5963905E1],"split_indices":[4,4,4,3,3,0,3,0,0,0,0,0,0,0,0],"split_type":[0,0,0,0,0,0,0,0,0,0,0,0,0,0,0],"sum_hessian":[6.727E3,3.192E3,3.535E3,2.568E3,6.24E2,9.43E2,2.592E3,1.859E3,7.09E2,5.28E2,9.6E1,2.29E2,7.14E2,2.232E3,3.6E2],"tree_param":{"num_deleted":"0","num_feature":"11","num_nodes":"15","size_leaf_vector":"0"}},{"base_weights":[7.20548E3,6.7967866E3,7.5872456E3,7.178724E3,6.6581777E3,9.099117E3,7.0909805E3,6.8048613E3,6.2657637E3,8.762873E3,1.0205308E4,7.3978843E3,6.922479E3],"categories":[],"categories_nodes":[],"categories_segments":[],"categories_sizes":[],"default_left":[1,1,1,0,1,1,1,0,0,0,0,0,0],"id":44,"left_children":[1,3,5,-1,7,9,11,-1,-1,-1,-1,-1,-1],"loss_changes":[9.981788E8,1.2473139E8,2.5389957E9,0E0,9.578906E7,2.2822093E8,8.413184E7,0E0,0E0,0E0,0E0,0E0,0E0],"parents":[2147483647,0,0,1,1,2,2,4,4,5,5,6,6],"right_children":[2,4,6,-1,8,10,12,-1,-1,-1,-1,-1,-1],"split_conditions":[1.7E2,5.5E0,2.565E2,7.178724E1,4.5E0,2.485E2,2.945E2,6.8048615E1,6.2657635E1,8.762873E1,1.0205308E2,7.397884E1,6.9224785E1],"split_indices":[4,1,4,0,3,4,4,0,0,0,0,0,0],"split_type":[0,0,0,0,0,0,0,0,0,0,0,0,0],"sum_hessian":[6.727E3,3.258E3,3.469E3,8.54E2,2.404E3,8.53E2,2.616E3,1.738E3,6.66E2,6.61E2,1.92E2,9.12E2,1.704E3],"tree_param":{"num_deleted":"0","num_feature":"11","num_nodes":"13","size_leaf_vector":"0"}},{"base_weights":[7.133505E3,6.7304067E3,7.512968E3,7.1070205E3,6.594453E3,9.067963E3,7.029081E3,6.7396426E3,6.2032E3,8.706673E3,1.0401742E4,7.341447E3,6.853295E3],"categories":[],"categories_nodes":[],"categories_segments":[],"categories_sizes":[],"default_left":[1,1,1,0,1,1,1,0,0,0,0,0,0],"id":45,"left_children":[1,3,5,-1,7,9,11,-1,-1,-1,-1,-1,-1],"loss_changes":[9.78518E8,1.2066816E8,2.5374392E9,0E0,9.555149E7,3.0313267E8,9.470771E7,0E0,0E0,0E0,0E0,0E0,0E0],"parents":[2147483647,0,0,1,1,2,2,4,4,5,5,6,6],"right_children":[2,4,6,-1,8,10,12,-1,-1,-1,-1,-1,-1],"split_conditions":[2.215E2,5.5E0,2.555E2,7.1070206E1,4.5E0,2.485E2,2.945E2,6.739642E1,6.2032E1,8.706673E1,1.0401742E2,7.341447E1,6.853295E1],"split_indices":[4,1,4,0,3,4,4,0,0,0,0,0,0],"split_type":[0,0,0,0,0,0,0,0,0,0,0,0,0],"sum_hessian":[6.727E3,3.271E3,3.456E3,8.54E2,2.417E3,8.16E2,2.64E3,1.751E3,6.66E2,6.48E2,1.68E2,9.36E2,1.704E3],"tree_param":{"num_deleted":"0","num_feature":"11","num_nodes":"13","size_leaf_vector":"0"}},{"base_weights":[7.062249E3,6.6631636E3,7.437934E3,7.036033E3,6.528562E3,8.977517E3,6.958844E3,6.6722847E3,6.1412607E3,8.61974E3,1.029834E4,7.317339E3,6.807941E3],"categories":[],"categories_nodes":[],"categories_segments":[],"categories_sizes":[],"default_left":[1,1,1,0,1,1,1,0,0,0,0,0,0],"id":46,"left_children":[1,3,5,-1,7,9,11,-1,-1,-1,-1,-1,-1],"loss_changes":[9.591849E8,1.182761E8,2.4874025E9,0E0,9.361818E7,2.9731635E8,9.306931E7,0E0,0E0,0E0,0E0,0E0,0E0],"parents":[2147483647,0,0,1,1,2,2,4,4,5,5,6,6],"right_children":[2,4,6,-1,8,10,12,-1,-1,-1,-1,-1,-1],"split_conditions":[2.215E2,5.5E0,2.555E2,7.036033E1,4.5E0,2.485E2,2.875E2,6.672285E1,6.1412605E1,8.61974E1,1.029834E2,7.3173386E1,6.807941E1],"split_indices":[4,1,4,0,3,4,4,0,0,0,0,0,0],"split_type":[0,0,0,0,0,0,0,0,0,0,0,0,0],"sum_hessian":[6.727E3,3.271E3,3.456E3,8.54E2,2.417E3,8.16E2,2.64E3,1.751E3,6.66E2,6.48E2,1.68E2,7.68E2,1.872E3],"tree_param":{"num_deleted":"0","num_feature":"11","num_nodes":"13","size_leaf_vector":"0"}},{"base_weights":[6.991705E3,6.5871514E3,7.3550386E3,6.688596E3,5.9651777E3,8.674902E3,6.871697E3,6.8148223E3,6.3500522E3,6.0774004E3,5.291604E3,9.799584E3,8.300983E3,7.0094194E3,6.5206616E3],"categories":[],"categories_nodes":[],"categories_segments":[],"categories_sizes":[],"default_left":[1,1,1,1,1,1,1,0,0,0,0,0,0,0,0],"id":47,"left_children":[1,3,5,7,9,11,13,-1,-1,-1,-1,-1,-1,-1,-1],"loss_changes":[9.404744E8,1.61579E8,2.1961605E9,7.367885E7,2.384896E6,3.1563776E8,7.965901E7,0E0,0E0,0E0,0E0,0E0,0E0,0E0,0E0],"parents":[2147483647,0,0,1,1,2,2,3,3,4,4,5,5,6,6],"right_children":[2,4,6,8,10,12,14,-1,-1,-1,-1,-1,-1,-1,-1],"split_conditions":[1.165E2,9.75E1,2.575E2,4.5E0,5.5E0,9.5E0,4.5E0,6.8148224E1,6.3500523E1,6.0774002E1,5.291604E1,9.7995834E1,8.3009834E1,7.009419E1,6.520661E1],"split_indices":[4,4,4,3,3,0,3,0,0,0,0,0,0,0,0],"split_type":[0,0,0,0,0,0,0,0,0,0,0,0,0,0,0],"sum_hessian":[6.727E3,3.192E3,3.535E3,2.736E3,4.56E2,9.43E2,2.592E3,1.979E3,7.57E2,3.84E2,7.2E1,2.29E2,7.14E2,1.848E3,7.44E2],"tree_param":{"num_deleted":"0","num_feature":"11","num_nodes":"15","size_leaf_vector":"0"}},{"base_weights":[6.9218716E3,6.5303228E3,7.290464E3,6.899062E3,6.397237E3,8.801103E3,6.820384E3,6.488361E3,5.8152866E3,8.448023E3,1.0104935E4,7.1264995E3,6.6481543E3],"categories":[],"categories_nodes":[],"categories_segments":[],"categories_sizes":[],"default_left":[1,1,1,0,1,1,1,0,0,0,0,0,0],"id":48,"left_children":[1,3,5,-1,7,9,11,-1,-1,-1,-1,-1,-1],"loss_changes":[9.233695E8,1.1644109E8,2.3948657E9,0E0,9.049702E7,2.9074637E8,9.186509E7,0E0,0E0,0E0,0E0,0E0,0E0],"parents":[2147483647,0,0,1,1,2,2,4,4,5,5,6,6],"right_children":[2,4,6,-1,8,10,12,-1,-1,-1,-1,-1,-1],"split_conditions":[2.215E2,5.5E0,2.555E2,6.8990616E1,5.5E0,2.485E2,2.945E2,6.4883606E1,5.8152866E1,8.448023E1,1.0104935E2,7.126499E1,6.6481544E1],"split_indices":[4,1,4,0,3,4,4,0,0,0,0,0,0],"split_type":[0,0,0,0,0,0,0,0,0,0,0,0,0],"sum_hessian":[6.727E3,3.271E3,3.456E3,8.54E2,2.417E3,8.16E2,2.64E3,2.081E3,3.36E2,6.48E2,1.68E2,9.36E2,1.704E3],"tree_param":{"num_deleted":"0","num_feature":"11","num_nodes":"13","size_leaf_vector":"0"}},{"base_weights":[6.852729E3,6.4650786E3,7.217653E3,6.830152E3,6.3333154E3,8.713318E3,6.752232E3,6.473328E3,5.95605E3,8.363673E3,1.0004483E4,6.8918687E3,6.3876094E3],"categories":[],"categories_nodes":[],"categories_segments":[],"categories_sizes":[],"default_left":[1,1,1,0,1,1,1,0,0,0,0,0,0],"id":49,"left_children":[1,3,5,-1,7,9,11,-1,-1,-1,-1,-1,-1],"loss_changes":[9.050849E8,1.1413094E8,2.347647E9,0E0,8.916992E7,2.8515942E8,9.043968E7,0E0,0E0,0E0,0E0,0E0,0E0],"parents":[2147483647,0,0,1,1,2,2,4,4,5,5,6,6],"right_children":[2,4,6,-1,8,10,12,-1,-1,-1,-1,-1,-1],"split_conditions":[2.215E2,5.5E0,2.555E2,6.830151E1,4.5E0,2.485E2,4.5E0,6.473328E1,5.9560497E1,8.363673E1,1.0004483E2,6.8918686E1,6.387609E1],"split_indices":[4,1,4,0,3,4,3,0,0,0,0,0,0],"split_type":[0,0,0,0,0,0,0,0,0,0,0,0,0],"sum_hessian":[6.727E3,3.271E3,3.456E3,8.54E2,2.417E3,8.16E2,2.64E3,1.751E3,6.66E2,6.48E2,1.68E2,1.896E3,7.44E2],"tree_param":{"num_deleted":"0","num_feature":"11","num_nodes":"13","size_leaf_vector":"0"}},{"base_weights":[6.7842773E3,6.4004863E3,7.145568E3,6.5122974E3,5.9833794E3,8.62641E3,6.68476E3,6.632572E3,6.1880405E3,6.0909097E3,5.2476914E3,8.280165E3,9.90503E3,7.0359297E3,6.5370107E3],"categories":[],"categories_nodes":[],"categories_segments":[],"categories_sizes":[],"default_left":[1,1,1,1,1,1,1,0,0,0,0,0,0,0,0],"id":50,"left_children":[1,3,5,7,9,11,13,-1,-1,-1,-1,-1,-1,-1,-1],"loss_changes":[8.871936E8,1.1363942E8,2.3013294E9,5.914624E7,2.3730176E7,2.7968307E8,9.10377E7,0E0,0E0,0E0,0E0,0E0,0E0,0E0,0E0],"parents":[2147483647,0,0,1,1,2,2,3,3,4,4,5,5,6,6],"right_children":[2,4,6,8,10,12,14,-1,-1,-1,-1,-1,-1,-1,-1],"split_conditions":[2.215E2,9.05E1,2.555E2,4.5E0,5.5E0,2.485E2,2.875E2,6.6325714E1,6.1880405E1,6.0909096E1,5.2476913E1,8.280165E1,9.90503E1,7.03593E1,6.537011E1],"split_indices":[4,4,4,3,3,4,4,0,0,0,0,0,0,0,0],"split_type":[0,0,0,0,0,0,0,0,0,0,0,0,0,0,0],"sum_hessian":[6.727E3,3.271E3,3.456E3,2.568E3,7.03E2,8.16E2,2.64E3,1.859E3,7.09E2,6.07E2,9.6E1,6.48E2,1.68E2,7.68E2,1.872E3],"tree_param":{"num_deleted":"0","num_feature":"11","num_nodes":"15","size_leaf_vector":"0"}},{"base_weights":[6.716518E3,6.3274795E3,7.065919E3,6.426652E3,5.7196846E3,8.336137E3,6.6007627E3,6.5488633E3,6.0989414E3,5.8277207E3,5.0715537E3,9.435054E3,7.97098E3,6.6856084E3,6.0576567E3],"categories":[],"categories_nodes":[],"categories_segments":[],"categories_sizes":[],"default_left":[1,1,1,1,1,1,1,0,0,0,0,0,0,0,0],"id":51,"left_children":[1,3,5,7,9,11,13,-1,-1,-1,-1,-1,-1,-1,-1],"loss_changes":[8.6982656E8,1.5571354E8,2.0342374E9,6.967296E7,2.44224E6,3.035996E8,7.899546E7,0E0,0E0,0E0,0E0,0E0,0E0,0E0,0E0],"parents":[2147483647,0,0,1,1,2,2,3,3,4,4,5,5,6,6],"right_children":[2,4,6,8,10,12,14,-1,-1,-1,-1,-1,-1,-1,-1],"split_conditions":[1.165E2,9.75E1,2.575E2,4.5E0,5.5E0,9.5E0,5.5E0,6.548863E1,6.0989414E1,5.8277206E1,5.0715534E1,9.435053E1,7.97098E1,6.685608E1,6.0576565E1],"split_indices":[4,4,4,3,3,0,3,0,0,0,0,0,0,0,0],"split_type":[0,0,0,0,0,0,0,0,0,0,0,0,0,0,0],"sum_hessian":[6.727E3,3.192E3,3.535E3,2.736E3,4.56E2,9.43E2,2.592E3,1.979E3,7.57E2,3.84E2,7.2E1,2.29E2,7.14E2,2.232E3,3.6E2],"tree_param":{"num_deleted":"0","num_feature":"11","num_nodes":"15","size_leaf_vector":"0"}},{"base_weights":[6.6494326E3,6.2728975E3,7.003894E3,6.632917E3,6.143001E3,8.456886E3,6.5517554E3,6.231133E3,5.5802915E3,8.115197E3,9.719012E3,6.8517285E3,6.3830596E3],"categories":[],"categories_nodes":[],"categories_segments":[],"categories_sizes":[],"default_left":[1,1,1,0,1,1,1,0,0,0,0,0,0],"id":52,"left_children":[1,3,5,-1,7,9,11,-1,-1,-1,-1,-1,-1],"loss_changes":[8.540324E8,1.1227136E8,2.2156902E9,0E0,8.513946E7,2.7346534E8,8.99072E7,0E0,0E0,0E0,0E0,0E0,0E0],"parents":[2147483647,0,0,1,1,2,2,4,4,5,5,6,6],"right_children":[2,4,6,-1,8,10,12,-1,-1,-1,-1,-1,-1],"split_conditions":[2.215E2,5.5E0,2.555E2,6.632917E1,5.5E0,2.485E2,2.945E2,6.2311325E1,5.5802914E1,8.115196E1,9.719012E1,6.851728E1,6.3830593E1],"split_indices":[4,1,4,0,3,4,4,0,0,0,0,0,0],"split_type":[0,0,0,0,0,0,0,0,0,0,0,0,0],"sum_hessian":[6.727E3,3.271E3,3.456E3,8.54E2,2.417E3,8.16E2,2.64E3,2.081E3,3.36E2,6.48E2,1.68E2,9.36E2,1.704E3],"tree_param":{"num_deleted":"0","num_feature":"11","num_nodes":"13","size_leaf_vector":"0"}},{"base_weights":[6.5830117E3,6.2102246E3,6.933945E3,6.3199883E3,5.8008604E3,8.372535E3,6.486288E3,6.437252E3,6.0038887E3,5.905082E3,5.087793E3,8.03417E3,9.622396E3,6.6234736E3,6.1282646E3],"categories":[],"categories_nodes":[],"categories_segments":[],"categories_sizes":[],"default_left":[1,1,1,1,1,1,1,0,0,0,0,0,0,0,0],"id":53,"left_children":[1,3,5,7,9,11,13,-1,-1,-1,-1,-1,-1,-1,-1],"loss_changes":[8.371241E8,1.1036262E8,2.171994E9,5.657395E7,2.2276096E7,2.6820608E8,8.911258E7,0E0,0E0,0E0,0E0,0E0,0E0,0E0,0E0],"parents":[2147483647,0,0,1,1,2,2,3,3,4,4,5,5,6,6],"right_children":[2,4,6,8,10,12,14,-1,-1,-1,-1,-1,-1,-1,-1],"split_conditions":[2.215E2,9.05E1,2.555E2,4.5E0,5.5E0,2.485E2,4.5E0,6.437252E1,6.0038887E1,5.905082E1,5.087793E1,8.03417E1,9.622396E1,6.623473E1,6.1282646E1],"split_indices":[4,4,4,3,3,4,3,0,0,0,0,0,0,0,0],"split_type":[0,0,0,0,0,0,0,0,0,0,0,0,0,0,0],"sum_hessian":[6.727E3,3.271E3,3.456E3,2.568E3,7.03E2,8.16E2,2.64E3,1.859E3,7.09E2,6.07E2,9.6E1,6.48E2,1.68E2,1.896E3,7.44E2],"tree_param":{"num_deleted":"0","num_feature":"11","num_nodes":"15","size_leaf_vector":"0"}},{"base_weights":[6.5172617E3,6.148194E3,6.8646934E3,6.5036504E3,6.019963E3,8.262259E3,6.412948E3,6.1065107E3,5.467403E3,9.3307E3,7.8780757E3,6.5471025E3,6.067064E3],"categories":[],"categories_nodes":[],"categories_segments":[],"categories_sizes":[],"default_left":[1,1,1,0,1,1,1,0,0,0,0,0,0],"id":54,"left_children":[1,3,5,-1,7,9,11,-1,-1,-1,-1,-1,-1],"loss_changes":[8.205107E8,1.0999398E8,2.1295596E9,0E0,8.224768E7,2.7169997E8,8.170701E7,0E0,0E0,0E0,0E0,0E0,0E0],"parents":[2147483647,0,0,1,1,2,2,4,4,5,5,6,6],"right_children":[2,4,6,-1,8,10,12,-1,-1,-1,-1,-1,-1],"split_conditions":[2.215E2,5.5E0,2.565E2,6.50365E1,5.5E0,9.5E0,4.5E0,6.1065105E1,5.4674026E1,9.3307E1,7.8780754E1,6.547102E1,6.067064E1],"split_indices":[4,1,4,0,3,0,3,0,0,0,0,0,0],"split_type":[0,0,0,0,0,0,0,0,0,0,0,0,0],"sum_hessian":[6.727E3,3.271E3,3.456E3,8.54E2,2.417E3,8.4E2,2.616E3,2.081E3,3.36E2,2.16E2,6.24E2,1.872E3,7.44E2],"tree_param":{"num_deleted":"0","num_feature":"11","num_nodes":"13","size_leaf_vector":"0"}},{"base_weights":[6.45216E3,6.0780566E3,6.78815E3,6.1750234E3,5.484018E3,8.010474E3,6.340536E3,6.293651E3,5.8570063E3,5.587641E3,4.862388E3,9.078188E3,7.6558105E3,6.4233984E3,5.810421E3],"categories":[],"categories_nodes":[],"categories_segments":[],"categories_sizes":[],"default_left":[1,1,1,1,1,1,1,0,0,0,0,0,0,0,0],"id":55,"left_children":[1,3,5,7,9,11,13,-1,-1,-1,-1,-1,-1,-1,-1],"loss_changes":[8.044216E8,1.5006106E8,1.8838651E9,6.639616E7,2.267136E6,2.8797338E8,7.657062E7,0E0,0E0,0E0,0E0,0E0,0E0,0E0,0E0],"parents":[2147483647,0,0,1,1,2,2,3,3,4,4,5,5,6,6],"right_children":[2,4,6,8,10,12,14,-1,-1,-1,-1,-1,-1,-1,-1],"split_conditions":[1.165E2,9.75E1,2.575E2,4.5E0,5.5E0,9.5E0,5.5E0,6.293651E1,5.857006E1,5.587641E1,4.8623882E1,9.078188E1,7.6558105E1,6.4233986E1,5.8104206E1],"split_indices":[4,4,4,3,3,0,3,0,0,0,0,0,0,0,0],"split_type":[0,0,0,0,0,0,0,0,0,0,0,0,0,0,0],"sum_hessian":[6.727E3,3.192E3,3.535E3,2.736E3,4.56E2,9.43E2,2.592E3,1.979E3,7.57E2,3.84E2,7.2E1,2.29E2,7.14E2,2.232E3,3.6E2],"tree_param":{"num_deleted":"0","num_feature":"11","num_nodes":"15","size_leaf_vector":"0"}},{"base_weights":[6.3877153E3,6.0256187E3,6.728587E3,6.377119E3,5.898837E3,8.126276E3,6.2936606E3,6.03073E3,5.5435513E3,7.793536E3,9.35599E3,6.636777E3,6.149427E3],"categories":[],"categories_nodes":[],"categories_segments":[],"categories_sizes":[],"default_left":[1,1,1,0,1,1,1,0,0,0,0,0,0],"id":56,"left_children":[1,3,5,-1,7,9,11,-1,-1,-1,-1,-1,-1],"loss_changes":[7.899054E8,1.0819994E8,2.0503265E9,0E0,7.9872E7,2.6137805E8,8.989082E7,0E0,0E0,0E0,0E0,0E0,0E0],"parents":[2147483647,0,0,1,1,2,2,4,4,5,5,6,6],"right_children":[2,4,6,-1,8,10,12,-1,-1,-1,-1,-1,-1],"split_conditions":[2.215E2,5.5E0,2.555E2,6.377119E1,4.5E0,2.485E2,2.875E2,6.0307297E1,5.5435513E1,7.7935356E1,9.35599E1,6.636777E1,6.1494267E1],"split_indices":[4,1,4,0,3,4,4,0,0,0,0,0,0],"split_type":[0,0,0,0,0,0,0,0,0,0,0,0,0],"sum_hessian":[6.727E3,3.271E3,3.456E3,8.54E2,2.417E3,8.16E2,2.64E3,1.751E3,6.66E2,6.48E2,1.68E2,7.68E2,1.872E3],"tree_param":{"num_deleted":"0","num_feature":"11","num_nodes":"13","size_leaf_vector":"0"}},{"base_weights":[6.3239097E3,5.9654175E3,6.6613877E3,6.072795E3,5.565107E3,8.1017793E3,6.2469873E3,6.1465947E3,5.6043843E3,5.6655933E3,4.877882E3,7.7157207E3,1.01055E4,6.6039043E3,6.0879653E3],"categories":[],"categories_nodes":[],"categories_segments":[],"categories_sizes":[],"default_left":[1,1,1,1,1,1,1,0,0,0,0,0,0,0,0],"id":57,"left_children":[1,3,5,7,9,11,13,-1,-1,-1,-1,-1,-1,-1,-1],"loss_changes":[7.742423E8,1.0684006E8,2.0128727E9,5.436211E7,2.0977664E7,5.1689472E8,1.1241062E8,0E0,0E0,0E0,0E0,0E0,0E0,0E0,0E0],"parents":[2147483647,0,0,1,1,2,2,3,3,4,4,5,5,6,6],"right_children":[2,4,6,8,10,12,14,-1,-1,-1,-1,-1,-1,-1,-1],"split_conditions":[2.215E2,9.05E1,2.535E2,5.5E0,5.5E0,2.485E2,2.875E2,6.1465946E1,5.6043842E1,5.665593E1,4.8778816E1,7.71572E1,1.01055E2,6.603904E1,6.087965E1],"split_indices":[4,4,4,3,3,4,4,0,0,0,0,0,0,0,0],"split_type":[0,0,0,0,0,0,0,0,0,0,0,0,0,0,0],"sum_hessian":[6.727E3,3.271E3,3.456E3,2.568E3,7.03E2,7.68E2,2.688E3,2.208E3,3.6E2,6.07E2,9.6E1,6.48E2,1.2E2,8.16E2,1.872E3],"tree_param":{"num_deleted":"0","num_feature":"11","num_nodes":"15","size_leaf_vector":"0"}},{"base_weights":[6.260749E3,5.9058315E3,6.594862E3,6.2527896E3,5.780705E3,8.020993E3,6.1845645E3,5.91038E3,5.431424E3,7.6386826E3,1.000528E4,6.537946E3,6.0271177E3],"categories":[],"categories_nodes":[],"categories_segments":[],"categories_sizes":[],"default_left":[1,1,1,0,1,1,1,0,0,0,0,0,0],"id":58,"left_children":[1,3,5,-1,7,9,11,-1,-1,-1,-1,-1,-1],"loss_changes":[7.588905E8,1.0590618E8,1.9732234E9,0E0,7.742259E7,5.0694554E8,1.1020698E8,0E0,0E0,0E0,0E0,0E0,0E0],"parents":[2147483647,0,0,1,1,2,2,4,4,5,5,6,6],"right_children":[2,4,6,-1,8,10,12,-1,-1,-1,-1,-1,-1],"split_conditions":[2.215E2,5.5E0,2.535E2,6.2527893E1,4.5E0,2.485E2,2.875E2,5.9103798E1,5.4314236E1,7.6386826E1,1.000528E2,6.5379456E1,6.0271175E1],"split_indices":[4,1,4,0,3,4,4,0,0,0,0,0,0],"split_type":[0,0,0,0,0,0,0,0,0,0,0,0,0],"sum_hessian":[6.727E3,3.271E3,3.456E3,8.54E2,2.417E3,7.68E2,2.688E3,1.751E3,6.66E2,6.48E2,1.2E2,8.16E2,1.872E3],"tree_param":{"num_deleted":"0","num_feature":"11","num_nodes":"13","size_leaf_vector":"0"}},{"base_weights":[6.1982124E3,5.8384336E3,6.521339E3,5.9332144E3,5.25801E3,7.6981455E3,6.0903994E3,6.048161E3,5.6251294E3,5.358107E3,4.658073E3,6.625339E3,8.0207676E3,6.172399E3,5.5663125E3],"categories":[],"categories_nodes":[],"categories_segments":[],"categories_sizes":[],"default_left":[1,1,1,1,1,1,1,0,0,0,0,0,0,0,0],"id":59,"left_children":[1,3,5,7,9,11,13,-1,-1,-1,-1,-1,-1,-1,-1],"loss_changes":[7.4407936E8,1.4445773E8,1.7463378E9,6.291456E7,2.485248E6,2.7358822E8,7.707034E7,0E0,0E0,0E0,0E0,0E0,0E0,0E0,0E0],"parents":[2147483647,0,0,1,1,2,2,3,3,4,4,5,5,6,6],"right_children":[2,4,6,8,10,12,14,-1,-1,-1,-1,-1,-1,-1,-1],"split_conditions":[1.165E2,9.75E1,2.575E2,4.5E0,5.5E0,2.275E2,5.5E0,6.048161E1,5.6251293E1,5.358107E1,4.658073E1,6.625339E1,8.020767E1,6.1723988E1,5.5663124E1],"split_indices":[4,4,4,3,3,4,3,0,0,0,0,0,0,0,0],"split_type":[0,0,0,0,0,0,0,0,0,0,0,0,0,0,0],"sum_hessian":[6.727E3,3.192E3,3.535E3,2.736E3,4.56E2,9.43E2,2.592E3,1.979E3,7.57E2,3.84E2,7.2E1,2.23E2,7.2E2,2.232E3,3.6E2],"tree_param":{"num_deleted":"0","num_feature":"11","num_nodes":"15","size_leaf_vector":"0"}},{"base_weights":[6.136302E3,5.788319E3,6.463887E3,6.131176E3,5.6646914E3,7.8635225E3,6.061216E3,5.747001E3,5.139369E3,7.485426E3,9.82651E3,6.4095386E3,5.906042E3],"categories":[],"categories_nodes":[],"categories_segments":[],"categories_sizes":[],"default_left":[1,1,1,0,1,1,1,0,0,0,0,0,0],"id":60,"left_children":[1,3,5,-1,7,9,11,-1,-1,-1,-1,-1,-1],"loss_changes":[7.295304E8,1.0395648E8,1.9006751E9,0E0,7.501414E7,4.9719296E8,1.0748723E8,0E0,0E0,0E0,0E0,0E0,0E0],"parents":[2147483647,0,0,1,1,2,2,4,4,5,5,6,6],"right_children":[2,4,6,-1,8,10,12,-1,-1,-1,-1,-1,-1],"split_conditions":[2.215E2,5.5E0,2.535E2,6.1311756E1,5.5E0,2.485E2,2.875E2,5.747001E1,5.1393692E1,7.4854256E1,9.82651E1,6.409538E1,5.9060417E1],"split_indices":[4,1,4,0,3,4,4,0,0,0,0,0,0],"split_type":[0,0,0,0,0,0,0,0,0,0,0,0,0],"sum_hessian":[6.727E3,3.271E3,3.456E3,8.54E2,2.417E3,7.68E2,2.688E3,2.081E3,3.36E2,6.48E2,1.2E2,8.16E2,1.872E3],"tree_param":{"num_deleted":"0","num_feature":"11","num_nodes":"13","size_leaf_vector":"0"}},{"base_weights":[6.075008E3,5.722277E3,6.391805E3,5.8158633E3,5.149262E3,7.546117E3,5.969105E3,5.929103E3,5.512392E3,5.247344E3,4.5614414E3,8.571697E3,7.2056562E3,6.0502617E3,5.4505674E3],"categories":[],"categories_nodes":[],"categories_segments":[],"categories_sizes":[],"default_left":[1,1,1,1,1,1,1,0,0,0,0,0,0,0,0],"id":61,"left_children":[1,3,5,7,9,11,13,-1,-1,-1,-1,-1,-1,-1,-1],"loss_changes":[7.152435E8,1.4127923E8,1.6802611E9,6.1374464E7,2.413568E6,2.6784973E8,7.614464E7,0E0,0E0,0E0,0E0,0E0,0E0,0E0,0E0],"parents":[2147483647,0,0,1,1,2,2,3,3,4,4,5,5,6,6],"right_children":[2,4,6,8,10,12,14,-1,-1,-1,-1,-1,-1,-1,-1],"split_conditions":[1.165E2,9.75E1,2.575E2,4.5E0,5.5E0,9.5E0,5.5E0,5.9291027E1,5.512392E1,5.2473442E1,4.5614414E1,8.571697E1,7.2056564E1,6.0502617E1,5.4505672E1],"split_indices":[4,4,4,3,3,0,3,0,0,0,0,0,0,0,0],"split_type":[0,0,0,0,0,0,0,0,0,0,0,0,0,0,0],"sum_hessian":[6.727E3,3.192E3,3.535E3,2.736E3,4.56E2,9.43E2,2.592E3,1.979E3,7.57E2,3.84E2,7.2E1,2.29E2,7.14E2,2.232E3,3.6E2],"tree_param":{"num_deleted":"0","num_feature":"11","num_nodes":"15","size_leaf_vector":"0"}},{"base_weights":[6.01433E3,5.6729175E3,6.3357324E3,6.0119473E3,5.550691E3,7.7093125E3,5.94056E3,5.6758643E3,5.2135776E3,7.3362153E3,9.646758E3,6.2844404E3,5.787388E3],"categories":[],"categories_nodes":[],"categories_segments":[],"categories_sizes":[],"default_left":[1,1,1,0,1,1,1,0,0,0,0,0,0],"id":62,"left_children":[1,3,5,-1,7,9,11,-1,-1,-1,-1,-1,-1],"loss_changes":[7.0231654E8,1.0221158E8,1.8306662E9,0E0,7.245005E7,4.8510566E8,1.052672E8,0E0,0E0,0E0,0E0,0E0,0E0],"parents":[2147483647,0,0,1,1,2,2,4,4,5,5,6,6],"right_children":[2,4,6,-1,8,10,12,-1,-1,-1,-1,-1,-1],"split_conditions":[2.215E2,5.5E0,2.535E2,6.0119473E1,4.5E0,2.485E2,2.875E2,5.675864E1,5.2135777E1,7.336215E1,9.6467575E1,6.2844402E1,5.7873882E1],"split_indices":[4,1,4,0,3,4,4,0,0,0,0,0,0],"split_type":[0,0,0,0,0,0,0,0,0,0,0,0,0],"sum_hessian":[6.727E3,3.271E3,3.456E3,8.54E2,2.417E3,7.68E2,2.688E3,1.751E3,6.66E2,6.48E2,1.2E2,8.16E2,1.872E3],"tree_param":{"num_deleted":"0","num_feature":"11","num_nodes":"13","size_leaf_vector":"0"}},{"base_weights":[5.954255E3,5.6162397E3,6.272459E3,5.720145E3,5.229096E3,7.63244E3,5.881199E3,5.7909E3,5.271341E3,5.324467E3,4.5773994E3,7.262966E3,9.551088E3,6.221673E3,5.729545E3],"categories":[],"categories_nodes":[],"categories_segments":[],"categories_sizes":[],"default_left":[1,1,1,1,1,1,1,0,0,0,0,0,0,0,0],"id":63,"left_children":[1,3,5,7,9,11,13,-1,-1,-1,-1,-1,-1,-1,-1],"loss_changes":[6.884229E8,1.0170368E8,1.7945969E9,5.1060736E7,1.938432E7,4.757668E8,1.0319462E8,0E0,0E0,0E0,0E0,0E0,0E0,0E0,0E0],"parents":[2147483647,0,0,1,1,2,2,3,3,4,4,5,5,6,6],"right_children":[2,4,6,8,10,12,14,-1,-1,-1,-1,-1,-1,-1,-1],"split_conditions":[2.215E2,9.05E1,2.535E2,5.5E0,5.5E0,2.485E2,2.875E2,5.7908997E1,5.2713406E1,5.3244667E1,4.5773994E1,7.2629654E1,9.551088E1,6.221673E1,5.729545E1],"split_indices":[4,4,4,3,3,4,4,0,0,0,0,0,0,0,0],"split_type":[0,0,0,0,0,0,0,0,0,0,0,0,0,0,0],"sum_hessian":[6.727E3,3.271E3,3.456E3,2.568E3,7.03E2,7.68E2,2.688E3,2.208E3,3.6E2,6.07E2,9.6E1,6.48E2,1.2E2,8.16E2,1.872E3],"tree_param":{"num_deleted":"0","num_feature":"11","num_nodes":"15","size_leaf_vector":"0"}},{"base_weights":[5.894786E3,5.560141E3,6.209818E3,5.8947856E3,5.439512E3,7.556334E3,5.8224316E3,5.562574E3,5.108111E3,7.1904478E3,9.456365E3,6.159532E3,5.6722803E3],"categories":[],"categories_nodes":[],"categories_segments":[],"categories_sizes":[],"default_left":[1,1,1,0,1,1,1,0,0,0,0,0,0],"id":64,"left_children":[1,3,5,-1,7,9,11,-1,-1,-1,-1,-1,-1],"loss_changes":[6.7477504E8,1.0001613E8,1.7592566E9,0E0,7.019725E7,4.6660813E8,1.011712E8,0E0,0E0,0E0,0E0,0E0,0E0],"parents":[2147483647,0,0,1,1,2,2,4,4,5,5,6,6],"right_children":[2,4,6,-1,8,10,12,-1,-1,-1,-1,-1,-1],"split_conditions":[2.215E2,5.5E0,2.535E2,5.8947857E1,4.5E0,2.485E2,2.875E2,5.562574E1,5.108111E1,7.190447E1,9.456365E1,6.159532E1,5.67228E1],"split_indices":[4,1,4,0,3,4,4,0,0,0,0,0,0],"split_type":[0,0,0,0,0,0,0,0,0,0,0,0,0],"sum_hessian":[6.727E3,3.271E3,3.456E3,8.54E2,2.417E3,7.68E2,2.688E3,1.751E3,6.66E2,6.48E2,1.2E2,8.16E2,1.872E3],"tree_param":{"num_deleted":"0","num_feature":"11","num_nodes":"13","size_leaf_vector":"0"}},{"base_weights":[5.8359053E3,5.4966753E3,6.140579E3,5.588153E3,4.9367827E3,7.252157E3,5.7335327E3,5.6978887E3,5.2941367E3,5.0315225E3,4.369502E3,6.220711E3,7.562548E3,5.861996E3,5.4070063E3],"categories":[],"categories_nodes":[],"categories_segments":[],"categories_sizes":[],"default_left":[1,1,1,1,1,1,1,0,0,0,0,0,0,0,0],"id":65,"left_children":[1,3,5,7,9,11,13,-1,-1,-1,-1,-1,-1,-1,-1],"loss_changes":[6.616187E8,1.3594624E8,1.5583314E9,5.8146816E7,2.57536E6,2.551726E8,7.707034E7,0E0,0E0,0E0,0E0,0E0,0E0,0E0,0E0],"parents":[2147483647,0,0,1,1,2,2,3,3,4,4,5,5,6,6],"right_children":[2,4,6,8,10,12,14,-1,-1,-1,-1,-1,-1,-1,-1],"split_conditions":[1.165E2,9.75E1,2.575E2,4.5E0,5.5E0,2.275E2,4.5E0,5.6978886E1,5.2941364E1,5.0315224E1,4.369502E1,6.2207108E1,7.562547E1,5.861996E1,5.407006E1],"split_indices":[4,4,4,3,3,4,3,0,0,0,0,0,0,0,0],"split_type":[0,0,0,0,0,0,0,0,0,0,0,0,0,0,0],"sum_hessian":[6.727E3,3.192E3,3.535E3,2.736E3,4.56E2,9.43E2,2.592E3,1.979E3,7.57E2,3.84E2,7.2E1,2.23E2,7.2E2,1.848E3,7.44E2],"tree_param":{"num_deleted":"0","num_feature":"11","num_nodes":"15","size_leaf_vector":"0"}},{"base_weights":[5.777614E3,5.449511E3,6.0864873E3,5.7801895E3,5.33033E3,7.407973E3,5.706305E3,5.4086094E3,4.8309004E3,7.046123E3,9.287583E3,5.9950723E3,5.536134E3],"categories":[],"categories_nodes":[],"categories_segments":[],"categories_sizes":[],"default_left":[1,1,1,0,1,1,1,0,0,0,0,0,0],"id":66,"left_children":[1,3,5,-1,7,9,11,-1,-1,-1,-1,-1,-1],"loss_changes":[6.486753E8,9.814016E7,1.694548E9,0E0,6.83991E7,4.5758464E8,9.894298E7,0E0,0E0,0E0,0E0,0E0,0E0],"parents":[2147483647,0,0,1,1,2,2,4,4,5,5,6,6],"right_children":[2,4,6,-1,8,10,12,-1,-1,-1,-1,-1,-1],"split_conditions":[2.215E2,5.5E0,2.535E2,5.7801895E1,5.5E0,2.485E2,2.945E2,5.4086094E1,4.8309002E1,7.046123E1,9.287583E1,5.995072E1,5.5361336E1],"split_indices":[4,1,4,0,3,4,4,0,0,0,0,0,0],"split_type":[0,0,0,0,0,0,0,0,0,0,0,0,0],"sum_hessian":[6.727E3,3.271E3,3.456E3,8.54E2,2.417E3,7.68E2,2.688E3,2.081E3,3.36E2,6.48E2,1.2E2,9.84E2,1.704E3],"tree_param":{"num_deleted":"0","num_feature":"11","num_nodes":"13","size_leaf_vector":"0"}},{"base_weights":[5.719903E3,5.3873174E3,6.0186094E3,5.477643E3,4.834563E3,7.108985E3,5.619329E3,5.5857515E3,5.188022E3,4.927392E3,4.2787583E3,6.0944097E3,7.4143325E3,5.699119E3,5.110217E3],"categories":[],"categories_nodes":[],"categories_segments":[],"categories_sizes":[],"default_left":[1,1,1,1,1,1,1,0,0,0,0,0,0,0,0],"id":67,"left_children":[1,3,5,7,9,11,13,-1,-1,-1,-1,-1,-1,-1,-1],"loss_changes":[6.359777E8,1.3292339E8,1.4995046E9,5.672141E7,2.495488E6,2.4726733E8,7.621837E7,0E0,0E0,0E0,0E0,0E0,0E0,0E0,0E0],"parents":[2147483647,0,0,1,1,2,2,3,3,4,4,5,5,6,6],"right_children":[2,4,6,8,10,12,14,-1,-1,-1,-1,-1,-1,-1,-1],"split_conditions":[1.165E2,9.75E1,2.575E2,4.5E0,5.5E0,2.275E2,5.5E0,5.5857513E1,5.188022E1,4.927392E1,4.2787582E1,6.0944096E1,7.4143326E1,5.699119E1,5.1102165E1],"split_indices":[4,4,4,3,3,4,3,0,0,0,0,0,0,0,0],"split_type":[0,0,0,0,0,0,0,0,0,0,0,0,0,0,0],"sum_hessian":[6.727E3,3.192E3,3.535E3,2.736E3,4.56E2,9.43E2,2.592E3,1.979E3,7.57E2,3.84E2,7.2E1,2.23E2,7.2E2,2.232E3,3.6E2],"tree_param":{"num_deleted":"0","num_feature":"11","num_nodes":"15","size_leaf_vector":"0"}},{"base_weights":[5.6627695E3,5.341082E3,5.9656045E3,5.4417437E3,4.966167E3,7.26253E3,5.592491E3,5.509942E3,5.009357E3,5.0573223E3,4.3436035E3,6.904669E3,9.121944E3,5.877295E3,5.4246763E3],"categories":[],"categories_nodes":[],"categories_segments":[],"categories_sizes":[],"default_left":[1,1,1,1,1,1,1,0,0,0,0,0,0,0,0],"id":68,"left_children":[1,3,5,7,9,11,13,-1,-1,-1,-1,-1,-1,-1,-1],"loss_changes":[6.235423E8,9.646899E7,1.6322396E9,4.8152576E7,1.7985536E7,4.487168E8,9.663283E7,0E0,0E0,0E0,0E0,0E0,0E0,0E0,0E0],"parents":[2147483647,0,0,1,1,2,2,3,3,4,4,5,5,6,6],"right_children":[2,4,6,8,10,12,14,-1,-1,-1,-1,-1,-1,-1,-1],"split_conditions":[2.215E2,9.05E1,2.535E2,5.5E0,5.5E0,2.485E2,2.945E2,5.509942E1,5.0093567E1,5.0573223E1,4.3436035E1,6.9046684E1,9.1219444E1,5.877295E1,5.424676E1],"split_indices":[4,4,4,3,3,4,4,0,0,0,0,0,0,0,0],"split_type":[0,0,0,0,0,0,0,0,0,0,0,0,0,0,0],"sum_hessian":[6.727E3,3.271E3,3.456E3,2.568E3,7.03E2,7.68E2,2.688E3,2.208E3,3.6E2,6.07E2,9.6E1,6.48E2,1.2E2,9.84E2,1.704E3],"tree_param":{"num_deleted":"0","num_feature":"11","num_nodes":"15","size_leaf_vector":"0"}},{"base_weights":[5.6062124E3,5.280088E3,5.899116E3,5.368825E3,4.7370806E3,6.9688364E3,5.507402E3,5.475125E3,5.084073E3,4.827804E3,4.193716E3,7.940551E3,6.6465103E3,5.633704E3,5.1865425E3],"categories":[],"categories_nodes":[],"categories_segments":[],"categories_sizes":[],"default_left":[1,1,1,1,1,1,1,0,0,0,0,0,0,0,0],"id":69,"left_children":[1,3,5,7,9,11,13,-1,-1,-1,-1,-1,-1,-1,-1],"loss_changes":[6.115164E8,1.2842598E8,1.4432911E9,5.500928E7,2.28352E6,2.428928E8,7.586611E7,0E0,0E0,0E0,0E0,0E0,0E0,0E0,0E0],"parents":[2147483647,0,0,1,1,2,2,3,3,4,4,5,5,6,6],"right_children":[2,4,6,8,10,12,14,-1,-1,-1,-1,-1,-1,-1,-1],"split_conditions":[1.165E2,9.75E1,2.575E2,4.5E0,5.5E0,9.5E0,4.5E0,5.4751247E1,5.0840733E1,4.827804E1,4.1937157E1,7.94055E1,6.64651E1,5.633704E1,5.1865425E1],"split_indices":[4,4,4,3,3,0,3,0,0,0,0,0,0,0,0],"split_type":[0,0,0,0,0,0,0,0,0,0,0,0,0,0,0],"sum_hessian":[6.727E3,3.192E3,3.535E3,2.736E3,4.56E2,9.43E2,2.592E3,1.979E3,7.57E2,3.84E2,7.2E1,2.29E2,7.14E2,1.848E3,7.44E2],"tree_param":{"num_deleted":"0","num_feature":"11","num_nodes":"15","size_leaf_vector":"0"}},{"base_weights":[5.550217E3,5.2346094E3,5.847329E3,5.559977E3,5.1173955E3,7.1200996E3,5.481168E3,5.234287E3,4.802685E3,6.766973E3,8.955297E3,5.8053047E3,5.3368535E3],"categories":[],"categories_nodes":[],"categories_segments":[],"categories_sizes":[],"default_left":[1,1,1,0,1,1,1,0,0,0,0,0,0],"id":70,"left_children":[1,3,5,-1,7,9,11,-1,-1,-1,-1,-1,-1],"loss_changes":[6.002606E8,9.633792E7,1.5720694E9,0E0,6.381568E7,4.377518E8,9.480602E7,0E0,0E0,0E0,0E0,0E0,0E0],"parents":[2147483647,0,0,1,1,2,2,4,4,5,5,6,6],"right_children":[2,4,6,-1,8,10,12,-1,-1,-1,-1,-1,-1],"split_conditions":[2.215E2,5.5E0,2.535E2,5.559977E1,4.5E0,2.485E2,2.875E2,5.234287E1,4.8026848E1,6.766973E1,8.955296E1,5.8053047E1,5.3368534E1],"split_indices":[4,1,4,0,3,4,4,0,0,0,0,0,0],"split_type":[0,0,0,0,0,0,0,0,0,0,0,0,0],"sum_hessian":[6.727E3,3.271E3,3.456E3,8.54E2,2.417E3,7.68E2,2.688E3,1.751E3,6.66E2,6.48E2,1.2E2,8.16E2,1.872E3],"tree_param":{"num_deleted":"0","num_feature":"11","num_nodes":"13","size_leaf_vector":"0"}},{"base_weights":[5.494778E3,5.182311E3,5.7889336E3,5.504443E3,5.066263E3,7.049103E3,5.4263975E3,5.1412056E3,4.58823E3,6.6994077E3,8.866484E3,5.705209E3,5.262142E3],"categories":[],"categories_nodes":[],"categories_segments":[],"categories_sizes":[],"default_left":[1,1,1,0,1,1,1,0,0,0,0,0,0],"id":71,"left_children":[1,3,5,-1,7,9,11,-1,-1,-1,-1,-1,-1],"loss_changes":[5.883986E8,9.442099E7,1.5410954E9,0E0,6.303744E7,4.2932224E8,9.312666E7,0E0,0E0,0E0,0E0,0E0,0E0],"parents":[2147483647,0,0,1,1,2,2,4,4,5,5,6,6],"right_children":[2,4,6,-1,8,10,12,-1,-1,-1,-1,-1,-1],"split_conditions":[2.215E2,5.5E0,2.535E2,5.5044426E1,5.5E0,2.485E2,2.945E2,5.1412056E1,4.5882298E1,6.699407E1,8.866484E1,5.705209E1,5.2621418E1],"split_indices":[4,1,4,0,3,4,4,0,0,0,0,0,0],"split_type":[0,0,0,0,0,0,0,0,0,0,0,0,0],"sum_hessian":[6.727E3,3.271E3,3.456E3,8.54E2,2.417E3,7.68E2,2.688E3,2.081E3,3.36E2,6.48E2,1.2E2,9.84E2,1.704E3],"tree_param":{"num_deleted":"0","num_feature":"11","num_nodes":"13","size_leaf_vector":"0"}},{"base_weights":[5.439892E3,5.1305347E3,5.7311206E3,5.228994E3,4.763954E3,6.978814E3,5.3721743E3,5.295183E3,4.80949E3,4.658298E3,5.328718E3,6.6325166E3,8.778551E3,5.6903403E3,5.2305225E3],"categories":[],"categories_nodes":[],"categories_segments":[],"categories_sizes":[],"default_left":[1,1,1,1,1,1,1,0,0,0,0,0,0,0,0],"id":72,"left_children":[1,3,5,7,9,11,13,-1,-1,-1,-1,-1,-1,-1,-1],"loss_changes":[5.767496E8,9.319219E7,1.5107523E9,4.5858816E7,1.7186816E7,4.2104832E8,9.142272E7,0E0,0E0,0E0,0E0,0E0,0E0,0E0,0E0],"parents":[2147483647,0,0,1,1,2,2,3,3,4,4,5,5,6,6],"right_children":[2,4,6,8,10,12,14,-1,-1,-1,-1,-1,-1,-1,-1],"split_conditions":[2.215E2,9.05E1,2.535E2,5.5E0,1.155E2,2.485E2,2.875E2,5.2951828E1,4.8094902E1,4.6582977E1,5.3287178E1,6.6325165E1,8.778551E1,5.69034E1,5.230522E1],"split_indices":[4,4,4,3,4,4,4,0,0,0,0,0,0,0,0],"split_type":[0,0,0,0,0,0,0,0,0,0,0,0,0,0,0],"sum_hessian":[6.727E3,3.271E3,3.456E3,2.568E3,7.03E2,7.68E2,2.688E3,2.208E3,3.6E2,6E2,1.03E2,6.48E2,1.2E2,8.16E2,1.872E3],"tree_param":{"num_deleted":"0","num_feature":"11","num_nodes":"15","size_leaf_vector":"0"}},{"base_weights":[5.385562E3,5.079291E3,5.6738857E3,5.3972544E3,4.964759E3,6.817974E3,5.2900405E3,4.8433687E3,5.2635693E3,7.7762715E3,6.4870522E3,5.3684893E3,4.7901357E3],"categories":[],"categories_nodes":[],"categories_segments":[],"categories_sizes":[],"default_left":[1,1,1,0,1,1,1,0,0,0,0,0,0],"id":73,"left_children":[1,3,5,-1,7,9,11,-1,-1,-1,-1,-1,-1],"loss_changes":[5.652808E8,9.23648E7,1.4820884E9,0E0,6.221824E7,2.2386278E8,7.597261E7,0E0,0E0,0E0,0E0,0E0,0E0],"parents":[2147483647,0,0,1,1,2,2,4,4,5,5,6,6],"right_children":[2,4,6,-1,8,10,12,-1,-1,-1,-1,-1,-1],"split_conditions":[2.215E2,5.5E0,2.575E2,5.397254E1,2.15E1,9.5E0,5.5E0,4.8433685E1,5.2635693E1,7.776271E1,6.487052E1,5.368489E1,4.7901356E1],"split_indices":[4,1,4,0,0,0,3,0,0,0,0,0,0],"split_type":[0,0,0,0,0,0,0,0,0,0,0,0,0],"sum_hessian":[6.727E3,3.271E3,3.456E3,8.54E2,2.417E3,8.64E2,2.592E3,1.731E3,6.86E2,2.16E2,6.48E2,2.232E3,3.6E2],"tree_param":{"num_deleted":"0","num_feature":"11","num_nodes":"13","size_leaf_vector":"0"}},{"base_weights":[5.331766E3,5.021332E3,5.610579E3,5.1078228E3,4.4923467E3,6.630299E3,5.237179E3,5.211121E3,4.8312554E3,4.580738E3,3.9646343E3,5.6603267E3,6.9224536E3,5.361328E3,4.9220264E3],"categories":[],"categories_nodes":[],"categories_segments":[],"categories_sizes":[],"default_left":[1,1,1,1,1,1,1,0,0,0,0,0,0,0,0],"id":74,"left_children":[1,3,5,7,9,11,13,-1,-1,-1,-1,-1,-1,-1,-1],"loss_changes":[5.54156E8,1.2314214E8,1.3116539E9,5.3018624E7,3.155968E6,2.2832742E8,7.50633E7,0E0,0E0,0E0,0E0,0E0,0E0,0E0,0E0],"parents":[2147483647,0,0,1,1,2,2,3,3,4,4,5,5,6,6],"right_children":[2,4,6,8,10,12,14,-1,-1,-1,-1,-1,-1,-1,-1],"split_conditions":[1.165E2,9.75E1,2.575E2,4.5E0,5.5E0,2.275E2,4.5E0,5.211121E1,4.8312553E1,4.5807377E1,3.9646343E1,5.6603264E1,6.922453E1,5.361328E1,4.9220264E1],"split_indices":[4,4,4,3,3,4,3,0,0,0,0,0,0,0,0],"split_type":[0,0,0,0,0,0,0,0,0,0,0,0,0,0,0],"sum_hessian":[6.727E3,3.192E3,3.535E3,2.736E3,4.56E2,9.43E2,2.592E3,1.979E3,7.57E2,3.84E2,7.2E1,2.23E2,7.2E2,1.848E3,7.44E2],"tree_param":{"num_deleted":"0","num_feature":"11","num_nodes":"15","size_leaf_vector":"0"}},{"base_weights":[5.27851E3,4.9782344E3,5.561189E3,5.292419E3,4.8650806E3,6.774048E3,5.212268E3,4.7451367E3,5.16039E3,6.432822E3,8.548276E3,5.484127E3,5.0521543E3],"categories":[],"categories_nodes":[],"categories_segments":[],"categories_sizes":[],"default_left":[1,1,1,0,1,1,1,0,0,0,0,0,0],"id":75,"left_children":[1,3,5,-1,7,9,11,-1,-1,-1,-1,-1,-1],"loss_changes":[5.434081E8,9.057075E7,1.4276772E9,0E0,6.116147E7,4.1057485E8,8.934195E7,0E0,0E0,0E0,0E0,0E0,0E0],"parents":[2147483647,0,0,1,1,2,2,4,4,5,5,6,6],"right_children":[2,4,6,-1,8,10,12,-1,-1,-1,-1,-1,-1],"split_conditions":[2.215E2,5.5E0,2.535E2,5.2924187E1,2.15E1,2.485E2,2.945E2,4.7451366E1,5.16039E1,6.432822E1,8.5482765E1,5.4841267E1,5.052154E1],"split_indices":[4,1,4,0,0,4,4,0,0,0,0,0,0],"split_type":[0,0,0,0,0,0,0,0,0,0,0,0,0],"sum_hessian":[6.727E3,3.271E3,3.456E3,8.54E2,2.417E3,7.68E2,2.688E3,1.731E3,6.86E2,6.48E2,1.2E2,9.84E2,1.704E3],"tree_param":{"num_deleted":"0","num_feature":"11","num_nodes":"13","size_leaf_vector":"0"}},{"base_weights":[5.225785E3,4.9284985E3,5.5056514E3,5.0587593E3,4.6623696E3,6.7065024E3,5.1601846E3,4.951698E3,5.351309E3,4.5670967E3,5.279973E3,6.368593E3,8.4635E3,5.4293413E3,5.0016626E3],"categories":[],"categories_nodes":[],"categories_segments":[],"categories_sizes":[],"default_left":[1,1,1,1,1,1,1,0,0,0,0,0,0,0,0],"id":76,"left_children":[1,3,5,7,9,11,13,-1,-1,-1,-1,-1,-1,-1,-1],"loss_changes":[5.3264384E8,8.984166E7,1.3995295E9,4.194304E7,3.990323E7,4.0266138E8,8.758886E7,0E0,0E0,0E0,0E0,0E0,0E0,0E0,0E0],"parents":[2147483647,0,0,1,1,2,2,3,3,4,4,5,5,6,6],"right_children":[2,4,6,8,10,12,14,-1,-1,-1,-1,-1,-1,-1,-1],"split_conditions":[2.215E2,7.45E1,2.535E2,5.35E1,2.75E1,2.485E2,2.945E2,4.9516983E1,5.351309E1,4.5670967E1,5.279973E1,6.3685925E1,8.4634995E1,5.429341E1,5.0016624E1],"split_indices":[4,4,4,4,0,4,4,0,0,0,0,0,0,0,0],"split_type":[0,0,0,0,0,0,0,0,0,0,0,0,0,0,0],"sum_hessian":[6.727E3,3.271E3,3.456E3,2.184E3,1.087E3,7.68E2,2.688E3,1.612E3,5.72E2,9.49E2,1.38E2,6.48E2,1.2E2,9.84E2,1.704E3],"tree_param":{"num_deleted":"0","num_feature":"11","num_nodes":"15","size_leaf_vector":"0"}},{"base_weights":[5.1735947E3,4.872253E3,5.444243E3,4.9570723E3,4.353601E3,6.418426E3,5.0750513E3,5.059191E3,4.683785E3,4.441134E3,3.832319E3,7.3496875E3,6.119903E3,4.9440137E3,5.3753423E3],"categories":[],"categories_nodes":[],"categories_segments":[],"categories_sizes":[],"default_left":[1,1,1,1,1,1,1,0,0,0,0,0,0,0,0],"id":77,"left_children":[1,3,5,7,9,11,13,-1,-1,-1,-1,-1,-1,-1,-1],"loss_changes":[5.2219085E8,1.188905E8,1.2391875E9,5.268685E7,3.832832E6,2.2412493E8,7.450624E7,0E0,0E0,0E0,0E0,0E0,0E0,0E0,0E0],"parents":[2147483647,0,0,1,1,2,2,3,3,4,4,5,5,6,6],"right_children":[2,4,6,8,10,12,14,-1,-1,-1,-1,-1,-1,-1,-1],"split_conditions":[1.165E2,9.75E1,2.585E2,4.5E0,5.5E0,9.5E0,3.335E2,5.0591908E1,4.683785E1,4.4411335E1,3.832319E1,7.349687E1,6.1199028E1,4.9440136E1,5.375342E1],"split_indices":[4,4,4,3,3,0,4,0,0,0,0,0,0,0,0],"split_type":[0,0,0,0,0,0,0,0,0,0,0,0,0,0,0],"sum_hessian":[6.727E3,3.192E3,3.535E3,2.736E3,4.56E2,9.67E2,2.568E3,1.979E3,7.57E2,3.84E2,7.2E1,2.29E2,7.38E2,1.8E3,7.68E2],"tree_param":{"num_deleted":"0","num_feature":"11","num_nodes":"15","size_leaf_vector":"0"}},{"base_weights":[5.121921E3,4.830258E3,5.3964946E3,5.1406753E3,4.718497E3,6.575056E3,5.057443E3,4.830531E3,4.4171445E3,6.241626E3,8.309114E3,5.324281E3,4.9003213E3],"categories":[],"categories_nodes":[],"categories_segments":[],"categories_sizes":[],"default_left":[1,1,1,0,1,1,1,0,0,0,0,0,0],"id":78,"left_children":[1,3,5,-1,7,9,11,-1,-1,-1,-1,-1,-1],"loss_changes":[5.1273728E8,8.926003E7,1.348141E9,0E0,6.0297216E7,3.927634E8,8.664678E7,0E0,0E0,0E0,0E0,0E0,0E0],"parents":[2147483647,0,0,1,1,2,2,4,4,5,5,6,6],"right_children":[2,4,6,-1,8,10,12,-1,-1,-1,-1,-1,-1],"split_conditions":[2.215E2,5.5E0,2.535E2,5.1406754E1,4.5E0,2.485E2,2.945E2,4.8305305E1,4.4171444E1,6.241626E1,8.309114E1,5.3242805E1,4.9003212E1],"split_indices":[4,1,4,0,3,4,4,0,0,0,0,0,0],"split_type":[0,0,0,0,0,0,0,0,0,0,0,0,0],"sum_hessian":[6.727E3,3.271E3,3.456E3,8.54E2,2.417E3,7.68E2,2.688E3,1.751E3,6.66E2,6.48E2,1.2E2,9.84E2,1.704E3],"tree_param":{"num_deleted":"0","num_feature":"11","num_nodes":"13","size_leaf_vector":"0"}},{"base_weights":[5.0707603E3,4.781999E3,5.3426016E3,5.089533E3,4.671278E3,6.443343E3,4.986825E3,4.553204E3,4.962156E3,7.339478E3,6.1218955E3,5.110671E3,4.668772E3],"categories":[],"categories_nodes":[],"categories_segments":[],"categories_sizes":[],"default_left":[1,1,1,0,1,1,1,0,0,0,0,0,0],"id":79,"left_children":[1,3,5,-1,7,9,11,-1,-1,-1,-1,-1,-1],"loss_changes":[5.025792E8,8.764621E7,1.3216891E9,0E0,6.044877E7,1.973289E8,7.922483E7,0E0,0E0,0E0,0E0,0E0,0E0],"parents":[2147483647,0,0,1,1,2,2,4,4,5,5,6,6],"right_children":[2,4,6,-1,8,10,12,-1,-1,-1,-1,-1,-1],"split_conditions":[2.215E2,3.55E1,2.565E2,5.0895332E1,2.15E1,9.5E0,4.5E0,4.553204E1,4.9621555E1,7.3394775E1,6.1218952E1,5.110671E1,4.6687717E1],"split_indices":[4,4,4,0,0,0,3,0,0,0,0,0,0],"split_type":[0,0,0,0,0,0,0,0,0,0,0,0,0],"sum_hessian":[6.727E3,3.271E3,3.456E3,8.54E2,2.417E3,8.4E2,2.616E3,1.731E3,6.86E2,2.16E2,6.24E2,1.872E3,7.44E2],"tree_param":{"num_deleted":"0","num_feature":"11","num_nodes":"13","size_leaf_vector":"0"}},{"base_weights":[5.020109E3,4.7342236E3,5.2892427E3,4.8639907E3,4.477784E3,6.4449355E3,4.9567705E3,4.754914E3,5.1756064E3,4.3876104E3,5.077433E3,6.11593E3,8.156337E3,5.2607207E3,4.8215415E3],"categories":[],"categories_nodes":[],"categories_segments":[],"categories_sizes":[],"default_left":[1,1,1,1,1,1,1,0,0,0,0,0,0,0,0],"id":80,"left_children":[1,3,5,7,9,11,13,-1,-1,-1,-1,-1,-1,-1,-1],"loss_changes":[4.926341E8,8.710554E7,1.2963512E9,4.88448E7,3.784909E7,3.8311117E8,8.516813E7,0E0,0E0,0E0,0E0,0E0,0E0,0E0,0E0],"parents":[2147483647,0,0,1,1,2,2,3,3,4,4,5,5,6,6],"right_children":[2,4,6,8,10,12,14,-1,-1,-1,-1,-1,-1,-1,-1],"split_conditions":[2.215E2,7.35E1,2.535E2,5.35E1,2.75E1,2.485E2,2.875E2,4.754914E1,5.175606E1,4.3876102E1,5.077433E1,6.11593E1,8.156337E1,5.2607204E1,4.8215412E1],"split_indices":[4,4,4,4,0,4,4,0,0,0,0,0,0,0,0],"split_type":[0,0,0,0,0,0,0,0,0,0,0,0,0,0,0],"sum_hessian":[6.727E3,3.271E3,3.456E3,2.16E3,1.111E3,7.68E2,2.688E3,1.612E3,5.48E2,9.73E2,1.38E2,6.48E2,1.2E2,8.16E2,1.872E3],"tree_param":{"num_deleted":"0","num_feature":"11","num_nodes":"15","size_leaf_vector":"0"}},{"base_weights":[4.9699727E3,4.6869404E3,5.236421E3,4.9912036E3,4.5774155E3,6.2960327E3,4.880925E3,4.6492183E3,4.1202324E3,7.1965176E3,5.985245E3,4.9575176E3,4.3936313E3],"categories":[],"categories_nodes":[],"categories_segments":[],"categories_sizes":[],"default_left":[1,1,1,0,1,1,1,0,0,0,0,0,0],"id":81,"left_children":[1,3,5,-1,7,9,11,-1,-1,-1,-1,-1,-1],"loss_changes":[4.8283648E8,8.619622E7,1.2714803E9,0E0,6.021939E7,1.9900416E8,7.499776E7,0E0,0E0,0E0,0E0,0E0,0E0],"parents":[2147483647,0,0,1,1,2,2,4,4,5,5,6,6],"right_children":[2,4,6,-1,8,10,12,-1,-1,-1,-1,-1,-1],"split_conditions":[2.215E2,3.55E1,2.575E2,4.9912037E1,5.5E0,9.5E0,5.5E0,4.649218E1,4.1202324E1,7.196517E1,5.985245E1,4.9575176E1,4.3936314E1],"split_indices":[4,4,4,0,3,0,3,0,0,0,0,0,0],"split_type":[0,0,0,0,0,0,0,0,0,0,0,0,0],"sum_hessian":[6.727E3,3.271E3,3.456E3,8.54E2,2.417E3,8.64E2,2.592E3,2.081E3,3.36E2,2.16E2,6.48E2,2.232E3,3.6E2],"tree_param":{"num_deleted":"0","num_feature":"11","num_nodes":"13","size_leaf_vector":"0"}},{"base_weights":[4.9203267E3,4.6334473E3,5.177987E3,4.716232E3,4.127506E3,6.1068594E3,4.8259717E3,4.816008E3,4.449383E3,4.2128643E3,3.6207888E3,6.996387E3,5.8217466E3,4.6952017E3,5.1259604E3],"categories":[],"categories_nodes":[],"categories_segments":[],"categories_sizes":[],"default_left":[1,1,1,1,1,1,1,0,0,0,0,0,0,0,0],"id":82,"left_children":[1,3,5,7,9,11,13,-1,-1,-1,-1,-1,-1,-1,-1],"loss_changes":[4.7331738E8,1.1426611E8,1.1267113E9,5.144576E7,4.512768E6,2.0476723E8,7.671398E7,0E0,0E0,0E0,0E0,0E0,0E0,0E0,0E0],"parents":[2147483647,0,0,1,1,2,2,3,3,4,4,5,5,6,6],"right_children":[2,4,6,8,10,12,14,-1,-1,-1,-1,-1,-1,-1,-1],"split_conditions":[1.165E2,9.75E1,2.585E2,4.5E0,5.5E0,9.5E0,3.335E2,4.8160076E1,4.4493828E1,4.2128643E1,3.6207886E1,6.996387E1,5.8217464E1,4.6952015E1,5.12596E1],"split_indices":[4,4,4,3,3,0,4,0,0,0,0,0,0,0,0],"split_type":[0,0,0,0,0,0,0,0,0,0,0,0,0,0,0],"sum_hessian":[6.727E3,3.192E3,3.535E3,2.736E3,4.56E2,9.67E2,2.568E3,1.979E3,7.57E2,3.84E2,7.2E1,2.29E2,7.38E2,1.8E3,7.68E2],"tree_param":{"num_deleted":"0","num_feature":"11","num_nodes":"15","size_leaf_vector":"0"}},{"base_weights":[4.8711826E3,4.5934976E3,5.1325986E3,4.8945215E3,4.4851562E3,6.256054E3,4.809404E3,4.380062E3,4.80263E3,5.932566E3,7.9394243E3,5.0704536E3,4.6557715E3],"categories":[],"categories_nodes":[],"categories_segments":[],"categories_sizes":[],"default_left":[1,1,1,0,1,1,1,0,0,0,0,0,0],"id":83,"left_children":[1,3,5,-1,7,9,11,-1,-1,-1,-1,-1,-1],"loss_changes":[4.6481408E8,8.475443E7,1.22513E9,0E0,5.963776E7,3.716567E8,8.423834E7,0E0,0E0,0E0,0E0,0E0,0E0],"parents":[2147483647,0,0,1,1,2,2,4,4,5,5,6,6],"right_children":[2,4,6,-1,8,10,12,-1,-1,-1,-1,-1,-1],"split_conditions":[2.215E2,5.5E0,2.535E2,4.8945213E1,2.25E1,2.485E2,2.945E2,4.380062E1,4.80263E1,5.9325657E1,7.939424E1,5.0704536E1,4.6557713E1],"split_indices":[4,1,4,0,0,4,4,0,0,0,0,0,0],"split_type":[0,0,0,0,0,0,0,0,0,0,0,0,0],"sum_hessian":[6.727E3,3.271E3,3.456E3,8.54E2,2.417E3,7.68E2,2.688E3,1.827E3,5.9E2,6.48E2,1.2E2,9.84E2,1.704E3],"tree_param":{"num_deleted":"0","num_feature":"11","num_nodes":"13","size_leaf_vector":"0"}},{"base_weights":[4.822527E3,4.5476055E3,5.081341E3,4.6747188E3,4.296491E3,6.193674E3,4.761346E3,4.5659517E3,4.9857676E3,4.208474E3,4.882333E3,5.8733315E3,7.8606855E3,5.0198003E3,4.609241E3],"categories":[],"categories_nodes":[],"categories_segments":[],"categories_sizes":[],"default_left":[1,1,1,1,1,1,1,0,0,0,0,0,0,0,0],"id":84,"left_children":[1,3,5,7,9,11,13,-1,-1,-1,-1,-1,-1,-1,-1],"loss_changes":[4.5560627E8,8.435712E7,1.2010045E9,5.0343936E7,3.679027E7,3.6448666E8,8.257126E7,0E0,0E0,0E0,0E0,0E0,0E0,0E0,0E0],"parents":[2147483647,0,0,1,1,2,2,3,3,4,4,5,5,6,6],"right_children":[2,4,6,8,10,12,14,-1,-1,-1,-1,-1,-1,-1,-1],"split_conditions":[2.215E2,7.35E1,2.535E2,5.35E1,2.75E1,2.485E2,2.945E2,4.5659515E1,4.9857674E1,4.208474E1,4.882333E1,5.8733315E1,7.860686E1,5.0198E1,4.609241E1],"split_indices":[4,4,4,4,0,4,4,0,0,0,0,0,0,0,0],"split_type":[0,0,0,0,0,0,0,0,0,0,0,0,0,0,0],"sum_hessian":[6.727E3,3.271E3,3.456E3,2.16E3,1.111E3,7.68E2,2.688E3,1.612E3,5.48E2,9.73E2,1.38E2,6.48E2,1.2E2,9.84E2,1.704E3],"tree_param":{"num_deleted":"0","num_feature":"11","num_nodes":"15","size_leaf_vector":"0"}},{"base_weights":[4.774364E3,4.502186E3,5.0305947E3,4.800027E3,4.3950083E3,6.050582E3,4.688397E3,4.4654766E3,3.94661E3,6.9200576E3,5.750541E3,4.7641694E3,4.206712E3],"categories":[],"categories_nodes":[],"categories_segments":[],"categories_sizes":[],"default_left":[1,1,1,0,1,1,1,0,0,0,0,0,0],"id":85,"left_children":[1,3,5,-1,7,9,11,-1,-1,-1,-1,-1,-1],"loss_changes":[4.465623E8,8.33536E7,1.1782554E9,0E0,5.87776E7,1.8586624E8,7.459635E7,0E0,0E0,0E0,0E0,0E0,0E0],"parents":[2147483647,0,0,1,1,2,2,4,4,5,5,6,6],"right_children":[2,4,6,-1,8,10,12,-1,-1,-1,-1,-1,-1],"split_conditions":[2.215E2,5.5E0,2.575E2,4.8000267E1,5.5E0,9.5E0,5.5E0,4.4654766E1,3.94661E1,6.920058E1,5.750541E1,4.7641693E1,4.206712E1],"split_indices":[4,1,4,0,3,0,3,0,0,0,0,0,0],"split_type":[0,0,0,0,0,0,0,0,0,0,0,0,0],"sum_hessian":[6.727E3,3.271E3,3.456E3,8.54E2,2.417E3,8.64E2,2.592E3,2.081E3,3.36E2,2.16E2,6.48E2,2.232E3,3.6E2],"tree_param":{"num_deleted":"0","num_feature":"11","num_nodes":"13","size_leaf_vector":"0"}},{"base_weights":[4.726672E3,4.4572046E3,4.9803516E3,4.5804604E3,4.2055767E3,6.0712E3,4.6665386E3,4.474308E3,4.871287E3,4.1157085E3,4.7895273E3,5.7551094E3,7.7164204E3,4.960702E3,4.5357334E3],"categories":[],"categories_nodes":[],"categories_segments":[],"categories_sizes":[],"default_left":[1,1,1,1,1,1,1,0,0,0,0,0,0,0,0],"id":86,"left_children":[1,3,5,7,9,11,13,-1,-1,-1,-1,-1,-1,-1,-1],"loss_changes":[4.3771494E8,8.221901E7,1.1550638E9,4.566221E7,3.738419E7,3.5550003E8,8.096563E7,0E0,0E0,0E0,0E0,0E0,0E0,0E0,0E0],"parents":[2147483647,0,0,1,1,2,2,3,3,4,4,5,5,6,6],"right_children":[2,4,6,8,10,12,14,-1,-1,-1,-1,-1,-1,-1,-1],"split_conditions":[2.215E2,7.45E1,2.535E2,5.35E1,2.75E1,2.485E2,2.875E2,4.474308E1,4.871287E1,4.1157085E1,4.789527E1,5.7551094E1,7.71642E1,4.960702E1,4.5357334E1],"split_indices":[4,4,4,4,0,4,4,0,0,0,0,0,0,0,0],"split_type":[0,0,0,0,0,0,0,0,0,0,0,0,0,0,0],"sum_hessian":[6.727E3,3.271E3,3.456E3,2.184E3,1.087E3,7.68E2,2.688E3,1.612E3,5.72E2,9.49E2,1.38E2,6.48E2,1.2E2,8.16E2,1.872E3],"tree_param":{"num_deleted":"0","num_feature":"11","num_nodes":"15","size_leaf_vector":"0"}},{"base_weights":[4.6794663E3,4.4126885E3,4.9306147E3,4.7075854E3,4.3065884E3,5.930899E3,4.595028E3,4.192045E3,4.589096E3,6.785214E3,5.6361113E3,4.468194E3,4.8900557E3],"categories":[],"categories_nodes":[],"categories_segments":[],"categories_sizes":[],"default_left":[1,1,1,0,1,1,1,0,0,0,0,0,0],"id":87,"left_children":[1,3,5,-1,7,9,11,-1,-1,-1,-1,-1,-1],"loss_changes":[4.2903142E8,8.210432E7,1.1331994E9,0E0,5.901107E7,1.796014E8,7.517798E7,0E0,0E0,0E0,0E0,0E0,0E0],"parents":[2147483647,0,0,1,1,2,2,4,4,5,5,6,6],"right_children":[2,4,6,-1,8,10,12,-1,-1,-1,-1,-1,-1],"split_conditions":[2.215E2,3.55E1,2.575E2,4.7075855E1,2.15E1,9.5E0,3.335E2,4.192045E1,4.589096E1,6.7852135E1,5.636111E1,4.468194E1,4.8900555E1],"split_indices":[4,4,4,0,0,0,4,0,0,0,0,0,0],"split_type":[0,0,0,0,0,0,0,0,0,0,0,0,0],"sum_hessian":[6.727E3,3.271E3,3.456E3,8.54E2,2.417E3,8.64E2,2.592E3,1.731E3,6.86E2,2.16E2,6.48E2,1.824E3,7.68E2],"tree_param":{"num_deleted":"0","num_feature":"11","num_nodes":"13","size_leaf_vector":"0"}},{"base_weights":[4.632724E3,4.3686025E3,4.881371E3,4.492375E3,4.1241416E3,5.9511475E3,4.5736216E3,4.3848506E3,4.800106E3,4.038238E3,4.6964155E3,5.6392476E3,7.5748813E3,4.827171E3,4.4244604E3],"categories":[],"categories_nodes":[],"categories_segments":[],"categories_sizes":[],"default_left":[1,1,1,1,1,1,1,0,0,0,0,0,0,0,0],"id":88,"left_children":[1,3,5,7,9,11,13,-1,-1,-1,-1,-1,-1,-1,-1],"loss_changes":[4.2052813E8,8.047821E7,1.1109007E9,5.0458624E7,3.5700736E7,3.467387E8,8.034304E7,0E0,0E0,0E0,0E0,0E0,0E0,0E0,0E0],"parents":[2147483647,0,0,1,1,2,2,3,3,4,4,5,5,6,6],"right_children":[2,4,6,8,10,12,14,-1,-1,-1,-1,-1,-1,-1,-1],"split_conditions":[2.215E2,7.35E1,2.535E2,5.35E1,2.75E1,2.485E2,2.945E2,4.3848503E1,4.8001057E1,4.0382378E1,4.6964153E1,5.6392475E1,7.574881E1,4.827171E1,4.4244602E1],"split_indices":[4,4,4,4,0,4,4,0,0,0,0,0,0,0,0],"split_type":[0,0,0,0,0,0,0,0,0,0,0,0,0,0,0],"sum_hessian":[6.727E3,3.271E3,3.456E3,2.16E3,1.111E3,7.68E2,2.688E3,1.612E3,5.48E2,9.73E2,1.38E2,6.48E2,1.2E2,9.84E2,1.704E3],"tree_param":{"num_deleted":"0","num_feature":"11","num_nodes":"15","size_leaf_vector":"0"}},{"base_weights":[4.586457E3,4.3187144E3,4.826931E3,4.398429E3,3.831845E3,5.696176E3,4.4975205E3,4.496458E3,4.1365625E3,3.915724E3,3.3369785E3,4.8234946E3,5.95092E3,4.367136E3,4.7970317E3],"categories":[],"categories_nodes":[],"categories_segments":[],"categories_sizes":[],"default_left":[1,1,1,1,1,1,1,0,0,0,0,0,0,0,0],"id":89,"left_children":[1,3,5,7,9,11,13,-1,-1,-1,-1,-1,-1,-1,-1],"loss_changes":[4.1233613E8,1.0707354E8,9.8687386E8,5.165875E7,5.902848E6,1.8649088E8,7.937638E7,0E0,0E0,0E0,0E0,0E0,0E0,0E0,0E0],"parents":[2147483647,0,0,1,1,2,2,3,3,4,4,5,5,6,6],"right_children":[2,4,6,8,10,12,14,-1,-1,-1,-1,-1,-1,-1,-1],"split_conditions":[1.165E2,9.75E1,2.585E2,4.5E0,5.5E0,2.275E2,3.335E2,4.496458E1,4.1365623E1,3.915724E1,3.3369785E1,4.8234943E1,5.9509197E1,4.367136E1,4.7970318E1],"split_indices":[4,4,4,3,3,4,4,0,0,0,0,0,0,0,0],"split_type":[0,0,0,0,0,0,0,0,0,0,0,0,0,0,0],"sum_hessian":[6.727E3,3.192E3,3.535E3,2.736E3,4.56E2,9.67E2,2.568E3,1.979E3,7.57E2,3.84E2,7.2E1,2.23E2,7.44E2,1.8E3,7.68E2],"tree_param":{"num_deleted":"0","num_feature":"11","num_nodes":"15","size_leaf_vector":"0"}},{"base_weights":[4.5406455E3,4.281711E3,4.78441E3,4.5729204E3,4.176969E3,5.8344873E3,4.48233E3,4.6700664E3,4.3246733E3,4.0640623E3,4.455539E3,5.5260264E3,7.440741E3,4.7333916E3,4.3346597E3],"categories":[],"categories_nodes":[],"categories_segments":[],"categories_sizes":[],"default_left":[1,1,1,1,1,1,1,0,0,0,0,0,0,0,0],"id":90,"left_children":[1,3,5,7,9,11,13,-1,-1,-1,-1,-1,-1,-1,-1],"loss_changes":[4.0419328E8,8.070349E7,1.07043226E9,4.23936E5,5.794611E7,3.3989632E8,7.917568E7,0E0,0E0,0E0,0E0,0E0,0E0,0E0,0E0],"parents":[2147483647,0,0,1,1,2,2,3,